<?xml version="1.0" encoding="US-ASCII"?>


<!--
	Bayesian network in XMLBIF v0.3 (BayesNet Interchange Format)
	Produced by JavaBayes (http://www.cs.cmu.edu/~javabayes/
	Number of nodes:12
	Output created Thu Jun 11 20:58:11 CEST 2020
-->



<BIF VERSION="0.3">
<NETWORK>
<NAME>InternalNetwork</NAME>
<!-- Variables -->
<VARIABLE TYPE="nature">
    <NAME>node0</NAME>
    <OUTCOME>state0</OUTCOME>
    <OUTCOME>state1</OUTCOME>
    <PROPERTY>position = (44, 270)</PROPERTY>
</VARIABLE>
<!-- Variables -->
<VARIABLE TYPE="nature">
    <NAME>node1</NAME>
    <OUTCOME>state0</OUTCOME>
    <OUTCOME>state1</OUTCOME>
    <PROPERTY>position = (45, 30)</PROPERTY>
</VARIABLE>
<!-- Variables -->
<VARIABLE TYPE="nature">
    <NAME>node2</NAME>
    <OUTCOME>state0</OUTCOME>
    <OUTCOME>state1</OUTCOME>
    <PROPERTY>position = (15, 390)</PROPERTY>
</VARIABLE>
<!-- Variables -->
<VARIABLE TYPE="nature">
    <NAME>node3</NAME>
    <OUTCOME>state0</OUTCOME>
    <OUTCOME>state1</OUTCOME>
    <PROPERTY>position = (15, 870)</PROPERTY>
</VARIABLE>
<!-- Variables -->
<VARIABLE TYPE="nature">
    <NAME>node4</NAME>
    <OUTCOME>state0</OUTCOME>
    <OUTCOME>state1</OUTCOME>
    <PROPERTY>position = (135, 404)</PROPERTY>
</VARIABLE>
<!-- Variables -->
<VARIABLE TYPE="nature">
    <NAME>node5</NAME>
    <OUTCOME>state0</OUTCOME>
    <OUTCOME>state1</OUTCOME>
    <PROPERTY>position = (44, 510)</PROPERTY>
</VARIABLE>
<!-- Variables -->
<VARIABLE TYPE="nature">
    <NAME>node6</NAME>
    <OUTCOME>state0</OUTCOME>
    <OUTCOME>state1</OUTCOME>
    <PROPERTY>position = (255, 390)</PROPERTY>
</VARIABLE>
<!-- Variables -->
<VARIABLE TYPE="nature">
    <NAME>node7</NAME>
    <OUTCOME>state0</OUTCOME>
    <OUTCOME>state1</OUTCOME>
    <PROPERTY>position = (15, 630)</PROPERTY>
</VARIABLE>
<!-- Variables -->
<VARIABLE TYPE="nature">
    <NAME>node8</NAME>
    <OUTCOME>state0</OUTCOME>
    <OUTCOME>state1</OUTCOME>
    <PROPERTY>position = (165, 44)</PROPERTY>
</VARIABLE>
<!-- Variables -->
<VARIABLE TYPE="nature">
    <NAME>node9</NAME>
    <OUTCOME>state0</OUTCOME>
    <OUTCOME>state1</OUTCOME>
    <PROPERTY>position = (375, 375)</PROPERTY>
</VARIABLE>
<!-- Variables -->
<VARIABLE TYPE="nature">
    <NAME>node10</NAME>
    <OUTCOME>state0</OUTCOME>
    <OUTCOME>state1</OUTCOME>
    <PROPERTY>position = (285, 30)</PROPERTY>
</VARIABLE>
<!-- Variables -->
<VARIABLE TYPE="nature">
    <NAME>node11</NAME>
    <OUTCOME>state0</OUTCOME>
    <OUTCOME>state1</OUTCOME>
    <PROPERTY>position = (495, 389)</PROPERTY>
</VARIABLE>
<!-- Probability Distributions -->
 <DEFINITION>
      <FOR>node0</FOR>
      <GIVEN>node1</GIVEN>
      <GIVEN>node8</GIVEN>
     <TABLE>0.0422 0.9578 0.4691 0.5309 0.2108 0.7892 0.8902 0.1098 </TABLE>
 </DEFINITION>
 <DEFINITION>
      <FOR>node1</FOR>
     <TABLE>0.8507 0.1493 </TABLE>
 </DEFINITION>
 <DEFINITION>
      <FOR>node2</FOR>
      <GIVEN>node5</GIVEN>
      <GIVEN>node11</GIVEN>
      <GIVEN>node4</GIVEN>
     <TABLE>0.9788 0.0212 0.9194 0.0806 0.3442 0.6558 0.5568 0.4432 0.7785 0.2215 0.9008 0.0992 0.1625 0.8375 0.1439 0.8561 </TABLE>
 </DEFINITION>
 <DEFINITION>
      <FOR>node3</FOR>
      <GIVEN>node11</GIVEN>
      <GIVEN>node0</GIVEN>
      <GIVEN>node4</GIVEN>
      <GIVEN>node7</GIVEN>
      <GIVEN>node6</GIVEN>
      <GIVEN>node8</GIVEN>
      <GIVEN>node9</GIVEN>
     <TABLE>0.5557 0.4443 0.0054 0.9946 0.9442 0.0558 0.8938 0.1062 0.0714 0.9286 0.7536 0.2464 0.349 0.651 0.8965 0.1035 0.8961 0.1039 0.2739 0.7261 0.5964 0.4036 0.4686 0.5314 0.9955 0.0045 0.7633 0.2367 0.8324 0.1676 0.9161 0.0839 0.3021 0.6979 0.3208 0.6792 0.477 0.523 0.2594 0.7406 0.1339 0.8661 0.1772 0.8228 0.507 0.493 0.6838 0.3162 0.7153 0.2847 0.61 0.39 0.1309 0.8691 0.5456 0.4544 0.653 0.347 0.9352 0.0648 0.222 0.778 0.8251 0.1749 0.5267 0.4733 0.357 0.643 0.7229 0.2771 0.1148 0.8852 0.5602 0.4398 0.0604 0.9396 0.6735 0.3265 0.3227 0.6773 0.9403 0.0597 0.2745 0.7255 0.7069 0.2931 0.19 0.81 0.6946 0.3054 0.0735 0.9265 0.6051 0.3949 0.0348 0.9652 0.5919 0.4081 0.668 0.332 0.038 0.962 0.957 0.043 0.7801 0.2199 0.7256 0.2744 0.9714 0.0286 0.8269 0.1731 0.8726 0.1274 0.7203 0.2797 0.0125 0.9875 0.6263 0.3737 0.2444 0.7556 0.281 0.719 0.6538 0.3462 0.1727 0.8273 0.1231 0.8769 0.414 0.586 0.4822 0.5178 0.9189 0.0811 0.3851 0.6149 0.0195 0.9805 0.3526 0.6474 0.6612 0.3388 0.1511 0.8489 0.7146 0.2854 0.6298 0.3702 0.7363 0.2637 0.4154 0.5846 0.3268 0.6732 0.3698 0.6302 0.8497 0.1503 0.6696 0.3304 0.5345 0.4655 0.1193 0.8807 0.0938 0.9062 0.5879 0.4121 0.6591 0.3409 0.5509 0.4491 0.3007 0.6993 0.3202 0.6798 0.7905 0.2095 0.3591 0.6409 0.8929 0.1071 0.1538 0.8462 0.3231 0.6769 0.1815 0.8185 0.3581 0.6419 0.5189 0.4811 0.5344 0.4656 0.2907 0.7093 0.77 0.23 0.9209 0.0791 0.484 0.516 0.878 0.122 0.1422 0.8578 0.4716 0.5284 0.1095 0.8905 0.7424 0.2576 0.2396 0.7604 0.0515 0.9485 0.6228 0.3772 0.9794 0.0206 0.2951 0.7049 0.8421 0.1579 0.3779 0.6221 0.1825 0.8175 0.6617 0.3383 0.1132 0.8868 9.0E-4 0.9991 0.4183 0.5817 0.6005 0.3995 0.2872 0.7128 0.8062 0.1938 0.3817 0.6183 0.6655 0.3345 0.4998 0.5002 0.5647 0.4353 0.0775 0.9225 0.386 0.614 </TABLE>
 </DEFINITION>
 <DEFINITION>
      <FOR>node4</FOR>
      <GIVEN>node6</GIVEN>
      <GIVEN>node8</GIVEN>
      <GIVEN>node10</GIVEN>
     <TABLE>0.267 0.733 0.6414 0.3586 0.5923 0.4077 0.2754 0.7246 0.6605 0.3395 0.5806 0.4194 0.8863 0.1137 0.0606 0.9394 </TABLE>
 </DEFINITION>
 <DEFINITION>
      <FOR>node5</FOR>
      <GIVEN>node1</GIVEN>
      <GIVEN>node4</GIVEN>
      <GIVEN>node0</GIVEN>
      <GIVEN>node6</GIVEN>
     <TABLE>0.0014 0.9986 0.1095 0.8905 0.3887 0.6113 0.0754 0.9246 0.8712 0.1288 0.9607 0.0393 0.6114 0.3886 0.9995 5.0E-4 0.9666 0.0334 0.9993 7.0E-4 0.7184 0.2816 0.734 0.266 0.137 0.863 0.9524 0.0476 0.5725 0.4275 0.6339 0.3661 </TABLE>
 </DEFINITION>
 <DEFINITION>
      <FOR>node6</FOR>
      <GIVEN>node1</GIVEN>
      <GIVEN>node8</GIVEN>
      <GIVEN>node10</GIVEN>
     <TABLE>0.663 0.337 0.9998 2.0E-4 0.7381 0.2619 0.2978 0.7022 0.5532 0.4468 0.4424 0.5576 0.8324 0.1676 0.2635 0.7365 </TABLE>
 </DEFINITION>
 <DEFINITION>
      <FOR>node7</FOR>
      <GIVEN>node5</GIVEN>
      <GIVEN>node2</GIVEN>
      <GIVEN>node11</GIVEN>
      <GIVEN>node9</GIVEN>
      <GIVEN>node8</GIVEN>
     <TABLE>0.7386 0.2614 0.7423 0.2577 0.8022 0.1978 0.5064 0.4936 0.2865 0.7135 0.4718 0.5282 0.7999 0.2001 0.9631 0.0369 0.0737 0.9263 0.8041 0.1959 0.3224 0.6776 0.4454 0.5546 0.2799 0.7201 0.8604 0.1396 0.3081 0.6919 0.1583 0.8417 0.2139 0.7861 0.2901 0.7099 0.0844 0.9156 0.1042 0.8958 0.1099 0.8901 0.5202 0.4798 0.1995 0.8005 0.0695 0.9305 0.0816 0.9184 0.8681 0.1319 0.8313 0.1687 0.1069 0.8931 0.2152 0.7848 0.0186 0.9814 0.5355 0.4645 0.1394 0.8606 </TABLE>
 </DEFINITION>
 <DEFINITION>
      <FOR>node8</FOR>
     <TABLE>0.4799 0.5201 </TABLE>
 </DEFINITION>
 <DEFINITION>
      <FOR>node9</FOR>
      <GIVEN>node1</GIVEN>
      <GIVEN>node4</GIVEN>
      <GIVEN>node5</GIVEN>
     <TABLE>0.2641 0.7359 0.0941 0.9059 0.512 0.488 0.8379 0.1621 0.2636 0.7364 0.4932 0.5068 0.711 0.289 0.4034 0.5966 </TABLE>
 </DEFINITION>
 <DEFINITION>
      <FOR>node10</FOR>
     <TABLE>0.118 0.882 </TABLE>
 </DEFINITION>
 <DEFINITION>
      <FOR>node11</FOR>
      <GIVEN>node9</GIVEN>
      <GIVEN>node0</GIVEN>
      <GIVEN>node1</GIVEN>
     <TABLE>0.3585 0.6415 0.9635 0.0365 0.2372 0.7628 0.5586 0.4414 0.872 0.128 0.3347 0.6653 0.528 0.472 0.819 0.181 </TABLE>
 </DEFINITION>
</NETWORK>
</BIF>
