<?xml version="1.0" encoding="US-ASCII"?>


<!--
	Bayesian network in XMLBIF v0.3 (BayesNet Interchange Format)
	Produced by JavaBayes (http://www.cs.cmu.edu/~javabayes/
	Number of nodes:20
	Output created Fri Jun 19 10:45:52 CEST 2020
-->



<BIF VERSION="0.3">
<NETWORK>
<NAME>InternalNetwork</NAME>
<!-- Variables -->
<VARIABLE TYPE="nature">
    <NAME>node0</NAME>
    <OUTCOME>state0</OUTCOME>
    <OUTCOME>state1</OUTCOME>
    <PROPERTY>position = (15, 390)</PROPERTY>
</VARIABLE>
<!-- Variables -->
<VARIABLE TYPE="nature">
    <NAME>node1</NAME>
    <OUTCOME>state0</OUTCOME>
    <OUTCOME>state1</OUTCOME>
    <PROPERTY>position = (15, 150)</PROPERTY>
</VARIABLE>
<!-- Variables -->
<VARIABLE TYPE="nature">
    <NAME>node2</NAME>
    <OUTCOME>state0</OUTCOME>
    <OUTCOME>state1</OUTCOME>
    <PROPERTY>position = (15, 630)</PROPERTY>
</VARIABLE>
<!-- Variables -->
<VARIABLE TYPE="nature">
    <NAME>node3</NAME>
    <OUTCOME>state0</OUTCOME>
    <OUTCOME>state1</OUTCOME>
    <PROPERTY>position = (45, 30)</PROPERTY>
</VARIABLE>
<!-- Variables -->
<VARIABLE TYPE="nature">
    <NAME>node4</NAME>
    <OUTCOME>state0</OUTCOME>
    <OUTCOME>state1</OUTCOME>
    <PROPERTY>position = (44, 270)</PROPERTY>
</VARIABLE>
<!-- Variables -->
<VARIABLE TYPE="nature">
    <NAME>node5</NAME>
    <OUTCOME>state0</OUTCOME>
    <OUTCOME>state1</OUTCOME>
    <PROPERTY>position = (135, 644)</PROPERTY>
</VARIABLE>
<!-- Variables -->
<VARIABLE TYPE="nature">
    <NAME>node6</NAME>
    <OUTCOME>state0</OUTCOME>
    <OUTCOME>state1</OUTCOME>
    <PROPERTY>position = (135, 164)</PROPERTY>
</VARIABLE>
<!-- Variables -->
<VARIABLE TYPE="nature">
    <NAME>node7</NAME>
    <OUTCOME>state0</OUTCOME>
    <OUTCOME>state1</OUTCOME>
    <PROPERTY>position = (135, 404)</PROPERTY>
</VARIABLE>
<!-- Variables -->
<VARIABLE TYPE="nature">
    <NAME>node8</NAME>
    <OUTCOME>state0</OUTCOME>
    <OUTCOME>state1</OUTCOME>
    <PROPERTY>position = (15, 870)</PROPERTY>
</VARIABLE>
<!-- Variables -->
<VARIABLE TYPE="nature">
    <NAME>node9</NAME>
    <OUTCOME>state0</OUTCOME>
    <OUTCOME>state1</OUTCOME>
    <PROPERTY>position = (255, 390)</PROPERTY>
</VARIABLE>
<!-- Variables -->
<VARIABLE TYPE="nature">
    <NAME>node10</NAME>
    <OUTCOME>state0</OUTCOME>
    <OUTCOME>state1</OUTCOME>
    <PROPERTY>position = (165, 44)</PROPERTY>
</VARIABLE>
<!-- Variables -->
<VARIABLE TYPE="nature">
    <NAME>node11</NAME>
    <OUTCOME>state0</OUTCOME>
    <OUTCOME>state1</OUTCOME>
    <PROPERTY>position = (375, 375)</PROPERTY>
</VARIABLE>
<!-- Variables -->
<VARIABLE TYPE="nature">
    <NAME>node12</NAME>
    <OUTCOME>state0</OUTCOME>
    <OUTCOME>state1</OUTCOME>
    <PROPERTY>position = (164, 284)</PROPERTY>
</VARIABLE>
<!-- Variables -->
<VARIABLE TYPE="nature">
    <NAME>node13</NAME>
    <OUTCOME>state0</OUTCOME>
    <OUTCOME>state1</OUTCOME>
    <PROPERTY>position = (44, 510)</PROPERTY>
</VARIABLE>
<!-- Variables -->
<VARIABLE TYPE="nature">
    <NAME>node14</NAME>
    <OUTCOME>state0</OUTCOME>
    <OUTCOME>state1</OUTCOME>
    <PROPERTY>position = (284, 270)</PROPERTY>
</VARIABLE>
<!-- Variables -->
<VARIABLE TYPE="nature">
    <NAME>node15</NAME>
    <OUTCOME>state0</OUTCOME>
    <OUTCOME>state1</OUTCOME>
    <PROPERTY>position = (495, 389)</PROPERTY>
</VARIABLE>
<!-- Variables -->
<VARIABLE TYPE="nature">
    <NAME>node16</NAME>
    <OUTCOME>state0</OUTCOME>
    <OUTCOME>state1</OUTCOME>
    <PROPERTY>position = (404, 255)</PROPERTY>
</VARIABLE>
<!-- Variables -->
<VARIABLE TYPE="nature">
    <NAME>node17</NAME>
    <OUTCOME>state0</OUTCOME>
    <OUTCOME>state1</OUTCOME>
    <PROPERTY>position = (135, 884)</PROPERTY>
</VARIABLE>
<!-- Variables -->
<VARIABLE TYPE="nature">
    <NAME>node18</NAME>
    <OUTCOME>state0</OUTCOME>
    <OUTCOME>state1</OUTCOME>
    <PROPERTY>position = (255, 630)</PROPERTY>
</VARIABLE>
<!-- Variables -->
<VARIABLE TYPE="nature">
    <NAME>node19</NAME>
    <OUTCOME>state0</OUTCOME>
    <OUTCOME>state1</OUTCOME>
    <PROPERTY>position = (375, 615)</PROPERTY>
</VARIABLE>
<!-- Probability Distributions -->
 <DEFINITION>
      <FOR>node0</FOR>
      <GIVEN>node12</GIVEN>
      <GIVEN>node3</GIVEN>
      <GIVEN>node10</GIVEN>
     <TABLE>0.3317 0.6683 0.5685 0.4315 0.4675 0.5325 0.2484 0.7516 0.2581 0.7419 0.6945 0.3055 0.5319 0.4681 0.0256 0.9744 </TABLE>
 </DEFINITION>
 <DEFINITION>
      <FOR>node1</FOR>
      <GIVEN>node12</GIVEN>
     <TABLE>0.8991 0.1009 0.3065 0.6935 </TABLE>
 </DEFINITION>
 <DEFINITION>
      <FOR>node2</FOR>
      <GIVEN>node1</GIVEN>
      <GIVEN>node14</GIVEN>
      <GIVEN>node16</GIVEN>
      <GIVEN>node6</GIVEN>
      <GIVEN>node9</GIVEN>
     <TABLE>0.5849 0.4151 0.0062 0.9938 0.3568 0.6432 0.8688 0.1312 0.1607 0.8393 0.3409 0.6591 0.9215 0.0785 0.5163 0.4837 0.4288 0.5712 0.1717 0.8283 0.9638 0.0362 0.3215 0.6785 0.1161 0.8839 0.2558 0.7442 0.695 0.305 0.1471 0.8529 0.5517 0.4483 0.7838 0.2162 0.6906 0.3094 0.985 0.015 0.3788 0.6212 0.516 0.484 0.1467 0.8533 0.6671 0.3329 0.8214 0.1786 0.5573 0.4427 0.2705 0.7295 0.0282 0.9718 0.6351 0.3649 0.2522 0.7478 0.2711 0.7289 0.9394 0.0606 </TABLE>
 </DEFINITION>
 <DEFINITION>
      <FOR>node3</FOR>
     <TABLE>0.8363 0.1637 </TABLE>
 </DEFINITION>
 <DEFINITION>
      <FOR>node4</FOR>
      <GIVEN>node1</GIVEN>
      <GIVEN>node0</GIVEN>
     <TABLE>0.6692 0.3308 0.5645 0.4355 0.6956 0.3044 0.304 0.696 </TABLE>
 </DEFINITION>
 <DEFINITION>
      <FOR>node5</FOR>
      <GIVEN>node12</GIVEN>
      <GIVEN>node7</GIVEN>
      <GIVEN>node9</GIVEN>
      <GIVEN>node13</GIVEN>
      <GIVEN>node6</GIVEN>
     <TABLE>0.7343 0.2657 0.5071 0.4929 0.7376 0.2624 0.0698 0.9302 0.0408 0.9592 0.5324 0.4676 0.805 0.195 0.5351 0.4649 0.8534 0.1466 0.9787 0.0213 0.1577 0.8423 0.1244 0.8756 0.6428 0.3572 0.2252 0.7748 0.548 0.452 0.648 0.352 0.1524 0.8476 0.8601 0.1399 0.5707 0.4293 0.1848 0.8152 0.5448 0.4552 0.8777 0.1223 0.1865 0.8135 0.1203 0.8797 0.4738 0.5262 0.74 0.26 0.1724 0.8276 0.9907 0.0093 0.4802 0.5198 0.2015 0.7985 0.1317 0.8683 0.1408 0.8592 </TABLE>
 </DEFINITION>
 <DEFINITION>
      <FOR>node6</FOR>
      <GIVEN>node10</GIVEN>
     <TABLE>0.6609 0.3391 0.7196 0.2804 </TABLE>
 </DEFINITION>
 <DEFINITION>
      <FOR>node7</FOR>
      <GIVEN>node4</GIVEN>
      <GIVEN>node12</GIVEN>
      <GIVEN>node11</GIVEN>
     <TABLE>0.1156 0.8844 0.5541 0.4459 0.094 0.906 0.3745 0.6255 0.8784 0.1216 0.8424 0.1576 0.925 0.075 0.0915 0.9085 </TABLE>
 </DEFINITION>
 <DEFINITION>
      <FOR>node8</FOR>
      <GIVEN>node3</GIVEN>
      <GIVEN>node5</GIVEN>
      <GIVEN>node18</GIVEN>
      <GIVEN>node13</GIVEN>
      <GIVEN>node17</GIVEN>
      <GIVEN>node6</GIVEN>
      <GIVEN>node11</GIVEN>
     <TABLE>0.801 0.199 0.4645 0.5355 0.5729 0.4271 0.8641 0.1359 0.1682 0.8318 0.9764 0.0236 0.4585 0.5415 0.2175 0.7825 0.8607 0.1393 0.9901 0.0099 0.8534 0.1466 0.299 0.701 0.5504 0.4496 0.6087 0.3913 0.5726 0.4274 0.739 0.261 0.0156 0.9844 0.0259 0.9741 0.8375 0.1625 0.809 0.191 0.7474 0.2526 0.5908 0.4092 0.0221 0.9779 0.6873 0.3127 0.0199 0.9801 0.2815 0.7185 0.0665 0.9335 0.5411 0.4589 0.4309 0.5691 0.0863 0.9137 0.4542 0.5458 0.5901 0.4099 0.7191 0.2809 0.3845 0.6155 0.3927 0.6073 0.3481 0.6519 0.2989 0.7011 0.1835 0.8165 0.4239 0.5761 0.3225 0.6775 0.8727 0.1273 0.6063 0.3937 0.9721 0.0279 0.0437 0.9563 0.1129 0.8871 0.6487 0.3513 0.8215 0.1785 0.8354 0.1646 0.4292 0.5708 0.4764 0.5236 0.1588 0.8412 0.1104 0.8896 0.4864 0.5136 0.961 0.039 0.1784 0.8216 0.4408 0.5592 0.6141 0.3859 0.3332 0.6668 0.8852 0.1148 0.9554 0.0446 0.4086 0.5914 0.9007 0.0993 0.5958 0.4042 0.0048 0.9952 0.0935 0.9065 0.0179 0.9821 0.1738 0.8262 0.1352 0.8648 0.6005 0.3995 0.6293 0.3707 0.4586 0.5414 0.1133 0.8867 0.9371 0.0629 0.7548 0.2452 0.9149 0.0851 0.792 0.208 0.5012 0.4988 0.9991 9.0E-4 0.6958 0.3042 0.6566 0.3434 0.3843 0.6157 0.8859 0.1141 0.2024 0.7976 0.7065 0.2935 0.4965 0.5035 0.4413 0.5587 0.1578 0.8422 0.9941 0.0059 0.6365 0.3635 0.3277 0.6723 0.4042 0.5958 0.3764 0.6236 0.0742 0.9258 0.2043 0.7957 0.5824 0.4176 0.5585 0.4415 0.1466 0.8534 0.2697 0.7303 0.145 0.855 0.1053 0.8947 0.1362 0.8638 0.3685 0.6315 0.9313 0.0687 0.3172 0.6828 0.4702 0.5298 0.1368 0.8632 0.3676 0.6324 0.7511 0.2489 0.1839 0.8161 0.6775 0.3225 0.307 0.693 0.1307 0.8693 0.3797 0.6203 0.4616 0.5384 0.9386 0.0614 0.0183 0.9817 0.786 0.214 0.7814 0.2186 0.7325 0.2675 0.8476 0.1524 0.9232 0.0768 0.0306 0.9694 0.7859 0.2141 0.3094 0.6906 0.4391 0.5609 0.1673 0.8327 0.4355 0.5645 0.9168 0.0832 </TABLE>
 </DEFINITION>
 <DEFINITION>
      <FOR>node9</FOR>
      <GIVEN>node15</GIVEN>
      <GIVEN>node6</GIVEN>
      <GIVEN>node10</GIVEN>
     <TABLE>0.2917 0.7083 0.2402 0.7598 0.2946 0.7054 0.7231 0.2769 0.4935 0.5065 0.8533 0.1467 0.8302 0.1698 0.8234 0.1766 </TABLE>
 </DEFINITION>
 <DEFINITION>
      <FOR>node10</FOR>
     <TABLE>0.1948 0.8052 </TABLE>
 </DEFINITION>
 <DEFINITION>
      <FOR>node11</FOR>
      <GIVEN>node1</GIVEN>
      <GIVEN>node16</GIVEN>
      <GIVEN>node6</GIVEN>
     <TABLE>0.1894 0.8106 0.6509 0.3491 0.5699 0.4301 0.5204 0.4796 0.4921 0.5079 0.9909 0.0091 0.0583 0.9417 0.1399 0.8601 </TABLE>
 </DEFINITION>
 <DEFINITION>
      <FOR>node12</FOR>
      <GIVEN>node10</GIVEN>
      <GIVEN>node3</GIVEN>
     <TABLE>0.6193 0.3807 0.7539 0.2461 0.8693 0.1307 0.0766 0.9234 </TABLE>
 </DEFINITION>
 <DEFINITION>
      <FOR>node13</FOR>
      <GIVEN>node9</GIVEN>
      <GIVEN>node16</GIVEN>
      <GIVEN>node1</GIVEN>
      <GIVEN>node0</GIVEN>
     <TABLE>0.5234 0.4766 0.5103 0.4897 0.1091 0.8909 0.5592 0.4408 0.1845 0.8155 0.4328 0.5672 0.5608 0.4392 0.0969 0.9031 0.5057 0.4943 0.5586 0.4414 0.2361 0.7639 0.3246 0.6754 0.5749 0.4251 0.3119 0.6881 0.8121 0.1879 0.8122 0.1878 </TABLE>
 </DEFINITION>
 <DEFINITION>
      <FOR>node14</FOR>
      <GIVEN>node7</GIVEN>
      <GIVEN>node1</GIVEN>
     <TABLE>0.4232 0.5768 0.877 0.123 0.4456 0.5544 0.5014 0.4986 </TABLE>
 </DEFINITION>
 <DEFINITION>
      <FOR>node15</FOR>
      <GIVEN>node7</GIVEN>
      <GIVEN>node16</GIVEN>
      <GIVEN>node6</GIVEN>
     <TABLE>0.2307 0.7693 0.1486 0.8514 0.8177 0.1823 0.8975 0.1025 0.3487 0.6513 0.8222 0.1778 0.0565 0.9435 0.5477 0.4523 </TABLE>
 </DEFINITION>
 <DEFINITION>
      <FOR>node16</FOR>
      <GIVEN>node10</GIVEN>
      <GIVEN>node4</GIVEN>
     <TABLE>2.0E-4 0.9998 0.224 0.776 0.0342 0.9658 0.6509 0.3491 </TABLE>
 </DEFINITION>
 <DEFINITION>
      <FOR>node17</FOR>
      <GIVEN>node12</GIVEN>
      <GIVEN>node18</GIVEN>
      <GIVEN>node6</GIVEN>
      <GIVEN>node15</GIVEN>
      <GIVEN>node4</GIVEN>
      <GIVEN>node11</GIVEN>
      <GIVEN>node7</GIVEN>
     <TABLE>0.423 0.577 0.8893 0.1107 0.239 0.761 0.7752 0.2248 0.8375 0.1625 0.3744 0.6256 0.4644 0.5356 0.5708 0.4292 0.4905 0.5095 0.1434 0.8566 0.0278 0.9722 0.8365 0.1635 0.3913 0.6087 0.6619 0.3381 0.6247 0.3753 0.6829 0.3171 0.1861 0.8139 0.3395 0.6605 0.8114 0.1886 0.8136 0.1864 0.5535 0.4465 0.3062 0.6938 0.3813 0.6187 0.5559 0.4441 0.1936 0.8064 0.9892 0.0108 0.4477 0.5523 0.8044 0.1956 0.7196 0.2804 0.9092 0.0908 0.1165 0.8835 0.9992 8.0E-4 0.7597 0.2403 0.1275 0.8725 0.2293 0.7707 0.6345 0.3655 0.6472 0.3528 0.2974 0.7026 0.1997 0.8003 0.5424 0.4576 0.8749 0.1251 0.3324 0.6676 0.7366 0.2634 0.162 0.838 0.4736 0.5264 0.8827 0.1173 0.1401 0.8599 0.7978 0.2022 0.6602 0.3398 0.9227 0.0773 0.5504 0.4496 0.9025 0.0975 0.7571 0.2429 0.7137 0.2863 0.9908 0.0092 0.8314 0.1686 0.9299 0.0701 0.6446 0.3554 0.6409 0.3591 0.8644 0.1356 0.2744 0.7256 0.2695 0.7305 0.3495 0.6505 0.3598 0.6402 0.7877 0.2123 0.3093 0.6907 0.724 0.276 0.2238 0.7762 0.8643 0.1357 0.8136 0.1864 0.6103 0.3897 0.4682 0.5318 0.7886 0.2114 0.9113 0.0887 0.9269 0.0731 0.389 0.611 0.3825 0.6175 0.232 0.768 0.0027 0.9973 0.9697 0.0303 0.2135 0.7865 0.4263 0.5737 0.2758 0.7242 0.2536 0.7464 0.3232 0.6768 0.9308 0.0692 0.9903 0.0097 0.2519 0.7481 0.7461 0.2539 0.633 0.367 0.8091 0.1909 0.1269 0.8731 0.268 0.732 0.9779 0.0221 0.5546 0.4454 0.9728 0.0272 0.0101 0.9899 0.3822 0.6178 0.2 0.8 0.7579 0.2421 0.8038 0.1962 0.5313 0.4687 0.7646 0.2354 0.7156 0.2844 0.9129 0.0871 0.9014 0.0986 0.9027 0.0973 0.2125 0.7875 0.6095 0.3905 0.7479 0.2521 0.4599 0.5401 0.8982 0.1018 0.3932 0.6068 0.4432 0.5568 0.3565 0.6435 0.3616 0.6384 0.909 0.091 0.3721 0.6279 0.6675 0.3325 0.2602 0.7398 0.6638 0.3362 0.9926 0.0074 0.9444 0.0556 0.3449 0.6551 0.5912 0.4088 0.241 0.759 0.2419 0.7581 0.5931 0.4069 </TABLE>
 </DEFINITION>
 <DEFINITION>
      <FOR>node18</FOR>
      <GIVEN>node5</GIVEN>
      <GIVEN>node3</GIVEN>
      <GIVEN>node7</GIVEN>
      <GIVEN>node15</GIVEN>
      <GIVEN>node0</GIVEN>
     <TABLE>0.6516 0.3484 0.8381 0.1619 0.6374 0.3626 0.1347 0.8653 0.4548 0.5452 0.9198 0.0802 0.1436 0.8564 0.1191 0.8809 0.6447 0.3553 0.8133 0.1867 0.4656 0.5344 0.8542 0.1458 0.9924 0.0076 0.8545 0.1455 0.1888 0.8112 0.5822 0.4178 0.7907 0.2093 0.6993 0.3007 0.4329 0.5671 0.2234 0.7766 0.2595 0.7405 0.0027 0.9973 0.99 0.01 0.0076 0.9924 0.2191 0.7809 0.6476 0.3524 0.4506 0.5494 0.9038 0.0962 0.5765 0.4235 0.6375 0.3625 0.2828 0.7172 0.3218 0.6782 </TABLE>
 </DEFINITION>
 <DEFINITION>
      <FOR>node19</FOR>
      <GIVEN>node4</GIVEN>
      <GIVEN>node13</GIVEN>
      <GIVEN>node10</GIVEN>
      <GIVEN>node15</GIVEN>
      <GIVEN>node12</GIVEN>
     <TABLE>0.6332 0.3668 0.804 0.196 0.928 0.072 0.4644 0.5356 0.5027 0.4973 0.8643 0.1357 0.5417 0.4583 0.8146 0.1854 0.8807 0.1193 0.9637 0.0363 0.0879 0.9121 0.7848 0.2152 0.89 0.11 0.9693 0.0307 0.1946 0.8054 0.798 0.202 0.8515 0.1485 0.1255 0.8745 0.8902 0.1098 0.5091 0.4909 0.5344 0.4656 0.9863 0.0137 0.7184 0.2816 0.5904 0.4096 0.2369 0.7631 0.3614 0.6386 0.536 0.464 0.2259 0.7741 0.5431 0.4569 0.1892 0.8108 0.401 0.599 0.2805 0.7195 </TABLE>
 </DEFINITION>
</NETWORK>
</BIF>
