<?xml version="1.0" encoding="US-ASCII"?>


<!--
	Bayesian network in XMLBIF v0.3 (BayesNet Interchange Format)
	Produced by JavaBayes (http://www.cs.cmu.edu/~javabayes/
	Number of nodes:200
	Output created Fri Jun 19 14:07:21 CEST 2020
-->



<BIF VERSION="0.3">
<NETWORK>
<NAME>InternalNetwork</NAME>
<!-- Variables -->
<VARIABLE TYPE="nature">
    <NAME>node0</NAME>
    <OUTCOME>state0</OUTCOME>
    <OUTCOME>state1</OUTCOME>
    <PROPERTY>position = (15, 150)</PROPERTY>
</VARIABLE>
<!-- Variables -->
<VARIABLE TYPE="nature">
    <NAME>node1</NAME>
    <OUTCOME>state0</OUTCOME>
    <OUTCOME>state1</OUTCOME>
    <PROPERTY>position = (45, 30)</PROPERTY>
</VARIABLE>
<!-- Variables -->
<VARIABLE TYPE="nature">
    <NAME>node2</NAME>
    <OUTCOME>state0</OUTCOME>
    <OUTCOME>state1</OUTCOME>
    <PROPERTY>position = (44, 270)</PROPERTY>
</VARIABLE>
<!-- Variables -->
<VARIABLE TYPE="nature">
    <NAME>node3</NAME>
    <OUTCOME>state0</OUTCOME>
    <OUTCOME>state1</OUTCOME>
    <PROPERTY>position = (135, 164)</PROPERTY>
</VARIABLE>
<!-- Variables -->
<VARIABLE TYPE="nature">
    <NAME>node4</NAME>
    <OUTCOME>state0</OUTCOME>
    <OUTCOME>state1</OUTCOME>
    <PROPERTY>position = (255, 150)</PROPERTY>
</VARIABLE>
<!-- Variables -->
<VARIABLE TYPE="nature">
    <NAME>node5</NAME>
    <OUTCOME>state0</OUTCOME>
    <OUTCOME>state1</OUTCOME>
    <PROPERTY>position = (164, 284)</PROPERTY>
</VARIABLE>
<!-- Variables -->
<VARIABLE TYPE="nature">
    <NAME>node6</NAME>
    <OUTCOME>state0</OUTCOME>
    <OUTCOME>state1</OUTCOME>
    <PROPERTY>position = (375, 135)</PROPERTY>
</VARIABLE>
<!-- Variables -->
<VARIABLE TYPE="nature">
    <NAME>node7</NAME>
    <OUTCOME>state0</OUTCOME>
    <OUTCOME>state1</OUTCOME>
    <PROPERTY>position = (15, 390)</PROPERTY>
</VARIABLE>
<!-- Variables -->
<VARIABLE TYPE="nature">
    <NAME>node8</NAME>
    <OUTCOME>state0</OUTCOME>
    <OUTCOME>state1</OUTCOME>
    <PROPERTY>position = (495, 149)</PROPERTY>
</VARIABLE>
<!-- Variables -->
<VARIABLE TYPE="nature">
    <NAME>node9</NAME>
    <OUTCOME>state0</OUTCOME>
    <OUTCOME>state1</OUTCOME>
    <PROPERTY>position = (615, 164)</PROPERTY>
</VARIABLE>
<!-- Variables -->
<VARIABLE TYPE="nature">
    <NAME>node10</NAME>
    <OUTCOME>state0</OUTCOME>
    <OUTCOME>state1</OUTCOME>
    <PROPERTY>position = (735, 150)</PROPERTY>
</VARIABLE>
<!-- Variables -->
<VARIABLE TYPE="nature">
    <NAME>node11</NAME>
    <OUTCOME>state0</OUTCOME>
    <OUTCOME>state1</OUTCOME>
    <PROPERTY>position = (855, 135)</PROPERTY>
</VARIABLE>
<!-- Variables -->
<VARIABLE TYPE="nature">
    <NAME>node12</NAME>
    <OUTCOME>state0</OUTCOME>
    <OUTCOME>state1</OUTCOME>
    <PROPERTY>position = (284, 270)</PROPERTY>
</VARIABLE>
<!-- Variables -->
<VARIABLE TYPE="nature">
    <NAME>node13</NAME>
    <OUTCOME>state0</OUTCOME>
    <OUTCOME>state1</OUTCOME>
    <PROPERTY>position = (135, 404)</PROPERTY>
</VARIABLE>
<!-- Variables -->
<VARIABLE TYPE="nature">
    <NAME>node14</NAME>
    <OUTCOME>state0</OUTCOME>
    <OUTCOME>state1</OUTCOME>
    <PROPERTY>position = (975, 149)</PROPERTY>
</VARIABLE>
<!-- Variables -->
<VARIABLE TYPE="nature">
    <NAME>node15</NAME>
    <OUTCOME>state0</OUTCOME>
    <OUTCOME>state1</OUTCOME>
    <PROPERTY>position = (404, 255)</PROPERTY>
</VARIABLE>
<!-- Variables -->
<VARIABLE TYPE="nature">
    <NAME>node16</NAME>
    <OUTCOME>state0</OUTCOME>
    <OUTCOME>state1</OUTCOME>
    <PROPERTY>position = (1095, 164)</PROPERTY>
</VARIABLE>
<!-- Variables -->
<VARIABLE TYPE="nature">
    <NAME>node17</NAME>
    <OUTCOME>state0</OUTCOME>
    <OUTCOME>state1</OUTCOME>
    <PROPERTY>position = (1215, 150)</PROPERTY>
</VARIABLE>
<!-- Variables -->
<VARIABLE TYPE="nature">
    <NAME>node18</NAME>
    <OUTCOME>state0</OUTCOME>
    <OUTCOME>state1</OUTCOME>
    <PROPERTY>position = (1335, 135)</PROPERTY>
</VARIABLE>
<!-- Variables -->
<VARIABLE TYPE="nature">
    <NAME>node19</NAME>
    <OUTCOME>state0</OUTCOME>
    <OUTCOME>state1</OUTCOME>
    <PROPERTY>position = (165, 44)</PROPERTY>
</VARIABLE>
<!-- Variables -->
<VARIABLE TYPE="nature">
    <NAME>node20</NAME>
    <OUTCOME>state0</OUTCOME>
    <OUTCOME>state1</OUTCOME>
    <PROPERTY>position = (255, 390)</PROPERTY>
</VARIABLE>
<!-- Variables -->
<VARIABLE TYPE="nature">
    <NAME>node21</NAME>
    <OUTCOME>state0</OUTCOME>
    <OUTCOME>state1</OUTCOME>
    <PROPERTY>position = (1455, 149)</PROPERTY>
</VARIABLE>
<!-- Variables -->
<VARIABLE TYPE="nature">
    <NAME>node22</NAME>
    <OUTCOME>state0</OUTCOME>
    <OUTCOME>state1</OUTCOME>
    <PROPERTY>position = (285, 30)</PROPERTY>
</VARIABLE>
<!-- Variables -->
<VARIABLE TYPE="nature">
    <NAME>node23</NAME>
    <OUTCOME>state0</OUTCOME>
    <OUTCOME>state1</OUTCOME>
    <PROPERTY>position = (405, 15)</PROPERTY>
</VARIABLE>
<!-- Variables -->
<VARIABLE TYPE="nature">
    <NAME>node24</NAME>
    <OUTCOME>state0</OUTCOME>
    <OUTCOME>state1</OUTCOME>
    <PROPERTY>position = (524, 269)</PROPERTY>
</VARIABLE>
<!-- Variables -->
<VARIABLE TYPE="nature">
    <NAME>node25</NAME>
    <OUTCOME>state0</OUTCOME>
    <OUTCOME>state1</OUTCOME>
    <PROPERTY>position = (644, 284)</PROPERTY>
</VARIABLE>
<!-- Variables -->
<VARIABLE TYPE="nature">
    <NAME>node26</NAME>
    <OUTCOME>state0</OUTCOME>
    <OUTCOME>state1</OUTCOME>
    <PROPERTY>position = (1575, 164)</PROPERTY>
</VARIABLE>
<!-- Variables -->
<VARIABLE TYPE="nature">
    <NAME>node27</NAME>
    <OUTCOME>state0</OUTCOME>
    <OUTCOME>state1</OUTCOME>
    <PROPERTY>position = (764, 270)</PROPERTY>
</VARIABLE>
<!-- Variables -->
<VARIABLE TYPE="nature">
    <NAME>node28</NAME>
    <OUTCOME>state0</OUTCOME>
    <OUTCOME>state1</OUTCOME>
    <PROPERTY>position = (1695, 150)</PROPERTY>
</VARIABLE>
<!-- Variables -->
<VARIABLE TYPE="nature">
    <NAME>node29</NAME>
    <OUTCOME>state0</OUTCOME>
    <OUTCOME>state1</OUTCOME>
    <PROPERTY>position = (525, 29)</PROPERTY>
</VARIABLE>
<!-- Variables -->
<VARIABLE TYPE="nature">
    <NAME>node30</NAME>
    <OUTCOME>state0</OUTCOME>
    <OUTCOME>state1</OUTCOME>
    <PROPERTY>position = (645, 44)</PROPERTY>
</VARIABLE>
<!-- Variables -->
<VARIABLE TYPE="nature">
    <NAME>node31</NAME>
    <OUTCOME>state0</OUTCOME>
    <OUTCOME>state1</OUTCOME>
    <PROPERTY>position = (765, 30)</PROPERTY>
</VARIABLE>
<!-- Variables -->
<VARIABLE TYPE="nature">
    <NAME>node32</NAME>
    <OUTCOME>state0</OUTCOME>
    <OUTCOME>state1</OUTCOME>
    <PROPERTY>position = (1815, 135)</PROPERTY>
</VARIABLE>
<!-- Variables -->
<VARIABLE TYPE="nature">
    <NAME>node33</NAME>
    <OUTCOME>state0</OUTCOME>
    <OUTCOME>state1</OUTCOME>
    <PROPERTY>position = (884, 255)</PROPERTY>
</VARIABLE>
<!-- Variables -->
<VARIABLE TYPE="nature">
    <NAME>node34</NAME>
    <OUTCOME>state0</OUTCOME>
    <OUTCOME>state1</OUTCOME>
    <PROPERTY>position = (1935, 149)</PROPERTY>
</VARIABLE>
<!-- Variables -->
<VARIABLE TYPE="nature">
    <NAME>node35</NAME>
    <OUTCOME>state0</OUTCOME>
    <OUTCOME>state1</OUTCOME>
    <PROPERTY>position = (885, 15)</PROPERTY>
</VARIABLE>
<!-- Variables -->
<VARIABLE TYPE="nature">
    <NAME>node36</NAME>
    <OUTCOME>state0</OUTCOME>
    <OUTCOME>state1</OUTCOME>
    <PROPERTY>position = (375, 375)</PROPERTY>
</VARIABLE>
<!-- Variables -->
<VARIABLE TYPE="nature">
    <NAME>node37</NAME>
    <OUTCOME>state0</OUTCOME>
    <OUTCOME>state1</OUTCOME>
    <PROPERTY>position = (1005, 29)</PROPERTY>
</VARIABLE>
<!-- Variables -->
<VARIABLE TYPE="nature">
    <NAME>node38</NAME>
    <OUTCOME>state0</OUTCOME>
    <OUTCOME>state1</OUTCOME>
    <PROPERTY>position = (1125, 44)</PROPERTY>
</VARIABLE>
<!-- Variables -->
<VARIABLE TYPE="nature">
    <NAME>node39</NAME>
    <OUTCOME>state0</OUTCOME>
    <OUTCOME>state1</OUTCOME>
    <PROPERTY>position = (1245, 30)</PROPERTY>
</VARIABLE>
<!-- Variables -->
<VARIABLE TYPE="nature">
    <NAME>node40</NAME>
    <OUTCOME>state0</OUTCOME>
    <OUTCOME>state1</OUTCOME>
    <PROPERTY>position = (1004, 269)</PROPERTY>
</VARIABLE>
<!-- Variables -->
<VARIABLE TYPE="nature">
    <NAME>node41</NAME>
    <OUTCOME>state0</OUTCOME>
    <OUTCOME>state1</OUTCOME>
    <PROPERTY>position = (495, 389)</PROPERTY>
</VARIABLE>
<!-- Variables -->
<VARIABLE TYPE="nature">
    <NAME>node42</NAME>
    <OUTCOME>state0</OUTCOME>
    <OUTCOME>state1</OUTCOME>
    <PROPERTY>position = (2055, 164)</PROPERTY>
</VARIABLE>
<!-- Variables -->
<VARIABLE TYPE="nature">
    <NAME>node43</NAME>
    <OUTCOME>state0</OUTCOME>
    <OUTCOME>state1</OUTCOME>
    <PROPERTY>position = (2175, 150)</PROPERTY>
</VARIABLE>
<!-- Variables -->
<VARIABLE TYPE="nature">
    <NAME>node44</NAME>
    <OUTCOME>state0</OUTCOME>
    <OUTCOME>state1</OUTCOME>
    <PROPERTY>position = (1365, 15)</PROPERTY>
</VARIABLE>
<!-- Variables -->
<VARIABLE TYPE="nature">
    <NAME>node45</NAME>
    <OUTCOME>state0</OUTCOME>
    <OUTCOME>state1</OUTCOME>
    <PROPERTY>position = (2295, 135)</PROPERTY>
</VARIABLE>
<!-- Variables -->
<VARIABLE TYPE="nature">
    <NAME>node46</NAME>
    <OUTCOME>state0</OUTCOME>
    <OUTCOME>state1</OUTCOME>
    <PROPERTY>position = (2415, 149)</PROPERTY>
</VARIABLE>
<!-- Variables -->
<VARIABLE TYPE="nature">
    <NAME>node47</NAME>
    <OUTCOME>state0</OUTCOME>
    <OUTCOME>state1</OUTCOME>
    <PROPERTY>position = (2535, 164)</PROPERTY>
</VARIABLE>
<!-- Variables -->
<VARIABLE TYPE="nature">
    <NAME>node48</NAME>
    <OUTCOME>state0</OUTCOME>
    <OUTCOME>state1</OUTCOME>
    <PROPERTY>position = (2655, 150)</PROPERTY>
</VARIABLE>
<!-- Variables -->
<VARIABLE TYPE="nature">
    <NAME>node49</NAME>
    <OUTCOME>state0</OUTCOME>
    <OUTCOME>state1</OUTCOME>
    <PROPERTY>position = (2775, 135)</PROPERTY>
</VARIABLE>
<!-- Variables -->
<VARIABLE TYPE="nature">
    <NAME>node50</NAME>
    <OUTCOME>state0</OUTCOME>
    <OUTCOME>state1</OUTCOME>
    <PROPERTY>position = (2895, 149)</PROPERTY>
</VARIABLE>
<!-- Variables -->
<VARIABLE TYPE="nature">
    <NAME>node51</NAME>
    <OUTCOME>state0</OUTCOME>
    <OUTCOME>state1</OUTCOME>
    <PROPERTY>position = (3015, 164)</PROPERTY>
</VARIABLE>
<!-- Variables -->
<VARIABLE TYPE="nature">
    <NAME>node52</NAME>
    <OUTCOME>state0</OUTCOME>
    <OUTCOME>state1</OUTCOME>
    <PROPERTY>position = (3135, 150)</PROPERTY>
</VARIABLE>
<!-- Variables -->
<VARIABLE TYPE="nature">
    <NAME>node53</NAME>
    <OUTCOME>state0</OUTCOME>
    <OUTCOME>state1</OUTCOME>
    <PROPERTY>position = (3255, 135)</PROPERTY>
</VARIABLE>
<!-- Variables -->
<VARIABLE TYPE="nature">
    <NAME>node54</NAME>
    <OUTCOME>state0</OUTCOME>
    <OUTCOME>state1</OUTCOME>
    <PROPERTY>position = (3375, 149)</PROPERTY>
</VARIABLE>
<!-- Variables -->
<VARIABLE TYPE="nature">
    <NAME>node55</NAME>
    <OUTCOME>state0</OUTCOME>
    <OUTCOME>state1</OUTCOME>
    <PROPERTY>position = (1485, 29)</PROPERTY>
</VARIABLE>
<!-- Variables -->
<VARIABLE TYPE="nature">
    <NAME>node56</NAME>
    <OUTCOME>state0</OUTCOME>
    <OUTCOME>state1</OUTCOME>
    <PROPERTY>position = (1605, 44)</PROPERTY>
</VARIABLE>
<!-- Variables -->
<VARIABLE TYPE="nature">
    <NAME>node57</NAME>
    <OUTCOME>state0</OUTCOME>
    <OUTCOME>state1</OUTCOME>
    <PROPERTY>position = (3495, 164)</PROPERTY>
</VARIABLE>
<!-- Variables -->
<VARIABLE TYPE="nature">
    <NAME>node58</NAME>
    <OUTCOME>state0</OUTCOME>
    <OUTCOME>state1</OUTCOME>
    <PROPERTY>position = (1725, 30)</PROPERTY>
</VARIABLE>
<!-- Variables -->
<VARIABLE TYPE="nature">
    <NAME>node59</NAME>
    <OUTCOME>state0</OUTCOME>
    <OUTCOME>state1</OUTCOME>
    <PROPERTY>position = (3615, 150)</PROPERTY>
</VARIABLE>
<!-- Variables -->
<VARIABLE TYPE="nature">
    <NAME>node60</NAME>
    <OUTCOME>state0</OUTCOME>
    <OUTCOME>state1</OUTCOME>
    <PROPERTY>position = (615, 404)</PROPERTY>
</VARIABLE>
<!-- Variables -->
<VARIABLE TYPE="nature">
    <NAME>node61</NAME>
    <OUTCOME>state0</OUTCOME>
    <OUTCOME>state1</OUTCOME>
    <PROPERTY>position = (1124, 284)</PROPERTY>
</VARIABLE>
<!-- Variables -->
<VARIABLE TYPE="nature">
    <NAME>node62</NAME>
    <OUTCOME>state0</OUTCOME>
    <OUTCOME>state1</OUTCOME>
    <PROPERTY>position = (3735, 135)</PROPERTY>
</VARIABLE>
<!-- Variables -->
<VARIABLE TYPE="nature">
    <NAME>node63</NAME>
    <OUTCOME>state0</OUTCOME>
    <OUTCOME>state1</OUTCOME>
    <PROPERTY>position = (1845, 15)</PROPERTY>
</VARIABLE>
<!-- Variables -->
<VARIABLE TYPE="nature">
    <NAME>node64</NAME>
    <OUTCOME>state0</OUTCOME>
    <OUTCOME>state1</OUTCOME>
    <PROPERTY>position = (3855, 149)</PROPERTY>
</VARIABLE>
<!-- Variables -->
<VARIABLE TYPE="nature">
    <NAME>node65</NAME>
    <OUTCOME>state0</OUTCOME>
    <OUTCOME>state1</OUTCOME>
    <PROPERTY>position = (1244, 270)</PROPERTY>
</VARIABLE>
<!-- Variables -->
<VARIABLE TYPE="nature">
    <NAME>node66</NAME>
    <OUTCOME>state0</OUTCOME>
    <OUTCOME>state1</OUTCOME>
    <PROPERTY>position = (1965, 29)</PROPERTY>
</VARIABLE>
<!-- Variables -->
<VARIABLE TYPE="nature">
    <NAME>node67</NAME>
    <OUTCOME>state0</OUTCOME>
    <OUTCOME>state1</OUTCOME>
    <PROPERTY>position = (3975, 164)</PROPERTY>
</VARIABLE>
<!-- Variables -->
<VARIABLE TYPE="nature">
    <NAME>node68</NAME>
    <OUTCOME>state0</OUTCOME>
    <OUTCOME>state1</OUTCOME>
    <PROPERTY>position = (2085, 44)</PROPERTY>
</VARIABLE>
<!-- Variables -->
<VARIABLE TYPE="nature">
    <NAME>node69</NAME>
    <OUTCOME>state0</OUTCOME>
    <OUTCOME>state1</OUTCOME>
    <PROPERTY>position = (2205, 30)</PROPERTY>
</VARIABLE>
<!-- Variables -->
<VARIABLE TYPE="nature">
    <NAME>node70</NAME>
    <OUTCOME>state0</OUTCOME>
    <OUTCOME>state1</OUTCOME>
    <PROPERTY>position = (4095, 150)</PROPERTY>
</VARIABLE>
<!-- Variables -->
<VARIABLE TYPE="nature">
    <NAME>node71</NAME>
    <OUTCOME>state0</OUTCOME>
    <OUTCOME>state1</OUTCOME>
    <PROPERTY>position = (1364, 255)</PROPERTY>
</VARIABLE>
<!-- Variables -->
<VARIABLE TYPE="nature">
    <NAME>node72</NAME>
    <OUTCOME>state0</OUTCOME>
    <OUTCOME>state1</OUTCOME>
    <PROPERTY>position = (1484, 269)</PROPERTY>
</VARIABLE>
<!-- Variables -->
<VARIABLE TYPE="nature">
    <NAME>node73</NAME>
    <OUTCOME>state0</OUTCOME>
    <OUTCOME>state1</OUTCOME>
    <PROPERTY>position = (4215, 135)</PROPERTY>
</VARIABLE>
<!-- Variables -->
<VARIABLE TYPE="nature">
    <NAME>node74</NAME>
    <OUTCOME>state0</OUTCOME>
    <OUTCOME>state1</OUTCOME>
    <PROPERTY>position = (2325, 15)</PROPERTY>
</VARIABLE>
<!-- Variables -->
<VARIABLE TYPE="nature">
    <NAME>node75</NAME>
    <OUTCOME>state0</OUTCOME>
    <OUTCOME>state1</OUTCOME>
    <PROPERTY>position = (1604, 284)</PROPERTY>
</VARIABLE>
<!-- Variables -->
<VARIABLE TYPE="nature">
    <NAME>node76</NAME>
    <OUTCOME>state0</OUTCOME>
    <OUTCOME>state1</OUTCOME>
    <PROPERTY>position = (4335, 149)</PROPERTY>
</VARIABLE>
<!-- Variables -->
<VARIABLE TYPE="nature">
    <NAME>node77</NAME>
    <OUTCOME>state0</OUTCOME>
    <OUTCOME>state1</OUTCOME>
    <PROPERTY>position = (4455, 164)</PROPERTY>
</VARIABLE>
<!-- Variables -->
<VARIABLE TYPE="nature">
    <NAME>node78</NAME>
    <OUTCOME>state0</OUTCOME>
    <OUTCOME>state1</OUTCOME>
    <PROPERTY>position = (2445, 29)</PROPERTY>
</VARIABLE>
<!-- Variables -->
<VARIABLE TYPE="nature">
    <NAME>node79</NAME>
    <OUTCOME>state0</OUTCOME>
    <OUTCOME>state1</OUTCOME>
    <PROPERTY>position = (44, 510)</PROPERTY>
</VARIABLE>
<!-- Variables -->
<VARIABLE TYPE="nature">
    <NAME>node80</NAME>
    <OUTCOME>state0</OUTCOME>
    <OUTCOME>state1</OUTCOME>
    <PROPERTY>position = (2565, 44)</PROPERTY>
</VARIABLE>
<!-- Variables -->
<VARIABLE TYPE="nature">
    <NAME>node81</NAME>
    <OUTCOME>state0</OUTCOME>
    <OUTCOME>state1</OUTCOME>
    <PROPERTY>position = (2685, 30)</PROPERTY>
</VARIABLE>
<!-- Variables -->
<VARIABLE TYPE="nature">
    <NAME>node82</NAME>
    <OUTCOME>state0</OUTCOME>
    <OUTCOME>state1</OUTCOME>
    <PROPERTY>position = (2805, 15)</PROPERTY>
</VARIABLE>
<!-- Variables -->
<VARIABLE TYPE="nature">
    <NAME>node83</NAME>
    <OUTCOME>state0</OUTCOME>
    <OUTCOME>state1</OUTCOME>
    <PROPERTY>position = (2925, 29)</PROPERTY>
</VARIABLE>
<!-- Variables -->
<VARIABLE TYPE="nature">
    <NAME>node84</NAME>
    <OUTCOME>state0</OUTCOME>
    <OUTCOME>state1</OUTCOME>
    <PROPERTY>position = (3045, 44)</PROPERTY>
</VARIABLE>
<!-- Variables -->
<VARIABLE TYPE="nature">
    <NAME>node85</NAME>
    <OUTCOME>state0</OUTCOME>
    <OUTCOME>state1</OUTCOME>
    <PROPERTY>position = (3165, 30)</PROPERTY>
</VARIABLE>
<!-- Variables -->
<VARIABLE TYPE="nature">
    <NAME>node86</NAME>
    <OUTCOME>state0</OUTCOME>
    <OUTCOME>state1</OUTCOME>
    <PROPERTY>position = (3285, 15)</PROPERTY>
</VARIABLE>
<!-- Variables -->
<VARIABLE TYPE="nature">
    <NAME>node87</NAME>
    <OUTCOME>state0</OUTCOME>
    <OUTCOME>state1</OUTCOME>
    <PROPERTY>position = (3405, 29)</PROPERTY>
</VARIABLE>
<!-- Variables -->
<VARIABLE TYPE="nature">
    <NAME>node88</NAME>
    <OUTCOME>state0</OUTCOME>
    <OUTCOME>state1</OUTCOME>
    <PROPERTY>position = (3525, 44)</PROPERTY>
</VARIABLE>
<!-- Variables -->
<VARIABLE TYPE="nature">
    <NAME>node89</NAME>
    <OUTCOME>state0</OUTCOME>
    <OUTCOME>state1</OUTCOME>
    <PROPERTY>position = (4575, 150)</PROPERTY>
</VARIABLE>
<!-- Variables -->
<VARIABLE TYPE="nature">
    <NAME>node90</NAME>
    <OUTCOME>state0</OUTCOME>
    <OUTCOME>state1</OUTCOME>
    <PROPERTY>position = (4695, 135)</PROPERTY>
</VARIABLE>
<!-- Variables -->
<VARIABLE TYPE="nature">
    <NAME>node91</NAME>
    <OUTCOME>state0</OUTCOME>
    <OUTCOME>state1</OUTCOME>
    <PROPERTY>position = (4815, 149)</PROPERTY>
</VARIABLE>
<!-- Variables -->
<VARIABLE TYPE="nature">
    <NAME>node92</NAME>
    <OUTCOME>state0</OUTCOME>
    <OUTCOME>state1</OUTCOME>
    <PROPERTY>position = (735, 390)</PROPERTY>
</VARIABLE>
<!-- Variables -->
<VARIABLE TYPE="nature">
    <NAME>node93</NAME>
    <OUTCOME>state0</OUTCOME>
    <OUTCOME>state1</OUTCOME>
    <PROPERTY>position = (3645, 30)</PROPERTY>
</VARIABLE>
<!-- Variables -->
<VARIABLE TYPE="nature">
    <NAME>node94</NAME>
    <OUTCOME>state0</OUTCOME>
    <OUTCOME>state1</OUTCOME>
    <PROPERTY>position = (4935, 164)</PROPERTY>
</VARIABLE>
<!-- Variables -->
<VARIABLE TYPE="nature">
    <NAME>node95</NAME>
    <OUTCOME>state0</OUTCOME>
    <OUTCOME>state1</OUTCOME>
    <PROPERTY>position = (5055, 150)</PROPERTY>
</VARIABLE>
<!-- Variables -->
<VARIABLE TYPE="nature">
    <NAME>node96</NAME>
    <OUTCOME>state0</OUTCOME>
    <OUTCOME>state1</OUTCOME>
    <PROPERTY>position = (5175, 135)</PROPERTY>
</VARIABLE>
<!-- Variables -->
<VARIABLE TYPE="nature">
    <NAME>node97</NAME>
    <OUTCOME>state0</OUTCOME>
    <OUTCOME>state1</OUTCOME>
    <PROPERTY>position = (5295, 149)</PROPERTY>
</VARIABLE>
<!-- Variables -->
<VARIABLE TYPE="nature">
    <NAME>node98</NAME>
    <OUTCOME>state0</OUTCOME>
    <OUTCOME>state1</OUTCOME>
    <PROPERTY>position = (5415, 164)</PROPERTY>
</VARIABLE>
<!-- Variables -->
<VARIABLE TYPE="nature">
    <NAME>node99</NAME>
    <OUTCOME>state0</OUTCOME>
    <OUTCOME>state1</OUTCOME>
    <PROPERTY>position = (3765, 15)</PROPERTY>
</VARIABLE>
<!-- Variables -->
<VARIABLE TYPE="nature">
    <NAME>node100</NAME>
    <OUTCOME>state0</OUTCOME>
    <OUTCOME>state1</OUTCOME>
    <PROPERTY>position = (5535, 150)</PROPERTY>
</VARIABLE>
<!-- Variables -->
<VARIABLE TYPE="nature">
    <NAME>node101</NAME>
    <OUTCOME>state0</OUTCOME>
    <OUTCOME>state1</OUTCOME>
    <PROPERTY>position = (5655, 135)</PROPERTY>
</VARIABLE>
<!-- Variables -->
<VARIABLE TYPE="nature">
    <NAME>node102</NAME>
    <OUTCOME>state0</OUTCOME>
    <OUTCOME>state1</OUTCOME>
    <PROPERTY>position = (3885, 29)</PROPERTY>
</VARIABLE>
<!-- Variables -->
<VARIABLE TYPE="nature">
    <NAME>node103</NAME>
    <OUTCOME>state0</OUTCOME>
    <OUTCOME>state1</OUTCOME>
    <PROPERTY>position = (4005, 44)</PROPERTY>
</VARIABLE>
<!-- Variables -->
<VARIABLE TYPE="nature">
    <NAME>node104</NAME>
    <OUTCOME>state0</OUTCOME>
    <OUTCOME>state1</OUTCOME>
    <PROPERTY>position = (5775, 149)</PROPERTY>
</VARIABLE>
<!-- Variables -->
<VARIABLE TYPE="nature">
    <NAME>node105</NAME>
    <OUTCOME>state0</OUTCOME>
    <OUTCOME>state1</OUTCOME>
    <PROPERTY>position = (5895, 164)</PROPERTY>
</VARIABLE>
<!-- Variables -->
<VARIABLE TYPE="nature">
    <NAME>node106</NAME>
    <OUTCOME>state0</OUTCOME>
    <OUTCOME>state1</OUTCOME>
    <PROPERTY>position = (1724, 270)</PROPERTY>
</VARIABLE>
<!-- Variables -->
<VARIABLE TYPE="nature">
    <NAME>node107</NAME>
    <OUTCOME>state0</OUTCOME>
    <OUTCOME>state1</OUTCOME>
    <PROPERTY>position = (1844, 255)</PROPERTY>
</VARIABLE>
<!-- Variables -->
<VARIABLE TYPE="nature">
    <NAME>node108</NAME>
    <OUTCOME>state0</OUTCOME>
    <OUTCOME>state1</OUTCOME>
    <PROPERTY>position = (4125, 30)</PROPERTY>
</VARIABLE>
<!-- Variables -->
<VARIABLE TYPE="nature">
    <NAME>node109</NAME>
    <OUTCOME>state0</OUTCOME>
    <OUTCOME>state1</OUTCOME>
    <PROPERTY>position = (4245, 15)</PROPERTY>
</VARIABLE>
<!-- Variables -->
<VARIABLE TYPE="nature">
    <NAME>node110</NAME>
    <OUTCOME>state0</OUTCOME>
    <OUTCOME>state1</OUTCOME>
    <PROPERTY>position = (6015, 150)</PROPERTY>
</VARIABLE>
<!-- Variables -->
<VARIABLE TYPE="nature">
    <NAME>node111</NAME>
    <OUTCOME>state0</OUTCOME>
    <OUTCOME>state1</OUTCOME>
    <PROPERTY>position = (6135, 135)</PROPERTY>
</VARIABLE>
<!-- Variables -->
<VARIABLE TYPE="nature">
    <NAME>node112</NAME>
    <OUTCOME>state0</OUTCOME>
    <OUTCOME>state1</OUTCOME>
    <PROPERTY>position = (4365, 29)</PROPERTY>
</VARIABLE>
<!-- Variables -->
<VARIABLE TYPE="nature">
    <NAME>node113</NAME>
    <OUTCOME>state0</OUTCOME>
    <OUTCOME>state1</OUTCOME>
    <PROPERTY>position = (1964, 269)</PROPERTY>
</VARIABLE>
<!-- Variables -->
<VARIABLE TYPE="nature">
    <NAME>node114</NAME>
    <OUTCOME>state0</OUTCOME>
    <OUTCOME>state1</OUTCOME>
    <PROPERTY>position = (6255, 149)</PROPERTY>
</VARIABLE>
<!-- Variables -->
<VARIABLE TYPE="nature">
    <NAME>node115</NAME>
    <OUTCOME>state0</OUTCOME>
    <OUTCOME>state1</OUTCOME>
    <PROPERTY>position = (6375, 164)</PROPERTY>
</VARIABLE>
<!-- Variables -->
<VARIABLE TYPE="nature">
    <NAME>node116</NAME>
    <OUTCOME>state0</OUTCOME>
    <OUTCOME>state1</OUTCOME>
    <PROPERTY>position = (6495, 150)</PROPERTY>
</VARIABLE>
<!-- Variables -->
<VARIABLE TYPE="nature">
    <NAME>node117</NAME>
    <OUTCOME>state0</OUTCOME>
    <OUTCOME>state1</OUTCOME>
    <PROPERTY>position = (2084, 284)</PROPERTY>
</VARIABLE>
<!-- Variables -->
<VARIABLE TYPE="nature">
    <NAME>node118</NAME>
    <OUTCOME>state0</OUTCOME>
    <OUTCOME>state1</OUTCOME>
    <PROPERTY>position = (2204, 270)</PROPERTY>
</VARIABLE>
<!-- Variables -->
<VARIABLE TYPE="nature">
    <NAME>node119</NAME>
    <OUTCOME>state0</OUTCOME>
    <OUTCOME>state1</OUTCOME>
    <PROPERTY>position = (6615, 135)</PROPERTY>
</VARIABLE>
<!-- Variables -->
<VARIABLE TYPE="nature">
    <NAME>node120</NAME>
    <OUTCOME>state0</OUTCOME>
    <OUTCOME>state1</OUTCOME>
    <PROPERTY>position = (2324, 255)</PROPERTY>
</VARIABLE>
<!-- Variables -->
<VARIABLE TYPE="nature">
    <NAME>node121</NAME>
    <OUTCOME>state0</OUTCOME>
    <OUTCOME>state1</OUTCOME>
    <PROPERTY>position = (2444, 269)</PROPERTY>
</VARIABLE>
<!-- Variables -->
<VARIABLE TYPE="nature">
    <NAME>node122</NAME>
    <OUTCOME>state0</OUTCOME>
    <OUTCOME>state1</OUTCOME>
    <PROPERTY>position = (6735, 149)</PROPERTY>
</VARIABLE>
<!-- Variables -->
<VARIABLE TYPE="nature">
    <NAME>node123</NAME>
    <OUTCOME>state0</OUTCOME>
    <OUTCOME>state1</OUTCOME>
    <PROPERTY>position = (4485, 44)</PROPERTY>
</VARIABLE>
<!-- Variables -->
<VARIABLE TYPE="nature">
    <NAME>node124</NAME>
    <OUTCOME>state0</OUTCOME>
    <OUTCOME>state1</OUTCOME>
    <PROPERTY>position = (855, 375)</PROPERTY>
</VARIABLE>
<!-- Variables -->
<VARIABLE TYPE="nature">
    <NAME>node125</NAME>
    <OUTCOME>state0</OUTCOME>
    <OUTCOME>state1</OUTCOME>
    <PROPERTY>position = (6855, 164)</PROPERTY>
</VARIABLE>
<!-- Variables -->
<VARIABLE TYPE="nature">
    <NAME>node126</NAME>
    <OUTCOME>state0</OUTCOME>
    <OUTCOME>state1</OUTCOME>
    <PROPERTY>position = (6975, 150)</PROPERTY>
</VARIABLE>
<!-- Variables -->
<VARIABLE TYPE="nature">
    <NAME>node127</NAME>
    <OUTCOME>state0</OUTCOME>
    <OUTCOME>state1</OUTCOME>
    <PROPERTY>position = (7095, 135)</PROPERTY>
</VARIABLE>
<!-- Variables -->
<VARIABLE TYPE="nature">
    <NAME>node128</NAME>
    <OUTCOME>state0</OUTCOME>
    <OUTCOME>state1</OUTCOME>
    <PROPERTY>position = (975, 389)</PROPERTY>
</VARIABLE>
<!-- Variables -->
<VARIABLE TYPE="nature">
    <NAME>node129</NAME>
    <OUTCOME>state0</OUTCOME>
    <OUTCOME>state1</OUTCOME>
    <PROPERTY>position = (7215, 149)</PROPERTY>
</VARIABLE>
<!-- Variables -->
<VARIABLE TYPE="nature">
    <NAME>node130</NAME>
    <OUTCOME>state0</OUTCOME>
    <OUTCOME>state1</OUTCOME>
    <PROPERTY>position = (4605, 30)</PROPERTY>
</VARIABLE>
<!-- Variables -->
<VARIABLE TYPE="nature">
    <NAME>node131</NAME>
    <OUTCOME>state0</OUTCOME>
    <OUTCOME>state1</OUTCOME>
    <PROPERTY>position = (7335, 164)</PROPERTY>
</VARIABLE>
<!-- Variables -->
<VARIABLE TYPE="nature">
    <NAME>node132</NAME>
    <OUTCOME>state0</OUTCOME>
    <OUTCOME>state1</OUTCOME>
    <PROPERTY>position = (2564, 284)</PROPERTY>
</VARIABLE>
<!-- Variables -->
<VARIABLE TYPE="nature">
    <NAME>node133</NAME>
    <OUTCOME>state0</OUTCOME>
    <OUTCOME>state1</OUTCOME>
    <PROPERTY>position = (2684, 270)</PROPERTY>
</VARIABLE>
<!-- Variables -->
<VARIABLE TYPE="nature">
    <NAME>node134</NAME>
    <OUTCOME>state0</OUTCOME>
    <OUTCOME>state1</OUTCOME>
    <PROPERTY>position = (7455, 150)</PROPERTY>
</VARIABLE>
<!-- Variables -->
<VARIABLE TYPE="nature">
    <NAME>node135</NAME>
    <OUTCOME>state0</OUTCOME>
    <OUTCOME>state1</OUTCOME>
    <PROPERTY>position = (2804, 255)</PROPERTY>
</VARIABLE>
<!-- Variables -->
<VARIABLE TYPE="nature">
    <NAME>node136</NAME>
    <OUTCOME>state0</OUTCOME>
    <OUTCOME>state1</OUTCOME>
    <PROPERTY>position = (7575, 135)</PROPERTY>
</VARIABLE>
<!-- Variables -->
<VARIABLE TYPE="nature">
    <NAME>node137</NAME>
    <OUTCOME>state0</OUTCOME>
    <OUTCOME>state1</OUTCOME>
    <PROPERTY>position = (7695, 149)</PROPERTY>
</VARIABLE>
<!-- Variables -->
<VARIABLE TYPE="nature">
    <NAME>node138</NAME>
    <OUTCOME>state0</OUTCOME>
    <OUTCOME>state1</OUTCOME>
    <PROPERTY>position = (2924, 269)</PROPERTY>
</VARIABLE>
<!-- Variables -->
<VARIABLE TYPE="nature">
    <NAME>node139</NAME>
    <OUTCOME>state0</OUTCOME>
    <OUTCOME>state1</OUTCOME>
    <PROPERTY>position = (4725, 15)</PROPERTY>
</VARIABLE>
<!-- Variables -->
<VARIABLE TYPE="nature">
    <NAME>node140</NAME>
    <OUTCOME>state0</OUTCOME>
    <OUTCOME>state1</OUTCOME>
    <PROPERTY>position = (3044, 284)</PROPERTY>
</VARIABLE>
<!-- Variables -->
<VARIABLE TYPE="nature">
    <NAME>node141</NAME>
    <OUTCOME>state0</OUTCOME>
    <OUTCOME>state1</OUTCOME>
    <PROPERTY>position = (4845, 29)</PROPERTY>
</VARIABLE>
<!-- Variables -->
<VARIABLE TYPE="nature">
    <NAME>node142</NAME>
    <OUTCOME>state0</OUTCOME>
    <OUTCOME>state1</OUTCOME>
    <PROPERTY>position = (7815, 164)</PROPERTY>
</VARIABLE>
<!-- Variables -->
<VARIABLE TYPE="nature">
    <NAME>node143</NAME>
    <OUTCOME>state0</OUTCOME>
    <OUTCOME>state1</OUTCOME>
    <PROPERTY>position = (7935, 150)</PROPERTY>
</VARIABLE>
<!-- Variables -->
<VARIABLE TYPE="nature">
    <NAME>node144</NAME>
    <OUTCOME>state0</OUTCOME>
    <OUTCOME>state1</OUTCOME>
    <PROPERTY>position = (1095, 404)</PROPERTY>
</VARIABLE>
<!-- Variables -->
<VARIABLE TYPE="nature">
    <NAME>node145</NAME>
    <OUTCOME>state0</OUTCOME>
    <OUTCOME>state1</OUTCOME>
    <PROPERTY>position = (8055, 135)</PROPERTY>
</VARIABLE>
<!-- Variables -->
<VARIABLE TYPE="nature">
    <NAME>node146</NAME>
    <OUTCOME>state0</OUTCOME>
    <OUTCOME>state1</OUTCOME>
    <PROPERTY>position = (4965, 44)</PROPERTY>
</VARIABLE>
<!-- Variables -->
<VARIABLE TYPE="nature">
    <NAME>node147</NAME>
    <OUTCOME>state0</OUTCOME>
    <OUTCOME>state1</OUTCOME>
    <PROPERTY>position = (8175, 149)</PROPERTY>
</VARIABLE>
<!-- Variables -->
<VARIABLE TYPE="nature">
    <NAME>node148</NAME>
    <OUTCOME>state0</OUTCOME>
    <OUTCOME>state1</OUTCOME>
    <PROPERTY>position = (3164, 270)</PROPERTY>
</VARIABLE>
<!-- Variables -->
<VARIABLE TYPE="nature">
    <NAME>node149</NAME>
    <OUTCOME>state0</OUTCOME>
    <OUTCOME>state1</OUTCOME>
    <PROPERTY>position = (3284, 255)</PROPERTY>
</VARIABLE>
<!-- Variables -->
<VARIABLE TYPE="nature">
    <NAME>node150</NAME>
    <OUTCOME>state0</OUTCOME>
    <OUTCOME>state1</OUTCOME>
    <PROPERTY>position = (8295, 164)</PROPERTY>
</VARIABLE>
<!-- Variables -->
<VARIABLE TYPE="nature">
    <NAME>node151</NAME>
    <OUTCOME>state0</OUTCOME>
    <OUTCOME>state1</OUTCOME>
    <PROPERTY>position = (5085, 30)</PROPERTY>
</VARIABLE>
<!-- Variables -->
<VARIABLE TYPE="nature">
    <NAME>node152</NAME>
    <OUTCOME>state0</OUTCOME>
    <OUTCOME>state1</OUTCOME>
    <PROPERTY>position = (8415, 150)</PROPERTY>
</VARIABLE>
<!-- Variables -->
<VARIABLE TYPE="nature">
    <NAME>node153</NAME>
    <OUTCOME>state0</OUTCOME>
    <OUTCOME>state1</OUTCOME>
    <PROPERTY>position = (5205, 15)</PROPERTY>
</VARIABLE>
<!-- Variables -->
<VARIABLE TYPE="nature">
    <NAME>node154</NAME>
    <OUTCOME>state0</OUTCOME>
    <OUTCOME>state1</OUTCOME>
    <PROPERTY>position = (8535, 135)</PROPERTY>
</VARIABLE>
<!-- Variables -->
<VARIABLE TYPE="nature">
    <NAME>node155</NAME>
    <OUTCOME>state0</OUTCOME>
    <OUTCOME>state1</OUTCOME>
    <PROPERTY>position = (8655, 149)</PROPERTY>
</VARIABLE>
<!-- Variables -->
<VARIABLE TYPE="nature">
    <NAME>node156</NAME>
    <OUTCOME>state0</OUTCOME>
    <OUTCOME>state1</OUTCOME>
    <PROPERTY>position = (3404, 269)</PROPERTY>
</VARIABLE>
<!-- Variables -->
<VARIABLE TYPE="nature">
    <NAME>node157</NAME>
    <OUTCOME>state0</OUTCOME>
    <OUTCOME>state1</OUTCOME>
    <PROPERTY>position = (8775, 164)</PROPERTY>
</VARIABLE>
<!-- Variables -->
<VARIABLE TYPE="nature">
    <NAME>node158</NAME>
    <OUTCOME>state0</OUTCOME>
    <OUTCOME>state1</OUTCOME>
    <PROPERTY>position = (5325, 29)</PROPERTY>
</VARIABLE>
<!-- Variables -->
<VARIABLE TYPE="nature">
    <NAME>node159</NAME>
    <OUTCOME>state0</OUTCOME>
    <OUTCOME>state1</OUTCOME>
    <PROPERTY>position = (5445, 44)</PROPERTY>
</VARIABLE>
<!-- Variables -->
<VARIABLE TYPE="nature">
    <NAME>node160</NAME>
    <OUTCOME>state0</OUTCOME>
    <OUTCOME>state1</OUTCOME>
    <PROPERTY>position = (8895, 150)</PROPERTY>
</VARIABLE>
<!-- Variables -->
<VARIABLE TYPE="nature">
    <NAME>node161</NAME>
    <OUTCOME>state0</OUTCOME>
    <OUTCOME>state1</OUTCOME>
    <PROPERTY>position = (164, 524)</PROPERTY>
</VARIABLE>
<!-- Variables -->
<VARIABLE TYPE="nature">
    <NAME>node162</NAME>
    <OUTCOME>state0</OUTCOME>
    <OUTCOME>state1</OUTCOME>
    <PROPERTY>position = (9015, 135)</PROPERTY>
</VARIABLE>
<!-- Variables -->
<VARIABLE TYPE="nature">
    <NAME>node163</NAME>
    <OUTCOME>state0</OUTCOME>
    <OUTCOME>state1</OUTCOME>
    <PROPERTY>position = (5565, 30)</PROPERTY>
</VARIABLE>
<!-- Variables -->
<VARIABLE TYPE="nature">
    <NAME>node164</NAME>
    <OUTCOME>state0</OUTCOME>
    <OUTCOME>state1</OUTCOME>
    <PROPERTY>position = (9135, 149)</PROPERTY>
</VARIABLE>
<!-- Variables -->
<VARIABLE TYPE="nature">
    <NAME>node165</NAME>
    <OUTCOME>state0</OUTCOME>
    <OUTCOME>state1</OUTCOME>
    <PROPERTY>position = (5685, 15)</PROPERTY>
</VARIABLE>
<!-- Variables -->
<VARIABLE TYPE="nature">
    <NAME>node166</NAME>
    <OUTCOME>state0</OUTCOME>
    <OUTCOME>state1</OUTCOME>
    <PROPERTY>position = (3524, 284)</PROPERTY>
</VARIABLE>
<!-- Variables -->
<VARIABLE TYPE="nature">
    <NAME>node167</NAME>
    <OUTCOME>state0</OUTCOME>
    <OUTCOME>state1</OUTCOME>
    <PROPERTY>position = (5805, 29)</PROPERTY>
</VARIABLE>
<!-- Variables -->
<VARIABLE TYPE="nature">
    <NAME>node168</NAME>
    <OUTCOME>state0</OUTCOME>
    <OUTCOME>state1</OUTCOME>
    <PROPERTY>position = (3644, 270)</PROPERTY>
</VARIABLE>
<!-- Variables -->
<VARIABLE TYPE="nature">
    <NAME>node169</NAME>
    <OUTCOME>state0</OUTCOME>
    <OUTCOME>state1</OUTCOME>
    <PROPERTY>position = (5925, 44)</PROPERTY>
</VARIABLE>
<!-- Variables -->
<VARIABLE TYPE="nature">
    <NAME>node170</NAME>
    <OUTCOME>state0</OUTCOME>
    <OUTCOME>state1</OUTCOME>
    <PROPERTY>position = (9255, 164)</PROPERTY>
</VARIABLE>
<!-- Variables -->
<VARIABLE TYPE="nature">
    <NAME>node171</NAME>
    <OUTCOME>state0</OUTCOME>
    <OUTCOME>state1</OUTCOME>
    <PROPERTY>position = (9375, 150)</PROPERTY>
</VARIABLE>
<!-- Variables -->
<VARIABLE TYPE="nature">
    <NAME>node172</NAME>
    <OUTCOME>state0</OUTCOME>
    <OUTCOME>state1</OUTCOME>
    <PROPERTY>position = (6045, 30)</PROPERTY>
</VARIABLE>
<!-- Variables -->
<VARIABLE TYPE="nature">
    <NAME>node173</NAME>
    <OUTCOME>state0</OUTCOME>
    <OUTCOME>state1</OUTCOME>
    <PROPERTY>position = (3764, 255)</PROPERTY>
</VARIABLE>
<!-- Variables -->
<VARIABLE TYPE="nature">
    <NAME>node174</NAME>
    <OUTCOME>state0</OUTCOME>
    <OUTCOME>state1</OUTCOME>
    <PROPERTY>position = (3884, 269)</PROPERTY>
</VARIABLE>
<!-- Variables -->
<VARIABLE TYPE="nature">
    <NAME>node175</NAME>
    <OUTCOME>state0</OUTCOME>
    <OUTCOME>state1</OUTCOME>
    <PROPERTY>position = (9495, 135)</PROPERTY>
</VARIABLE>
<!-- Variables -->
<VARIABLE TYPE="nature">
    <NAME>node176</NAME>
    <OUTCOME>state0</OUTCOME>
    <OUTCOME>state1</OUTCOME>
    <PROPERTY>position = (9615, 149)</PROPERTY>
</VARIABLE>
<!-- Variables -->
<VARIABLE TYPE="nature">
    <NAME>node177</NAME>
    <OUTCOME>state0</OUTCOME>
    <OUTCOME>state1</OUTCOME>
    <PROPERTY>position = (6165, 15)</PROPERTY>
</VARIABLE>
<!-- Variables -->
<VARIABLE TYPE="nature">
    <NAME>node178</NAME>
    <OUTCOME>state0</OUTCOME>
    <OUTCOME>state1</OUTCOME>
    <PROPERTY>position = (6285, 29)</PROPERTY>
</VARIABLE>
<!-- Variables -->
<VARIABLE TYPE="nature">
    <NAME>node179</NAME>
    <OUTCOME>state0</OUTCOME>
    <OUTCOME>state1</OUTCOME>
    <PROPERTY>position = (9735, 164)</PROPERTY>
</VARIABLE>
<!-- Variables -->
<VARIABLE TYPE="nature">
    <NAME>node180</NAME>
    <OUTCOME>state0</OUTCOME>
    <OUTCOME>state1</OUTCOME>
    <PROPERTY>position = (9855, 150)</PROPERTY>
</VARIABLE>
<!-- Variables -->
<VARIABLE TYPE="nature">
    <NAME>node181</NAME>
    <OUTCOME>state0</OUTCOME>
    <OUTCOME>state1</OUTCOME>
    <PROPERTY>position = (9975, 135)</PROPERTY>
</VARIABLE>
<!-- Variables -->
<VARIABLE TYPE="nature">
    <NAME>node182</NAME>
    <OUTCOME>state0</OUTCOME>
    <OUTCOME>state1</OUTCOME>
    <PROPERTY>position = (6405, 44)</PROPERTY>
</VARIABLE>
<!-- Variables -->
<VARIABLE TYPE="nature">
    <NAME>node183</NAME>
    <OUTCOME>state0</OUTCOME>
    <OUTCOME>state1</OUTCOME>
    <PROPERTY>position = (10095, 149)</PROPERTY>
</VARIABLE>
<!-- Variables -->
<VARIABLE TYPE="nature">
    <NAME>node184</NAME>
    <OUTCOME>state0</OUTCOME>
    <OUTCOME>state1</OUTCOME>
    <PROPERTY>position = (6525, 30)</PROPERTY>
</VARIABLE>
<!-- Variables -->
<VARIABLE TYPE="nature">
    <NAME>node185</NAME>
    <OUTCOME>state0</OUTCOME>
    <OUTCOME>state1</OUTCOME>
    <PROPERTY>position = (6645, 15)</PROPERTY>
</VARIABLE>
<!-- Variables -->
<VARIABLE TYPE="nature">
    <NAME>node186</NAME>
    <OUTCOME>state0</OUTCOME>
    <OUTCOME>state1</OUTCOME>
    <PROPERTY>position = (6765, 29)</PROPERTY>
</VARIABLE>
<!-- Variables -->
<VARIABLE TYPE="nature">
    <NAME>node187</NAME>
    <OUTCOME>state0</OUTCOME>
    <OUTCOME>state1</OUTCOME>
    <PROPERTY>position = (6885, 44)</PROPERTY>
</VARIABLE>
<!-- Variables -->
<VARIABLE TYPE="nature">
    <NAME>node188</NAME>
    <OUTCOME>state0</OUTCOME>
    <OUTCOME>state1</OUTCOME>
    <PROPERTY>position = (10215, 164)</PROPERTY>
</VARIABLE>
<!-- Variables -->
<VARIABLE TYPE="nature">
    <NAME>node189</NAME>
    <OUTCOME>state0</OUTCOME>
    <OUTCOME>state1</OUTCOME>
    <PROPERTY>position = (7005, 30)</PROPERTY>
</VARIABLE>
<!-- Variables -->
<VARIABLE TYPE="nature">
    <NAME>node190</NAME>
    <OUTCOME>state0</OUTCOME>
    <OUTCOME>state1</OUTCOME>
    <PROPERTY>position = (7125, 15)</PROPERTY>
</VARIABLE>
<!-- Variables -->
<VARIABLE TYPE="nature">
    <NAME>node191</NAME>
    <OUTCOME>state0</OUTCOME>
    <OUTCOME>state1</OUTCOME>
    <PROPERTY>position = (10335, 150)</PROPERTY>
</VARIABLE>
<!-- Variables -->
<VARIABLE TYPE="nature">
    <NAME>node192</NAME>
    <OUTCOME>state0</OUTCOME>
    <OUTCOME>state1</OUTCOME>
    <PROPERTY>position = (10455, 135)</PROPERTY>
</VARIABLE>
<!-- Variables -->
<VARIABLE TYPE="nature">
    <NAME>node193</NAME>
    <OUTCOME>state0</OUTCOME>
    <OUTCOME>state1</OUTCOME>
    <PROPERTY>position = (7245, 29)</PROPERTY>
</VARIABLE>
<!-- Variables -->
<VARIABLE TYPE="nature">
    <NAME>node194</NAME>
    <OUTCOME>state0</OUTCOME>
    <OUTCOME>state1</OUTCOME>
    <PROPERTY>position = (4004, 284)</PROPERTY>
</VARIABLE>
<!-- Variables -->
<VARIABLE TYPE="nature">
    <NAME>node195</NAME>
    <OUTCOME>state0</OUTCOME>
    <OUTCOME>state1</OUTCOME>
    <PROPERTY>position = (7365, 44)</PROPERTY>
</VARIABLE>
<!-- Variables -->
<VARIABLE TYPE="nature">
    <NAME>node196</NAME>
    <OUTCOME>state0</OUTCOME>
    <OUTCOME>state1</OUTCOME>
    <PROPERTY>position = (10575, 149)</PROPERTY>
</VARIABLE>
<!-- Variables -->
<VARIABLE TYPE="nature">
    <NAME>node197</NAME>
    <OUTCOME>state0</OUTCOME>
    <OUTCOME>state1</OUTCOME>
    <PROPERTY>position = (1215, 390)</PROPERTY>
</VARIABLE>
<!-- Variables -->
<VARIABLE TYPE="nature">
    <NAME>node198</NAME>
    <OUTCOME>state0</OUTCOME>
    <OUTCOME>state1</OUTCOME>
    <PROPERTY>position = (10695, 164)</PROPERTY>
</VARIABLE>
<!-- Variables -->
<VARIABLE TYPE="nature">
    <NAME>node199</NAME>
    <OUTCOME>state0</OUTCOME>
    <OUTCOME>state1</OUTCOME>
    <PROPERTY>position = (7485, 30)</PROPERTY>
</VARIABLE>
<!-- Probability Distributions -->
 <DEFINITION>
      <FOR>node0</FOR>
      <GIVEN>node136</GIVEN>
     <TABLE>0.2814 0.7186 0.7687 0.2313 </TABLE>
 </DEFINITION>
 <DEFINITION>
      <FOR>node1</FOR>
     <TABLE>0.1716 0.8284 </TABLE>
 </DEFINITION>
 <DEFINITION>
      <FOR>node2</FOR>
      <GIVEN>node185</GIVEN>
      <GIVEN>node91</GIVEN>
     <TABLE>0.1214 0.8786 0.4294 0.5706 0.9972 0.0028 0.9365 0.0635 </TABLE>
 </DEFINITION>
 <DEFINITION>
      <FOR>node3</FOR>
      <GIVEN>node62</GIVEN>
     <TABLE>0.9833 0.0167 0.1661 0.8339 </TABLE>
 </DEFINITION>
 <DEFINITION>
      <FOR>node4</FOR>
      <GIVEN>node130</GIVEN>
     <TABLE>0.7505 0.2495 0.373 0.627 </TABLE>
 </DEFINITION>
 <DEFINITION>
      <FOR>node5</FOR>
      <GIVEN>node106</GIVEN>
      <GIVEN>node163</GIVEN>
     <TABLE>0.8825 0.1175 0.6048 0.3952 0.2887 0.7113 0.0708 0.9292 </TABLE>
 </DEFINITION>
 <DEFINITION>
      <FOR>node6</FOR>
      <GIVEN>node140</GIVEN>
     <TABLE>0.8963 0.1037 0.0033 0.9967 </TABLE>
 </DEFINITION>
 <DEFINITION>
      <FOR>node7</FOR>
      <GIVEN>node186</GIVEN>
      <GIVEN>node17</GIVEN>
      <GIVEN>node58</GIVEN>
     <TABLE>0.6475 0.3525 0.4362 0.5638 0.2121 0.7879 0.3839 0.6161 0.9193 0.0807 0.9316 0.0684 0.5936 0.4064 0.0115 0.9885 </TABLE>
 </DEFINITION>
 <DEFINITION>
      <FOR>node8</FOR>
      <GIVEN>node35</GIVEN>
     <TABLE>0.9061 0.0939 0.4768 0.5232 </TABLE>
 </DEFINITION>
 <DEFINITION>
      <FOR>node9</FOR>
      <GIVEN>node23</GIVEN>
     <TABLE>0.3206 0.6794 0.2596 0.7404 </TABLE>
 </DEFINITION>
 <DEFINITION>
      <FOR>node10</FOR>
      <GIVEN>node24</GIVEN>
     <TABLE>0.7835 0.2165 0.1871 0.8129 </TABLE>
 </DEFINITION>
 <DEFINITION>
      <FOR>node11</FOR>
      <GIVEN>node113</GIVEN>
     <TABLE>0.4221 0.5779 0.0622 0.9378 </TABLE>
 </DEFINITION>
 <DEFINITION>
      <FOR>node12</FOR>
      <GIVEN>node181</GIVEN>
      <GIVEN>node44</GIVEN>
     <TABLE>0.3169 0.6831 0.0989 0.9011 0.4926 0.5074 0.8073 0.1927 </TABLE>
 </DEFINITION>
 <DEFINITION>
      <FOR>node13</FOR>
      <GIVEN>node174</GIVEN>
      <GIVEN>node163</GIVEN>
      <GIVEN>node193</GIVEN>
     <TABLE>0.2952 0.7048 0.9004 0.0996 0.0922 0.9078 0.1315 0.8685 0.6276 0.3724 0.8993 0.1007 0.9109 0.0891 0.4298 0.5702 </TABLE>
 </DEFINITION>
 <DEFINITION>
      <FOR>node14</FOR>
      <GIVEN>node188</GIVEN>
     <TABLE>0.3376 0.6624 0.7659 0.2341 </TABLE>
 </DEFINITION>
 <DEFINITION>
      <FOR>node15</FOR>
      <GIVEN>node182</GIVEN>
      <GIVEN>node61</GIVEN>
     <TABLE>0.3058 0.6942 0.6098 0.3902 0.343 0.657 0.7682 0.2318 </TABLE>
 </DEFINITION>
 <DEFINITION>
      <FOR>node16</FOR>
      <GIVEN>node3</GIVEN>
     <TABLE>0.4363 0.5637 0.622 0.378 </TABLE>
 </DEFINITION>
 <DEFINITION>
      <FOR>node17</FOR>
      <GIVEN>node48</GIVEN>
     <TABLE>0.5875 0.4125 0.9715 0.0285 </TABLE>
 </DEFINITION>
 <DEFINITION>
      <FOR>node18</FOR>
      <GIVEN>node146</GIVEN>
     <TABLE>0.6517 0.3483 0.7014 0.2986 </TABLE>
 </DEFINITION>
 <DEFINITION>
      <FOR>node19</FOR>
     <TABLE>0.3678 0.6322 </TABLE>
 </DEFINITION>
 <DEFINITION>
      <FOR>node20</FOR>
      <GIVEN>node40</GIVEN>
      <GIVEN>node74</GIVEN>
      <GIVEN>node39</GIVEN>
     <TABLE>0.2528 0.7472 0.7268 0.2732 0.8156 0.1844 0.2059 0.7941 0.6283 0.3717 0.0335 0.9665 0.1758 0.8242 0.7525 0.2475 </TABLE>
 </DEFINITION>
 <DEFINITION>
      <FOR>node21</FOR>
      <GIVEN>node15</GIVEN>
     <TABLE>0.2167 0.7833 0.0755 0.9245 </TABLE>
 </DEFINITION>
 <DEFINITION>
      <FOR>node22</FOR>
     <TABLE>0.8404 0.1596 </TABLE>
 </DEFINITION>
 <DEFINITION>
      <FOR>node23</FOR>
     <TABLE>0.5168 0.4832 </TABLE>
 </DEFINITION>
 <DEFINITION>
      <FOR>node24</FOR>
      <GIVEN>node63</GIVEN>
      <GIVEN>node126</GIVEN>
     <TABLE>0.254 0.746 0.8237 0.1763 0.7835 0.2165 0.877 0.123 </TABLE>
 </DEFINITION>
 <DEFINITION>
      <FOR>node25</FOR>
      <GIVEN>node29</GIVEN>
      <GIVEN>node124</GIVEN>
     <TABLE>0.6371 0.3629 0.466 0.534 0.5758 0.4242 0.5004 0.4996 </TABLE>
 </DEFINITION>
 <DEFINITION>
      <FOR>node26</FOR>
      <GIVEN>node176</GIVEN>
     <TABLE>0.6973 0.3027 0.0358 0.9642 </TABLE>
 </DEFINITION>
 <DEFINITION>
      <FOR>node27</FOR>
      <GIVEN>node84</GIVEN>
      <GIVEN>node94</GIVEN>
     <TABLE>0.8953 0.1047 0.6055 0.3945 0.8505 0.1495 0.7966 0.2034 </TABLE>
 </DEFINITION>
 <DEFINITION>
      <FOR>node28</FOR>
      <GIVEN>node90</GIVEN>
     <TABLE>0.691 0.309 0.9032 0.0968 </TABLE>
 </DEFINITION>
 <DEFINITION>
      <FOR>node29</FOR>
     <TABLE>0.1915 0.8085 </TABLE>
 </DEFINITION>
 <DEFINITION>
      <FOR>node30</FOR>
     <TABLE>0.7463 0.2537 </TABLE>
 </DEFINITION>
 <DEFINITION>
      <FOR>node31</FOR>
     <TABLE>0.0767 0.9233 </TABLE>
 </DEFINITION>
 <DEFINITION>
      <FOR>node32</FOR>
      <GIVEN>node39</GIVEN>
     <TABLE>0.896 0.104 0.6669 0.3331 </TABLE>
 </DEFINITION>
 <DEFINITION>
      <FOR>node33</FOR>
      <GIVEN>node190</GIVEN>
      <GIVEN>node19</GIVEN>
     <TABLE>0.3587 0.6413 0.473 0.527 0.015 0.985 0.1651 0.8349 </TABLE>
 </DEFINITION>
 <DEFINITION>
      <FOR>node34</FOR>
      <GIVEN>node195</GIVEN>
     <TABLE>0.7383 0.2617 0.2303 0.7697 </TABLE>
 </DEFINITION>
 <DEFINITION>
      <FOR>node35</FOR>
     <TABLE>0.2238 0.7762 </TABLE>
 </DEFINITION>
 <DEFINITION>
      <FOR>node36</FOR>
      <GIVEN>node181</GIVEN>
      <GIVEN>node92</GIVEN>
      <GIVEN>node127</GIVEN>
     <TABLE>0.0765 0.9235 0.1958 0.8042 0.0728 0.9272 0.4448 0.5552 0.4599 0.5401 0.2549 0.7451 0.8266 0.1734 0.445 0.555 </TABLE>
 </DEFINITION>
 <DEFINITION>
      <FOR>node37</FOR>
     <TABLE>0.2158 0.7842 </TABLE>
 </DEFINITION>
 <DEFINITION>
      <FOR>node38</FOR>
     <TABLE>0.7283 0.2717 </TABLE>
 </DEFINITION>
 <DEFINITION>
      <FOR>node39</FOR>
     <TABLE>0.8161 0.1839 </TABLE>
 </DEFINITION>
 <DEFINITION>
      <FOR>node40</FOR>
      <GIVEN>node187</GIVEN>
      <GIVEN>node109</GIVEN>
     <TABLE>0.5606 0.4394 0.3527 0.6473 0.3778 0.6222 0.7806 0.2194 </TABLE>
 </DEFINITION>
 <DEFINITION>
      <FOR>node41</FOR>
      <GIVEN>node153</GIVEN>
      <GIVEN>node37</GIVEN>
      <GIVEN>node171</GIVEN>
     <TABLE>0.6256 0.3744 0.6392 0.3608 0.8914 0.1086 0.0281 0.9719 0.757 0.243 0.5029 0.4971 0.0754 0.9246 0.6879 0.3121 </TABLE>
 </DEFINITION>
 <DEFINITION>
      <FOR>node42</FOR>
      <GIVEN>node138</GIVEN>
     <TABLE>0.4888 0.5112 0.2438 0.7562 </TABLE>
 </DEFINITION>
 <DEFINITION>
      <FOR>node43</FOR>
      <GIVEN>node88</GIVEN>
     <TABLE>0.9274 0.0726 0.0656 0.9344 </TABLE>
 </DEFINITION>
 <DEFINITION>
      <FOR>node44</FOR>
     <TABLE>0.9142 0.0858 </TABLE>
 </DEFINITION>
 <DEFINITION>
      <FOR>node45</FOR>
      <GIVEN>node96</GIVEN>
     <TABLE>0.6677 0.3323 0.4836 0.5164 </TABLE>
 </DEFINITION>
 <DEFINITION>
      <FOR>node46</FOR>
      <GIVEN>node88</GIVEN>
     <TABLE>0.303 0.697 0.8455 0.1545 </TABLE>
 </DEFINITION>
 <DEFINITION>
      <FOR>node47</FOR>
      <GIVEN>node58</GIVEN>
     <TABLE>0.9995 5.0E-4 0.139 0.861 </TABLE>
 </DEFINITION>
 <DEFINITION>
      <FOR>node48</FOR>
      <GIVEN>node177</GIVEN>
     <TABLE>0.6799 0.3201 0.0773 0.9227 </TABLE>
 </DEFINITION>
 <DEFINITION>
      <FOR>node49</FOR>
      <GIVEN>node94</GIVEN>
     <TABLE>0.6443 0.3557 0.7245 0.2755 </TABLE>
 </DEFINITION>
 <DEFINITION>
      <FOR>node50</FOR>
      <GIVEN>node82</GIVEN>
     <TABLE>0.7055 0.2945 0.581 0.419 </TABLE>
 </DEFINITION>
 <DEFINITION>
      <FOR>node51</FOR>
      <GIVEN>node85</GIVEN>
     <TABLE>0.4982 0.5018 0.8071 0.1929 </TABLE>
 </DEFINITION>
 <DEFINITION>
      <FOR>node52</FOR>
      <GIVEN>node10</GIVEN>
     <TABLE>0.4645 0.5355 0.1448 0.8552 </TABLE>
 </DEFINITION>
 <DEFINITION>
      <FOR>node53</FOR>
      <GIVEN>node197</GIVEN>
     <TABLE>0.0591 0.9409 0.2815 0.7185 </TABLE>
 </DEFINITION>
 <DEFINITION>
      <FOR>node54</FOR>
      <GIVEN>node9</GIVEN>
     <TABLE>0.2938 0.7062 0.1198 0.8802 </TABLE>
 </DEFINITION>
 <DEFINITION>
      <FOR>node55</FOR>
     <TABLE>0.645 0.355 </TABLE>
 </DEFINITION>
 <DEFINITION>
      <FOR>node56</FOR>
     <TABLE>0.4452 0.5548 </TABLE>
 </DEFINITION>
 <DEFINITION>
      <FOR>node57</FOR>
      <GIVEN>node64</GIVEN>
     <TABLE>0.4917 0.5083 0.4071 0.5929 </TABLE>
 </DEFINITION>
 <DEFINITION>
      <FOR>node58</FOR>
     <TABLE>0.1803 0.8197 </TABLE>
 </DEFINITION>
 <DEFINITION>
      <FOR>node59</FOR>
      <GIVEN>node15</GIVEN>
     <TABLE>0.1066 0.8934 0.6862 0.3138 </TABLE>
 </DEFINITION>
 <DEFINITION>
      <FOR>node60</FOR>
      <GIVEN>node189</GIVEN>
      <GIVEN>node92</GIVEN>
      <GIVEN>node188</GIVEN>
     <TABLE>0.0591 0.9409 0.8219 0.1781 0.4818 0.5182 0.0865 0.9135 0.7166 0.2834 0.6074 0.3926 0.9127 0.0873 0.7167 0.2833 </TABLE>
 </DEFINITION>
 <DEFINITION>
      <FOR>node61</FOR>
      <GIVEN>node171</GIVEN>
      <GIVEN>node45</GIVEN>
     <TABLE>0.4156 0.5844 0.1975 0.8025 0.8154 0.1846 0.2501 0.7499 </TABLE>
 </DEFINITION>
 <DEFINITION>
      <FOR>node62</FOR>
      <GIVEN>node157</GIVEN>
     <TABLE>0.0857 0.9143 0.5864 0.4136 </TABLE>
 </DEFINITION>
 <DEFINITION>
      <FOR>node63</FOR>
     <TABLE>0.663 0.337 </TABLE>
 </DEFINITION>
 <DEFINITION>
      <FOR>node64</FOR>
      <GIVEN>node22</GIVEN>
     <TABLE>0.0673 0.9327 0.1993 0.8007 </TABLE>
 </DEFINITION>
 <DEFINITION>
      <FOR>node65</FOR>
      <GIVEN>node149</GIVEN>
      <GIVEN>node95</GIVEN>
     <TABLE>0.6506 0.3494 0.461 0.539 0.3713 0.6287 0.2348 0.7652 </TABLE>
 </DEFINITION>
 <DEFINITION>
      <FOR>node66</FOR>
     <TABLE>0.1911 0.8089 </TABLE>
 </DEFINITION>
 <DEFINITION>
      <FOR>node67</FOR>
      <GIVEN>node22</GIVEN>
     <TABLE>0.2465 0.7535 0.5927 0.4073 </TABLE>
 </DEFINITION>
 <DEFINITION>
      <FOR>node68</FOR>
     <TABLE>0.4802 0.5198 </TABLE>
 </DEFINITION>
 <DEFINITION>
      <FOR>node69</FOR>
     <TABLE>0.9066 0.0934 </TABLE>
 </DEFINITION>
 <DEFINITION>
      <FOR>node70</FOR>
      <GIVEN>node12</GIVEN>
     <TABLE>0.8523 0.1477 0.1952 0.8048 </TABLE>
 </DEFINITION>
 <DEFINITION>
      <FOR>node71</FOR>
      <GIVEN>node64</GIVEN>
      <GIVEN>node102</GIVEN>
     <TABLE>0.1489 0.8511 0.7909 0.2091 0.0233 0.9767 0.1278 0.8722 </TABLE>
 </DEFINITION>
 <DEFINITION>
      <FOR>node72</FOR>
      <GIVEN>node181</GIVEN>
      <GIVEN>node152</GIVEN>
     <TABLE>0.3305 0.6695 0.3958 0.6042 0.982 0.018 0.9787 0.0213 </TABLE>
 </DEFINITION>
 <DEFINITION>
      <FOR>node73</FOR>
      <GIVEN>node199</GIVEN>
     <TABLE>0.0256 0.9744 0.7662 0.2338 </TABLE>
 </DEFINITION>
 <DEFINITION>
      <FOR>node74</FOR>
     <TABLE>0.3006 0.6994 </TABLE>
 </DEFINITION>
 <DEFINITION>
      <FOR>node75</FOR>
      <GIVEN>node85</GIVEN>
      <GIVEN>node114</GIVEN>
     <TABLE>0.2587 0.7413 0.0316 0.9684 0.571 0.429 0.616 0.384 </TABLE>
 </DEFINITION>
 <DEFINITION>
      <FOR>node76</FOR>
      <GIVEN>node61</GIVEN>
     <TABLE>0.5452 0.4548 0.0258 0.9742 </TABLE>
 </DEFINITION>
 <DEFINITION>
      <FOR>node77</FOR>
      <GIVEN>node185</GIVEN>
     <TABLE>0.2127 0.7873 0.2816 0.7184 </TABLE>
 </DEFINITION>
 <DEFINITION>
      <FOR>node78</FOR>
     <TABLE>0.7431 0.2569 </TABLE>
 </DEFINITION>
 <DEFINITION>
      <FOR>node79</FOR>
      <GIVEN>node123</GIVEN>
      <GIVEN>node165</GIVEN>
      <GIVEN>node80</GIVEN>
      <GIVEN>node66</GIVEN>
     <TABLE>0.4218 0.5782 0.2686 0.7314 0.8143 0.1857 0.7994 0.2006 0.104 0.896 0.1774 0.8226 0.402 0.598 0.8229 0.1771 0.2345 0.7655 0.0811 0.9189 0.0669 0.9331 0.8538 0.1462 0.8092 0.1908 0.9063 0.0937 0.8639 0.1361 0.2094 0.7906 </TABLE>
 </DEFINITION>
 <DEFINITION>
      <FOR>node80</FOR>
     <TABLE>0.015 0.985 </TABLE>
 </DEFINITION>
 <DEFINITION>
      <FOR>node81</FOR>
     <TABLE>0.2922 0.7078 </TABLE>
 </DEFINITION>
 <DEFINITION>
      <FOR>node82</FOR>
     <TABLE>0.5972 0.4028 </TABLE>
 </DEFINITION>
 <DEFINITION>
      <FOR>node83</FOR>
     <TABLE>0.5006 0.4994 </TABLE>
 </DEFINITION>
 <DEFINITION>
      <FOR>node84</FOR>
     <TABLE>0.3115 0.6885 </TABLE>
 </DEFINITION>
 <DEFINITION>
      <FOR>node85</FOR>
     <TABLE>0.6682 0.3318 </TABLE>
 </DEFINITION>
 <DEFINITION>
      <FOR>node86</FOR>
     <TABLE>0.965 0.035 </TABLE>
 </DEFINITION>
 <DEFINITION>
      <FOR>node87</FOR>
     <TABLE>0.1489 0.8511 </TABLE>
 </DEFINITION>
 <DEFINITION>
      <FOR>node88</FOR>
     <TABLE>0.2217 0.7783 </TABLE>
 </DEFINITION>
 <DEFINITION>
      <FOR>node89</FOR>
      <GIVEN>node64</GIVEN>
     <TABLE>0.423 0.577 0.7513 0.2487 </TABLE>
 </DEFINITION>
 <DEFINITION>
      <FOR>node90</FOR>
      <GIVEN>node37</GIVEN>
     <TABLE>0.4578 0.5422 0.341 0.659 </TABLE>
 </DEFINITION>
 <DEFINITION>
      <FOR>node91</FOR>
      <GIVEN>node164</GIVEN>
     <TABLE>0.62 0.38 0.2396 0.7604 </TABLE>
 </DEFINITION>
 <DEFINITION>
      <FOR>node92</FOR>
      <GIVEN>node55</GIVEN>
      <GIVEN>node84</GIVEN>
      <GIVEN>node78</GIVEN>
     <TABLE>0.8331 0.1669 0.8127 0.1873 0.9181 0.0819 0.0859 0.9141 0.4711 0.5289 0.7691 0.2309 0.8079 0.1921 0.1557 0.8443 </TABLE>
 </DEFINITION>
 <DEFINITION>
      <FOR>node93</FOR>
     <TABLE>0.5117 0.4883 </TABLE>
 </DEFINITION>
 <DEFINITION>
      <FOR>node94</FOR>
      <GIVEN>node56</GIVEN>
     <TABLE>0.9187 0.0813 0.6259 0.3741 </TABLE>
 </DEFINITION>
 <DEFINITION>
      <FOR>node95</FOR>
      <GIVEN>node104</GIVEN>
     <TABLE>0.6606 0.3394 0.8722 0.1278 </TABLE>
 </DEFINITION>
 <DEFINITION>
      <FOR>node96</FOR>
      <GIVEN>node75</GIVEN>
     <TABLE>0.2352 0.7648 0.3348 0.6652 </TABLE>
 </DEFINITION>
 <DEFINITION>
      <FOR>node97</FOR>
      <GIVEN>node19</GIVEN>
     <TABLE>0.4296 0.5704 0.8061 0.1939 </TABLE>
 </DEFINITION>
 <DEFINITION>
      <FOR>node98</FOR>
      <GIVEN>node159</GIVEN>
     <TABLE>0.1059 0.8941 0.332 0.668 </TABLE>
 </DEFINITION>
 <DEFINITION>
      <FOR>node99</FOR>
     <TABLE>0.9968 0.0032 </TABLE>
 </DEFINITION>
 <DEFINITION>
      <FOR>node100</FOR>
      <GIVEN>node34</GIVEN>
     <TABLE>0.2282 0.7718 0.2737 0.7263 </TABLE>
 </DEFINITION>
 <DEFINITION>
      <FOR>node101</FOR>
      <GIVEN>node35</GIVEN>
     <TABLE>0.6698 0.3302 0.9126 0.0874 </TABLE>
 </DEFINITION>
 <DEFINITION>
      <FOR>node102</FOR>
     <TABLE>0.0558 0.9442 </TABLE>
 </DEFINITION>
 <DEFINITION>
      <FOR>node103</FOR>
     <TABLE>0.2801 0.7199 </TABLE>
 </DEFINITION>
 <DEFINITION>
      <FOR>node104</FOR>
      <GIVEN>node83</GIVEN>
     <TABLE>0.9715 0.0285 0.5366 0.4634 </TABLE>
 </DEFINITION>
 <DEFINITION>
      <FOR>node105</FOR>
      <GIVEN>node195</GIVEN>
     <TABLE>0.4037 0.5963 0.9101 0.0899 </TABLE>
 </DEFINITION>
 <DEFINITION>
      <FOR>node106</FOR>
      <GIVEN>node162</GIVEN>
      <GIVEN>node135</GIVEN>
     <TABLE>0.8367 0.1633 0.8376 0.1624 0.8681 0.1319 0.4983 0.5017 </TABLE>
 </DEFINITION>
 <DEFINITION>
      <FOR>node107</FOR>
      <GIVEN>node178</GIVEN>
      <GIVEN>node32</GIVEN>
     <TABLE>0.6253 0.3747 0.7691 0.2309 0.6681 0.3319 0.261 0.739 </TABLE>
 </DEFINITION>
 <DEFINITION>
      <FOR>node108</FOR>
     <TABLE>0.6333 0.3667 </TABLE>
 </DEFINITION>
 <DEFINITION>
      <FOR>node109</FOR>
     <TABLE>0.461 0.539 </TABLE>
 </DEFINITION>
 <DEFINITION>
      <FOR>node110</FOR>
      <GIVEN>node41</GIVEN>
     <TABLE>0.1111 0.8889 0.3222 0.6778 </TABLE>
 </DEFINITION>
 <DEFINITION>
      <FOR>node111</FOR>
      <GIVEN>node143</GIVEN>
     <TABLE>0.5483 0.4517 0.5519 0.4481 </TABLE>
 </DEFINITION>
 <DEFINITION>
      <FOR>node112</FOR>
     <TABLE>0.4886 0.5114 </TABLE>
 </DEFINITION>
 <DEFINITION>
      <FOR>node113</FOR>
      <GIVEN>node122</GIVEN>
      <GIVEN>node159</GIVEN>
     <TABLE>0.2355 0.7645 0.6378 0.3622 0.9884 0.0116 0.4791 0.5209 </TABLE>
 </DEFINITION>
 <DEFINITION>
      <FOR>node114</FOR>
      <GIVEN>node31</GIVEN>
     <TABLE>0.0798 0.9202 0.7171 0.2829 </TABLE>
 </DEFINITION>
 <DEFINITION>
      <FOR>node115</FOR>
      <GIVEN>node111</GIVEN>
     <TABLE>0.8903 0.1097 0.1306 0.8694 </TABLE>
 </DEFINITION>
 <DEFINITION>
      <FOR>node116</FOR>
      <GIVEN>node91</GIVEN>
     <TABLE>0.9084 0.0916 0.2891 0.7109 </TABLE>
 </DEFINITION>
 <DEFINITION>
      <FOR>node117</FOR>
      <GIVEN>node139</GIVEN>
      <GIVEN>node184</GIVEN>
     <TABLE>0.2452 0.7548 0.2071 0.7929 0.9203 0.0797 0.7631 0.2369 </TABLE>
 </DEFINITION>
 <DEFINITION>
      <FOR>node118</FOR>
      <GIVEN>node139</GIVEN>
      <GIVEN>node151</GIVEN>
     <TABLE>0.9733 0.0267 0.9456 0.0544 0.6348 0.3652 0.7515 0.2485 </TABLE>
 </DEFINITION>
 <DEFINITION>
      <FOR>node119</FOR>
      <GIVEN>node108</GIVEN>
     <TABLE>0.6873 0.3127 0.712 0.288 </TABLE>
 </DEFINITION>
 <DEFINITION>
      <FOR>node120</FOR>
      <GIVEN>node103</GIVEN>
      <GIVEN>node1</GIVEN>
     <TABLE>0.8183 0.1817 0.2453 0.7547 0.6734 0.3266 0.6425 0.3575 </TABLE>
 </DEFINITION>
 <DEFINITION>
      <FOR>node121</FOR>
      <GIVEN>node148</GIVEN>
      <GIVEN>node18</GIVEN>
     <TABLE>0.6333 0.3667 0.4242 0.5758 0.1204 0.8796 0.6001 0.3999 </TABLE>
 </DEFINITION>
 <DEFINITION>
      <FOR>node122</FOR>
      <GIVEN>node126</GIVEN>
     <TABLE>0.4322 0.5678 0.1976 0.8024 </TABLE>
 </DEFINITION>
 <DEFINITION>
      <FOR>node123</FOR>
     <TABLE>0.3675 0.6325 </TABLE>
 </DEFINITION>
 <DEFINITION>
      <FOR>node124</FOR>
      <GIVEN>node167</GIVEN>
      <GIVEN>node74</GIVEN>
      <GIVEN>node147</GIVEN>
     <TABLE>0.4789 0.5211 0.5859 0.4141 0.1001 0.8999 0.98 0.02 0.2609 0.7391 0.3024 0.6976 0.9156 0.0844 0.2378 0.7622 </TABLE>
 </DEFINITION>
 <DEFINITION>
      <FOR>node125</FOR>
      <GIVEN>node11</GIVEN>
     <TABLE>0.1599 0.8401 0.8113 0.1887 </TABLE>
 </DEFINITION>
 <DEFINITION>
      <FOR>node126</FOR>
      <GIVEN>node54</GIVEN>
     <TABLE>0.2712 0.7288 0.0522 0.9478 </TABLE>
 </DEFINITION>
 <DEFINITION>
      <FOR>node127</FOR>
      <GIVEN>node112</GIVEN>
     <TABLE>0.7497 0.2503 0.0974 0.9026 </TABLE>
 </DEFINITION>
 <DEFINITION>
      <FOR>node128</FOR>
      <GIVEN>node50</GIVEN>
      <GIVEN>node30</GIVEN>
      <GIVEN>node38</GIVEN>
     <TABLE>0.1186 0.8814 0.2972 0.7028 0.9099 0.0901 0.524 0.476 0.5567 0.4433 0.1832 0.8168 0.0132 0.9868 0.0663 0.9337 </TABLE>
 </DEFINITION>
 <DEFINITION>
      <FOR>node129</FOR>
      <GIVEN>node48</GIVEN>
     <TABLE>0.0943 0.9057 0.4749 0.5251 </TABLE>
 </DEFINITION>
 <DEFINITION>
      <FOR>node130</FOR>
     <TABLE>0.2999 0.7001 </TABLE>
 </DEFINITION>
 <DEFINITION>
      <FOR>node131</FOR>
      <GIVEN>node105</GIVEN>
     <TABLE>0.5673 0.4327 0.6303 0.3697 </TABLE>
 </DEFINITION>
 <DEFINITION>
      <FOR>node132</FOR>
      <GIVEN>node138</GIVEN>
      <GIVEN>node141</GIVEN>
     <TABLE>0.1967 0.8033 0.1032 0.8968 0.1516 0.8484 0.211 0.789 </TABLE>
 </DEFINITION>
 <DEFINITION>
      <FOR>node133</FOR>
      <GIVEN>node87</GIVEN>
      <GIVEN>node176</GIVEN>
     <TABLE>0.3915 0.6085 0.5773 0.4227 0.1211 0.8789 0.0283 0.9717 </TABLE>
 </DEFINITION>
 <DEFINITION>
      <FOR>node134</FOR>
      <GIVEN>node159</GIVEN>
     <TABLE>0.8477 0.1523 0.1978 0.8022 </TABLE>
 </DEFINITION>
 <DEFINITION>
      <FOR>node135</FOR>
      <GIVEN>node76</GIVEN>
      <GIVEN>node172</GIVEN>
     <TABLE>0.6732 0.3268 0.7875 0.2125 0.3274 0.6726 0.7959 0.2041 </TABLE>
 </DEFINITION>
 <DEFINITION>
      <FOR>node136</FOR>
      <GIVEN>node91</GIVEN>
     <TABLE>0.9289 0.0711 0.4848 0.5152 </TABLE>
 </DEFINITION>
 <DEFINITION>
      <FOR>node137</FOR>
      <GIVEN>node182</GIVEN>
     <TABLE>0.6294 0.3706 0.0944 0.9056 </TABLE>
 </DEFINITION>
 <DEFINITION>
      <FOR>node138</FOR>
      <GIVEN>node123</GIVEN>
      <GIVEN>node108</GIVEN>
     <TABLE>0.4831 0.5169 0.3143 0.6857 0.4209 0.5791 0.697 0.303 </TABLE>
 </DEFINITION>
 <DEFINITION>
      <FOR>node139</FOR>
     <TABLE>0.6577 0.3423 </TABLE>
 </DEFINITION>
 <DEFINITION>
      <FOR>node140</FOR>
      <GIVEN>node58</GIVEN>
      <GIVEN>node38</GIVEN>
     <TABLE>0.0667 0.9333 0.5363 0.4637 0.1283 0.8717 0.1346 0.8654 </TABLE>
 </DEFINITION>
 <DEFINITION>
      <FOR>node141</FOR>
     <TABLE>0.6055 0.3945 </TABLE>
 </DEFINITION>
 <DEFINITION>
      <FOR>node142</FOR>
      <GIVEN>node102</GIVEN>
     <TABLE>0.7662 0.2338 0.2769 0.7231 </TABLE>
 </DEFINITION>
 <DEFINITION>
      <FOR>node143</FOR>
      <GIVEN>node175</GIVEN>
     <TABLE>0.7899 0.2101 0.5094 0.4906 </TABLE>
 </DEFINITION>
 <DEFINITION>
      <FOR>node144</FOR>
      <GIVEN>node190</GIVEN>
      <GIVEN>node134</GIVEN>
      <GIVEN>node100</GIVEN>
     <TABLE>0.0146 0.9854 0.2971 0.7029 0.5718 0.4282 0.6955 0.3045 0.8274 0.1726 0.8394 0.1606 0.2909 0.7091 0.4179 0.5821 </TABLE>
 </DEFINITION>
 <DEFINITION>
      <FOR>node145</FOR>
      <GIVEN>node36</GIVEN>
     <TABLE>0.2934 0.7066 0.0308 0.9692 </TABLE>
 </DEFINITION>
 <DEFINITION>
      <FOR>node146</FOR>
     <TABLE>0.618 0.382 </TABLE>
 </DEFINITION>
 <DEFINITION>
      <FOR>node147</FOR>
      <GIVEN>node108</GIVEN>
     <TABLE>0.4269 0.5731 0.8031 0.1969 </TABLE>
 </DEFINITION>
 <DEFINITION>
      <FOR>node148</FOR>
      <GIVEN>node120</GIVEN>
      <GIVEN>node25</GIVEN>
     <TABLE>0.1279 0.8721 0.8709 0.1291 0.191 0.809 0.4857 0.5143 </TABLE>
 </DEFINITION>
 <DEFINITION>
      <FOR>node149</FOR>
      <GIVEN>node69</GIVEN>
      <GIVEN>node86</GIVEN>
     <TABLE>0.5804 0.4196 0.1232 0.8768 0.4939 0.5061 0.4157 0.5843 </TABLE>
 </DEFINITION>
 <DEFINITION>
      <FOR>node150</FOR>
      <GIVEN>node43</GIVEN>
     <TABLE>0.6682 0.3318 0.958 0.042 </TABLE>
 </DEFINITION>
 <DEFINITION>
      <FOR>node151</FOR>
     <TABLE>0.0458 0.9542 </TABLE>
 </DEFINITION>
 <DEFINITION>
      <FOR>node152</FOR>
      <GIVEN>node81</GIVEN>
     <TABLE>0.9299 0.0701 0.6472 0.3528 </TABLE>
 </DEFINITION>
 <DEFINITION>
      <FOR>node153</FOR>
     <TABLE>0.7154 0.2846 </TABLE>
 </DEFINITION>
 <DEFINITION>
      <FOR>node154</FOR>
      <GIVEN>node105</GIVEN>
     <TABLE>0.5815 0.4185 0.2681 0.7319 </TABLE>
 </DEFINITION>
 <DEFINITION>
      <FOR>node155</FOR>
      <GIVEN>node27</GIVEN>
     <TABLE>0.7065 0.2935 0.6828 0.3172 </TABLE>
 </DEFINITION>
 <DEFINITION>
      <FOR>node156</FOR>
      <GIVEN>node183</GIVEN>
      <GIVEN>node158</GIVEN>
     <TABLE>0.6334 0.3666 0.8201 0.1799 0.5373 0.4627 0.6591 0.3409 </TABLE>
 </DEFINITION>
 <DEFINITION>
      <FOR>node157</FOR>
      <GIVEN>node64</GIVEN>
     <TABLE>0.5039 0.4961 0.8437 0.1563 </TABLE>
 </DEFINITION>
 <DEFINITION>
      <FOR>node158</FOR>
     <TABLE>0.4466 0.5534 </TABLE>
 </DEFINITION>
 <DEFINITION>
      <FOR>node159</FOR>
     <TABLE>0.8078 0.1922 </TABLE>
 </DEFINITION>
 <DEFINITION>
      <FOR>node160</FOR>
      <GIVEN>node180</GIVEN>
     <TABLE>0.8637 0.1363 0.9817 0.0183 </TABLE>
 </DEFINITION>
 <DEFINITION>
      <FOR>node161</FOR>
      <GIVEN>node102</GIVEN>
      <GIVEN>node45</GIVEN>
      <GIVEN>node46</GIVEN>
      <GIVEN>node169</GIVEN>
     <TABLE>0.2747 0.7253 0.6875 0.3125 0.7643 0.2357 0.9092 0.0908 0.8335 0.1665 0.3739 0.6261 0.8538 0.1462 0.7584 0.2416 0.9374 0.0626 0.3724 0.6276 0.9476 0.0524 0.6713 0.3287 0.231 0.769 0.9548 0.0452 0.6612 0.3388 0.8346 0.1654 </TABLE>
 </DEFINITION>
 <DEFINITION>
      <FOR>node162</FOR>
      <GIVEN>node93</GIVEN>
     <TABLE>0.2754 0.7246 0.3753 0.6247 </TABLE>
 </DEFINITION>
 <DEFINITION>
      <FOR>node163</FOR>
     <TABLE>0.8504 0.1496 </TABLE>
 </DEFINITION>
 <DEFINITION>
      <FOR>node164</FOR>
      <GIVEN>node36</GIVEN>
     <TABLE>0.0257 0.9743 0.4168 0.5832 </TABLE>
 </DEFINITION>
 <DEFINITION>
      <FOR>node165</FOR>
     <TABLE>0.4827 0.5173 </TABLE>
 </DEFINITION>
 <DEFINITION>
      <FOR>node166</FOR>
      <GIVEN>node179</GIVEN>
      <GIVEN>node151</GIVEN>
     <TABLE>0.3785 0.6215 0.5326 0.4674 0.5475 0.4525 0.5629 0.4371 </TABLE>
 </DEFINITION>
 <DEFINITION>
      <FOR>node167</FOR>
     <TABLE>0.9786 0.0214 </TABLE>
 </DEFINITION>
 <DEFINITION>
      <FOR>node168</FOR>
      <GIVEN>node121</GIVEN>
      <GIVEN>node156</GIVEN>
     <TABLE>0.1993 0.8007 0.4467 0.5533 0.2694 0.7306 0.9846 0.0154 </TABLE>
 </DEFINITION>
 <DEFINITION>
      <FOR>node169</FOR>
     <TABLE>0.3682 0.6318 </TABLE>
 </DEFINITION>
 <DEFINITION>
      <FOR>node170</FOR>
      <GIVEN>node191</GIVEN>
     <TABLE>0.7893 0.2107 0.4336 0.5664 </TABLE>
 </DEFINITION>
 <DEFINITION>
      <FOR>node171</FOR>
      <GIVEN>node69</GIVEN>
     <TABLE>0.7606 0.2394 6.0E-4 0.9994 </TABLE>
 </DEFINITION>
 <DEFINITION>
      <FOR>node172</FOR>
     <TABLE>0.6708 0.3292 </TABLE>
 </DEFINITION>
 <DEFINITION>
      <FOR>node173</FOR>
      <GIVEN>node7</GIVEN>
      <GIVEN>node68</GIVEN>
     <TABLE>0.2729 0.7271 0.4973 0.5027 0.4884 0.5116 0.3196 0.6804 </TABLE>
 </DEFINITION>
 <DEFINITION>
      <FOR>node174</FOR>
      <GIVEN>node131</GIVEN>
      <GIVEN>node130</GIVEN>
     <TABLE>0.0485 0.9515 0.8525 0.1475 0.83 0.17 0.0617 0.9383 </TABLE>
 </DEFINITION>
 <DEFINITION>
      <FOR>node175</FOR>
      <GIVEN>node45</GIVEN>
     <TABLE>0.4106 0.5894 0.1703 0.8297 </TABLE>
 </DEFINITION>
 <DEFINITION>
      <FOR>node176</FOR>
      <GIVEN>node188</GIVEN>
     <TABLE>0.1089 0.8911 0.6749 0.3251 </TABLE>
 </DEFINITION>
 <DEFINITION>
      <FOR>node177</FOR>
     <TABLE>0.4679 0.5321 </TABLE>
 </DEFINITION>
 <DEFINITION>
      <FOR>node178</FOR>
     <TABLE>0.168 0.832 </TABLE>
 </DEFINITION>
 <DEFINITION>
      <FOR>node179</FOR>
      <GIVEN>node138</GIVEN>
     <TABLE>0.6982 0.3018 0.9598 0.0402 </TABLE>
 </DEFINITION>
 <DEFINITION>
      <FOR>node180</FOR>
      <GIVEN>node68</GIVEN>
     <TABLE>0.8853 0.1147 0.7771 0.2229 </TABLE>
 </DEFINITION>
 <DEFINITION>
      <FOR>node181</FOR>
      <GIVEN>node99</GIVEN>
     <TABLE>0.8473 0.1527 0.7738 0.2262 </TABLE>
 </DEFINITION>
 <DEFINITION>
      <FOR>node182</FOR>
     <TABLE>0.0297 0.9703 </TABLE>
 </DEFINITION>
 <DEFINITION>
      <FOR>node183</FOR>
      <GIVEN>node46</GIVEN>
     <TABLE>0.4823 0.5177 0.6387 0.3613 </TABLE>
 </DEFINITION>
 <DEFINITION>
      <FOR>node184</FOR>
     <TABLE>0.1753 0.8247 </TABLE>
 </DEFINITION>
 <DEFINITION>
      <FOR>node185</FOR>
     <TABLE>0.2137 0.7863 </TABLE>
 </DEFINITION>
 <DEFINITION>
      <FOR>node186</FOR>
     <TABLE>0.5127 0.4873 </TABLE>
 </DEFINITION>
 <DEFINITION>
      <FOR>node187</FOR>
     <TABLE>0.2467 0.7533 </TABLE>
 </DEFINITION>
 <DEFINITION>
      <FOR>node188</FOR>
      <GIVEN>node73</GIVEN>
     <TABLE>0.9807 0.0193 0.3943 0.6057 </TABLE>
 </DEFINITION>
 <DEFINITION>
      <FOR>node189</FOR>
     <TABLE>0.1646 0.8354 </TABLE>
 </DEFINITION>
 <DEFINITION>
      <FOR>node190</FOR>
     <TABLE>0.66 0.34 </TABLE>
 </DEFINITION>
 <DEFINITION>
      <FOR>node191</FOR>
      <GIVEN>node127</GIVEN>
     <TABLE>0.2543 0.7457 0.3294 0.6706 </TABLE>
 </DEFINITION>
 <DEFINITION>
      <FOR>node192</FOR>
      <GIVEN>node72</GIVEN>
     <TABLE>0.3171 0.6829 0.7357 0.2643 </TABLE>
 </DEFINITION>
 <DEFINITION>
      <FOR>node193</FOR>
     <TABLE>0.2652 0.7348 </TABLE>
 </DEFINITION>
 <DEFINITION>
      <FOR>node194</FOR>
      <GIVEN>node144</GIVEN>
      <GIVEN>node180</GIVEN>
     <TABLE>0.2061 0.7939 0.4481 0.5519 0.7778 0.2222 0.8508 0.1492 </TABLE>
 </DEFINITION>
 <DEFINITION>
      <FOR>node195</FOR>
     <TABLE>0.3627 0.6373 </TABLE>
 </DEFINITION>
 <DEFINITION>
      <FOR>node196</FOR>
      <GIVEN>node95</GIVEN>
     <TABLE>0.5296 0.4704 0.5919 0.4081 </TABLE>
 </DEFINITION>
 <DEFINITION>
      <FOR>node197</FOR>
      <GIVEN>node36</GIVEN>
      <GIVEN>node89</GIVEN>
      <GIVEN>node8</GIVEN>
     <TABLE>0.5996 0.4004 0.5861 0.4139 0.4069 0.5931 0.5726 0.4274 0.4565 0.5435 0.7545 0.2455 0.4022 0.5978 0.4432 0.5568 </TABLE>
 </DEFINITION>
 <DEFINITION>
      <FOR>node198</FOR>
      <GIVEN>node155</GIVEN>
     <TABLE>0.0596 0.9404 0.1205 0.8795 </TABLE>
 </DEFINITION>
 <DEFINITION>
      <FOR>node199</FOR>
     <TABLE>0.4819 0.5181 </TABLE>
 </DEFINITION>
</NETWORK>
</BIF>
