<?xml version="1.0" encoding="US-ASCII"?>


<!--
	Bayesian network in XMLBIF v0.3 (BayesNet Interchange Format)
	Produced by JavaBayes (http://www.cs.cmu.edu/~javabayes/
	Number of nodes:80
	Output created Fri Jun 19 10:33:24 CEST 2020
-->



<BIF VERSION="0.3">
<NETWORK>
<NAME>InternalNetwork</NAME>
<!-- Variables -->
<VARIABLE TYPE="nature">
    <NAME>node0</NAME>
    <OUTCOME>state0</OUTCOME>
    <OUTCOME>state1</OUTCOME>
    <OUTCOME>state2</OUTCOME>
    <OUTCOME>state3</OUTCOME>
    <OUTCOME>state4</OUTCOME>
    <PROPERTY>position = (45, 30)</PROPERTY>
</VARIABLE>
<!-- Variables -->
<VARIABLE TYPE="nature">
    <NAME>node1</NAME>
    <OUTCOME>state0</OUTCOME>
    <OUTCOME>state1</OUTCOME>
    <OUTCOME>state2</OUTCOME>
    <PROPERTY>position = (44, 270)</PROPERTY>
</VARIABLE>
<!-- Variables -->
<VARIABLE TYPE="nature">
    <NAME>node2</NAME>
    <OUTCOME>state0</OUTCOME>
    <OUTCOME>state1</OUTCOME>
    <OUTCOME>state2</OUTCOME>
    <OUTCOME>state3</OUTCOME>
    <OUTCOME>state4</OUTCOME>
    <OUTCOME>state5</OUTCOME>
    <PROPERTY>position = (165, 44)</PROPERTY>
</VARIABLE>
<!-- Variables -->
<VARIABLE TYPE="nature">
    <NAME>node3</NAME>
    <OUTCOME>state0</OUTCOME>
    <OUTCOME>state1</OUTCOME>
    <OUTCOME>state2</OUTCOME>
    <OUTCOME>state3</OUTCOME>
    <OUTCOME>state4</OUTCOME>
    <OUTCOME>state5</OUTCOME>
    <OUTCOME>state6</OUTCOME>
    <PROPERTY>position = (164, 284)</PROPERTY>
</VARIABLE>
<!-- Variables -->
<VARIABLE TYPE="nature">
    <NAME>node4</NAME>
    <OUTCOME>state0</OUTCOME>
    <OUTCOME>state1</OUTCOME>
    <PROPERTY>position = (285, 30)</PROPERTY>
</VARIABLE>
<!-- Variables -->
<VARIABLE TYPE="nature">
    <NAME>node5</NAME>
    <OUTCOME>state0</OUTCOME>
    <OUTCOME>state1</OUTCOME>
    <OUTCOME>state2</OUTCOME>
    <OUTCOME>state3</OUTCOME>
    <OUTCOME>state4</OUTCOME>
    <OUTCOME>state5</OUTCOME>
    <OUTCOME>state6</OUTCOME>
    <OUTCOME>state7</OUTCOME>
    <PROPERTY>position = (15, 150)</PROPERTY>
</VARIABLE>
<!-- Variables -->
<VARIABLE TYPE="nature">
    <NAME>node6</NAME>
    <OUTCOME>state0</OUTCOME>
    <OUTCOME>state1</OUTCOME>
    <OUTCOME>state2</OUTCOME>
    <OUTCOME>state3</OUTCOME>
    <PROPERTY>position = (135, 164)</PROPERTY>
</VARIABLE>
<!-- Variables -->
<VARIABLE TYPE="nature">
    <NAME>node7</NAME>
    <OUTCOME>state0</OUTCOME>
    <OUTCOME>state1</OUTCOME>
    <OUTCOME>state2</OUTCOME>
    <OUTCOME>state3</OUTCOME>
    <OUTCOME>state4</OUTCOME>
    <OUTCOME>state5</OUTCOME>
    <OUTCOME>state6</OUTCOME>
    <OUTCOME>state7</OUTCOME>
    <PROPERTY>position = (255, 150)</PROPERTY>
</VARIABLE>
<!-- Variables -->
<VARIABLE TYPE="nature">
    <NAME>node8</NAME>
    <OUTCOME>state0</OUTCOME>
    <OUTCOME>state1</OUTCOME>
    <PROPERTY>position = (405, 15)</PROPERTY>
</VARIABLE>
<!-- Variables -->
<VARIABLE TYPE="nature">
    <NAME>node9</NAME>
    <OUTCOME>state0</OUTCOME>
    <OUTCOME>state1</OUTCOME>
    <OUTCOME>state2</OUTCOME>
    <OUTCOME>state3</OUTCOME>
    <OUTCOME>state4</OUTCOME>
    <OUTCOME>state5</OUTCOME>
    <OUTCOME>state6</OUTCOME>
    <PROPERTY>position = (525, 29)</PROPERTY>
</VARIABLE>
<!-- Variables -->
<VARIABLE TYPE="nature">
    <NAME>node10</NAME>
    <OUTCOME>state0</OUTCOME>
    <OUTCOME>state1</OUTCOME>
    <OUTCOME>state2</OUTCOME>
    <OUTCOME>state3</OUTCOME>
    <OUTCOME>state4</OUTCOME>
    <OUTCOME>state5</OUTCOME>
    <OUTCOME>state6</OUTCOME>
    <OUTCOME>state7</OUTCOME>
    <PROPERTY>position = (375, 135)</PROPERTY>
</VARIABLE>
<!-- Variables -->
<VARIABLE TYPE="nature">
    <NAME>node11</NAME>
    <OUTCOME>state0</OUTCOME>
    <OUTCOME>state1</OUTCOME>
    <OUTCOME>state2</OUTCOME>
    <OUTCOME>state3</OUTCOME>
    <PROPERTY>position = (495, 149)</PROPERTY>
</VARIABLE>
<!-- Variables -->
<VARIABLE TYPE="nature">
    <NAME>node12</NAME>
    <OUTCOME>state0</OUTCOME>
    <OUTCOME>state1</OUTCOME>
    <OUTCOME>state2</OUTCOME>
    <OUTCOME>state3</OUTCOME>
    <OUTCOME>state4</OUTCOME>
    <OUTCOME>state5</OUTCOME>
    <PROPERTY>position = (615, 164)</PROPERTY>
</VARIABLE>
<!-- Variables -->
<VARIABLE TYPE="nature">
    <NAME>node13</NAME>
    <OUTCOME>state0</OUTCOME>
    <OUTCOME>state1</OUTCOME>
    <OUTCOME>state2</OUTCOME>
    <PROPERTY>position = (735, 150)</PROPERTY>
</VARIABLE>
<!-- Variables -->
<VARIABLE TYPE="nature">
    <NAME>node14</NAME>
    <OUTCOME>state0</OUTCOME>
    <OUTCOME>state1</OUTCOME>
    <OUTCOME>state2</OUTCOME>
    <OUTCOME>state3</OUTCOME>
    <OUTCOME>state4</OUTCOME>
    <OUTCOME>state5</OUTCOME>
    <OUTCOME>state6</OUTCOME>
    <PROPERTY>position = (855, 135)</PROPERTY>
</VARIABLE>
<!-- Variables -->
<VARIABLE TYPE="nature">
    <NAME>node15</NAME>
    <OUTCOME>state0</OUTCOME>
    <OUTCOME>state1</OUTCOME>
    <OUTCOME>state2</OUTCOME>
    <OUTCOME>state3</OUTCOME>
    <OUTCOME>state4</OUTCOME>
    <OUTCOME>state5</OUTCOME>
    <OUTCOME>state6</OUTCOME>
    <PROPERTY>position = (975, 149)</PROPERTY>
</VARIABLE>
<!-- Variables -->
<VARIABLE TYPE="nature">
    <NAME>node16</NAME>
    <OUTCOME>state0</OUTCOME>
    <OUTCOME>state1</OUTCOME>
    <OUTCOME>state2</OUTCOME>
    <OUTCOME>state3</OUTCOME>
    <PROPERTY>position = (1095, 164)</PROPERTY>
</VARIABLE>
<!-- Variables -->
<VARIABLE TYPE="nature">
    <NAME>node17</NAME>
    <OUTCOME>state0</OUTCOME>
    <OUTCOME>state1</OUTCOME>
    <PROPERTY>position = (284, 270)</PROPERTY>
</VARIABLE>
<!-- Variables -->
<VARIABLE TYPE="nature">
    <NAME>node18</NAME>
    <OUTCOME>state0</OUTCOME>
    <OUTCOME>state1</OUTCOME>
    <OUTCOME>state2</OUTCOME>
    <OUTCOME>state3</OUTCOME>
    <OUTCOME>state4</OUTCOME>
    <OUTCOME>state5</OUTCOME>
    <OUTCOME>state6</OUTCOME>
    <PROPERTY>position = (1215, 150)</PROPERTY>
</VARIABLE>
<!-- Variables -->
<VARIABLE TYPE="nature">
    <NAME>node19</NAME>
    <OUTCOME>state0</OUTCOME>
    <OUTCOME>state1</OUTCOME>
    <OUTCOME>state2</OUTCOME>
    <PROPERTY>position = (1335, 135)</PROPERTY>
</VARIABLE>
<!-- Variables -->
<VARIABLE TYPE="nature">
    <NAME>node20</NAME>
    <OUTCOME>state0</OUTCOME>
    <OUTCOME>state1</OUTCOME>
    <OUTCOME>state2</OUTCOME>
    <OUTCOME>state3</OUTCOME>
    <OUTCOME>state4</OUTCOME>
    <PROPERTY>position = (404, 255)</PROPERTY>
</VARIABLE>
<!-- Variables -->
<VARIABLE TYPE="nature">
    <NAME>node21</NAME>
    <OUTCOME>state0</OUTCOME>
    <OUTCOME>state1</OUTCOME>
    <OUTCOME>state2</OUTCOME>
    <PROPERTY>position = (1455, 149)</PROPERTY>
</VARIABLE>
<!-- Variables -->
<VARIABLE TYPE="nature">
    <NAME>node22</NAME>
    <OUTCOME>state0</OUTCOME>
    <OUTCOME>state1</OUTCOME>
    <OUTCOME>state2</OUTCOME>
    <PROPERTY>position = (1575, 164)</PROPERTY>
</VARIABLE>
<!-- Variables -->
<VARIABLE TYPE="nature">
    <NAME>node23</NAME>
    <OUTCOME>state0</OUTCOME>
    <OUTCOME>state1</OUTCOME>
    <OUTCOME>state2</OUTCOME>
    <OUTCOME>state3</OUTCOME>
    <PROPERTY>position = (1695, 150)</PROPERTY>
</VARIABLE>
<!-- Variables -->
<VARIABLE TYPE="nature">
    <NAME>node24</NAME>
    <OUTCOME>state0</OUTCOME>
    <OUTCOME>state1</OUTCOME>
    <OUTCOME>state2</OUTCOME>
    <PROPERTY>position = (1815, 135)</PROPERTY>
</VARIABLE>
<!-- Variables -->
<VARIABLE TYPE="nature">
    <NAME>node25</NAME>
    <OUTCOME>state0</OUTCOME>
    <OUTCOME>state1</OUTCOME>
    <OUTCOME>state2</OUTCOME>
    <PROPERTY>position = (1935, 149)</PROPERTY>
</VARIABLE>
<!-- Variables -->
<VARIABLE TYPE="nature">
    <NAME>node26</NAME>
    <OUTCOME>state0</OUTCOME>
    <OUTCOME>state1</OUTCOME>
    <OUTCOME>state2</OUTCOME>
    <OUTCOME>state3</OUTCOME>
    <OUTCOME>state4</OUTCOME>
    <OUTCOME>state5</OUTCOME>
    <OUTCOME>state6</OUTCOME>
    <PROPERTY>position = (524, 269)</PROPERTY>
</VARIABLE>
<!-- Variables -->
<VARIABLE TYPE="nature">
    <NAME>node27</NAME>
    <OUTCOME>state0</OUTCOME>
    <OUTCOME>state1</OUTCOME>
    <OUTCOME>state2</OUTCOME>
    <OUTCOME>state3</OUTCOME>
    <OUTCOME>state4</OUTCOME>
    <OUTCOME>state5</OUTCOME>
    <PROPERTY>position = (645, 44)</PROPERTY>
</VARIABLE>
<!-- Variables -->
<VARIABLE TYPE="nature">
    <NAME>node28</NAME>
    <OUTCOME>state0</OUTCOME>
    <OUTCOME>state1</OUTCOME>
    <PROPERTY>position = (644, 284)</PROPERTY>
</VARIABLE>
<!-- Variables -->
<VARIABLE TYPE="nature">
    <NAME>node29</NAME>
    <OUTCOME>state0</OUTCOME>
    <OUTCOME>state1</OUTCOME>
    <OUTCOME>state2</OUTCOME>
    <OUTCOME>state3</OUTCOME>
    <OUTCOME>state4</OUTCOME>
    <OUTCOME>state5</OUTCOME>
    <OUTCOME>state6</OUTCOME>
    <OUTCOME>state7</OUTCOME>
    <PROPERTY>position = (764, 270)</PROPERTY>
</VARIABLE>
<!-- Variables -->
<VARIABLE TYPE="nature">
    <NAME>node30</NAME>
    <OUTCOME>state0</OUTCOME>
    <OUTCOME>state1</OUTCOME>
    <OUTCOME>state2</OUTCOME>
    <PROPERTY>position = (2055, 164)</PROPERTY>
</VARIABLE>
<!-- Variables -->
<VARIABLE TYPE="nature">
    <NAME>node31</NAME>
    <OUTCOME>state0</OUTCOME>
    <OUTCOME>state1</OUTCOME>
    <OUTCOME>state2</OUTCOME>
    <PROPERTY>position = (765, 30)</PROPERTY>
</VARIABLE>
<!-- Variables -->
<VARIABLE TYPE="nature">
    <NAME>node32</NAME>
    <OUTCOME>state0</OUTCOME>
    <OUTCOME>state1</OUTCOME>
    <OUTCOME>state2</OUTCOME>
    <OUTCOME>state3</OUTCOME>
    <PROPERTY>position = (885, 15)</PROPERTY>
</VARIABLE>
<!-- Variables -->
<VARIABLE TYPE="nature">
    <NAME>node33</NAME>
    <OUTCOME>state0</OUTCOME>
    <OUTCOME>state1</OUTCOME>
    <OUTCOME>state2</OUTCOME>
    <OUTCOME>state3</OUTCOME>
    <OUTCOME>state4</OUTCOME>
    <PROPERTY>position = (1005, 29)</PROPERTY>
</VARIABLE>
<!-- Variables -->
<VARIABLE TYPE="nature">
    <NAME>node34</NAME>
    <OUTCOME>state0</OUTCOME>
    <OUTCOME>state1</OUTCOME>
    <OUTCOME>state2</OUTCOME>
    <OUTCOME>state3</OUTCOME>
    <OUTCOME>state4</OUTCOME>
    <OUTCOME>state5</OUTCOME>
    <OUTCOME>state6</OUTCOME>
    <PROPERTY>position = (2175, 150)</PROPERTY>
</VARIABLE>
<!-- Variables -->
<VARIABLE TYPE="nature">
    <NAME>node35</NAME>
    <OUTCOME>state0</OUTCOME>
    <OUTCOME>state1</OUTCOME>
    <OUTCOME>state2</OUTCOME>
    <PROPERTY>position = (1125, 44)</PROPERTY>
</VARIABLE>
<!-- Variables -->
<VARIABLE TYPE="nature">
    <NAME>node36</NAME>
    <OUTCOME>state0</OUTCOME>
    <OUTCOME>state1</OUTCOME>
    <OUTCOME>state2</OUTCOME>
    <OUTCOME>state3</OUTCOME>
    <OUTCOME>state4</OUTCOME>
    <OUTCOME>state5</OUTCOME>
    <OUTCOME>state6</OUTCOME>
    <OUTCOME>state7</OUTCOME>
    <PROPERTY>position = (884, 255)</PROPERTY>
</VARIABLE>
<!-- Variables -->
<VARIABLE TYPE="nature">
    <NAME>node37</NAME>
    <OUTCOME>state0</OUTCOME>
    <OUTCOME>state1</OUTCOME>
    <PROPERTY>position = (2295, 135)</PROPERTY>
</VARIABLE>
<!-- Variables -->
<VARIABLE TYPE="nature">
    <NAME>node38</NAME>
    <OUTCOME>state0</OUTCOME>
    <OUTCOME>state1</OUTCOME>
    <PROPERTY>position = (2415, 149)</PROPERTY>
</VARIABLE>
<!-- Variables -->
<VARIABLE TYPE="nature">
    <NAME>node39</NAME>
    <OUTCOME>state0</OUTCOME>
    <OUTCOME>state1</OUTCOME>
    <PROPERTY>position = (1004, 269)</PROPERTY>
</VARIABLE>
<!-- Variables -->
<VARIABLE TYPE="nature">
    <NAME>node40</NAME>
    <OUTCOME>state0</OUTCOME>
    <OUTCOME>state1</OUTCOME>
    <OUTCOME>state2</OUTCOME>
    <OUTCOME>state3</OUTCOME>
    <OUTCOME>state4</OUTCOME>
    <OUTCOME>state5</OUTCOME>
    <OUTCOME>state6</OUTCOME>
    <OUTCOME>state7</OUTCOME>
    <PROPERTY>position = (2535, 164)</PROPERTY>
</VARIABLE>
<!-- Variables -->
<VARIABLE TYPE="nature">
    <NAME>node41</NAME>
    <OUTCOME>state0</OUTCOME>
    <OUTCOME>state1</OUTCOME>
    <OUTCOME>state2</OUTCOME>
    <OUTCOME>state3</OUTCOME>
    <OUTCOME>state4</OUTCOME>
    <PROPERTY>position = (2655, 150)</PROPERTY>
</VARIABLE>
<!-- Variables -->
<VARIABLE TYPE="nature">
    <NAME>node42</NAME>
    <OUTCOME>state0</OUTCOME>
    <OUTCOME>state1</OUTCOME>
    <OUTCOME>state2</OUTCOME>
    <PROPERTY>position = (2775, 135)</PROPERTY>
</VARIABLE>
<!-- Variables -->
<VARIABLE TYPE="nature">
    <NAME>node43</NAME>
    <OUTCOME>state0</OUTCOME>
    <OUTCOME>state1</OUTCOME>
    <OUTCOME>state2</OUTCOME>
    <OUTCOME>state3</OUTCOME>
    <OUTCOME>state4</OUTCOME>
    <OUTCOME>state5</OUTCOME>
    <OUTCOME>state6</OUTCOME>
    <OUTCOME>state7</OUTCOME>
    <PROPERTY>position = (1124, 284)</PROPERTY>
</VARIABLE>
<!-- Variables -->
<VARIABLE TYPE="nature">
    <NAME>node44</NAME>
    <OUTCOME>state0</OUTCOME>
    <OUTCOME>state1</OUTCOME>
    <PROPERTY>position = (1245, 30)</PROPERTY>
</VARIABLE>
<!-- Variables -->
<VARIABLE TYPE="nature">
    <NAME>node45</NAME>
    <OUTCOME>state0</OUTCOME>
    <OUTCOME>state1</OUTCOME>
    <PROPERTY>position = (2895, 149)</PROPERTY>
</VARIABLE>
<!-- Variables -->
<VARIABLE TYPE="nature">
    <NAME>node46</NAME>
    <OUTCOME>state0</OUTCOME>
    <OUTCOME>state1</OUTCOME>
    <OUTCOME>state2</OUTCOME>
    <OUTCOME>state3</OUTCOME>
    <PROPERTY>position = (3015, 164)</PROPERTY>
</VARIABLE>
<!-- Variables -->
<VARIABLE TYPE="nature">
    <NAME>node47</NAME>
    <OUTCOME>state0</OUTCOME>
    <OUTCOME>state1</OUTCOME>
    <OUTCOME>state2</OUTCOME>
    <OUTCOME>state3</OUTCOME>
    <OUTCOME>state4</OUTCOME>
    <OUTCOME>state5</OUTCOME>
    <OUTCOME>state6</OUTCOME>
    <OUTCOME>state7</OUTCOME>
    <PROPERTY>position = (3135, 150)</PROPERTY>
</VARIABLE>
<!-- Variables -->
<VARIABLE TYPE="nature">
    <NAME>node48</NAME>
    <OUTCOME>state0</OUTCOME>
    <OUTCOME>state1</OUTCOME>
    <OUTCOME>state2</OUTCOME>
    <OUTCOME>state3</OUTCOME>
    <OUTCOME>state4</OUTCOME>
    <OUTCOME>state5</OUTCOME>
    <PROPERTY>position = (3255, 135)</PROPERTY>
</VARIABLE>
<!-- Variables -->
<VARIABLE TYPE="nature">
    <NAME>node49</NAME>
    <OUTCOME>state0</OUTCOME>
    <OUTCOME>state1</OUTCOME>
    <OUTCOME>state2</OUTCOME>
    <OUTCOME>state3</OUTCOME>
    <OUTCOME>state4</OUTCOME>
    <OUTCOME>state5</OUTCOME>
    <OUTCOME>state6</OUTCOME>
    <PROPERTY>position = (3375, 149)</PROPERTY>
</VARIABLE>
<!-- Variables -->
<VARIABLE TYPE="nature">
    <NAME>node50</NAME>
    <OUTCOME>state0</OUTCOME>
    <OUTCOME>state1</OUTCOME>
    <OUTCOME>state2</OUTCOME>
    <OUTCOME>state3</OUTCOME>
    <PROPERTY>position = (3495, 164)</PROPERTY>
</VARIABLE>
<!-- Variables -->
<VARIABLE TYPE="nature">
    <NAME>node51</NAME>
    <OUTCOME>state0</OUTCOME>
    <OUTCOME>state1</OUTCOME>
    <OUTCOME>state2</OUTCOME>
    <OUTCOME>state3</OUTCOME>
    <OUTCOME>state4</OUTCOME>
    <PROPERTY>position = (1365, 15)</PROPERTY>
</VARIABLE>
<!-- Variables -->
<VARIABLE TYPE="nature">
    <NAME>node52</NAME>
    <OUTCOME>state0</OUTCOME>
    <OUTCOME>state1</OUTCOME>
    <OUTCOME>state2</OUTCOME>
    <OUTCOME>state3</OUTCOME>
    <PROPERTY>position = (1485, 29)</PROPERTY>
</VARIABLE>
<!-- Variables -->
<VARIABLE TYPE="nature">
    <NAME>node53</NAME>
    <OUTCOME>state0</OUTCOME>
    <OUTCOME>state1</OUTCOME>
    <OUTCOME>state2</OUTCOME>
    <OUTCOME>state3</OUTCOME>
    <OUTCOME>state4</OUTCOME>
    <OUTCOME>state5</OUTCOME>
    <OUTCOME>state6</OUTCOME>
    <PROPERTY>position = (3615, 150)</PROPERTY>
</VARIABLE>
<!-- Variables -->
<VARIABLE TYPE="nature">
    <NAME>node54</NAME>
    <OUTCOME>state0</OUTCOME>
    <OUTCOME>state1</OUTCOME>
    <OUTCOME>state2</OUTCOME>
    <OUTCOME>state3</OUTCOME>
    <OUTCOME>state4</OUTCOME>
    <OUTCOME>state5</OUTCOME>
    <PROPERTY>position = (1605, 44)</PROPERTY>
</VARIABLE>
<!-- Variables -->
<VARIABLE TYPE="nature">
    <NAME>node55</NAME>
    <OUTCOME>state0</OUTCOME>
    <OUTCOME>state1</OUTCOME>
    <PROPERTY>position = (3735, 135)</PROPERTY>
</VARIABLE>
<!-- Variables -->
<VARIABLE TYPE="nature">
    <NAME>node56</NAME>
    <OUTCOME>state0</OUTCOME>
    <OUTCOME>state1</OUTCOME>
    <OUTCOME>state2</OUTCOME>
    <OUTCOME>state3</OUTCOME>
    <OUTCOME>state4</OUTCOME>
    <PROPERTY>position = (1725, 30)</PROPERTY>
</VARIABLE>
<!-- Variables -->
<VARIABLE TYPE="nature">
    <NAME>node57</NAME>
    <OUTCOME>state0</OUTCOME>
    <OUTCOME>state1</OUTCOME>
    <PROPERTY>position = (1244, 270)</PROPERTY>
</VARIABLE>
<!-- Variables -->
<VARIABLE TYPE="nature">
    <NAME>node58</NAME>
    <OUTCOME>state0</OUTCOME>
    <OUTCOME>state1</OUTCOME>
    <PROPERTY>position = (3855, 149)</PROPERTY>
</VARIABLE>
<!-- Variables -->
<VARIABLE TYPE="nature">
    <NAME>node59</NAME>
    <OUTCOME>state0</OUTCOME>
    <OUTCOME>state1</OUTCOME>
    <OUTCOME>state2</OUTCOME>
    <OUTCOME>state3</OUTCOME>
    <PROPERTY>position = (3975, 164)</PROPERTY>
</VARIABLE>
<!-- Variables -->
<VARIABLE TYPE="nature">
    <NAME>node60</NAME>
    <OUTCOME>state0</OUTCOME>
    <OUTCOME>state1</OUTCOME>
    <OUTCOME>state2</OUTCOME>
    <OUTCOME>state3</OUTCOME>
    <PROPERTY>position = (1364, 255)</PROPERTY>
</VARIABLE>
<!-- Variables -->
<VARIABLE TYPE="nature">
    <NAME>node61</NAME>
    <OUTCOME>state0</OUTCOME>
    <OUTCOME>state1</OUTCOME>
    <OUTCOME>state2</OUTCOME>
    <OUTCOME>state3</OUTCOME>
    <PROPERTY>position = (1845, 15)</PROPERTY>
</VARIABLE>
<!-- Variables -->
<VARIABLE TYPE="nature">
    <NAME>node62</NAME>
    <OUTCOME>state0</OUTCOME>
    <OUTCOME>state1</OUTCOME>
    <OUTCOME>state2</OUTCOME>
    <OUTCOME>state3</OUTCOME>
    <OUTCOME>state4</OUTCOME>
    <PROPERTY>position = (4095, 150)</PROPERTY>
</VARIABLE>
<!-- Variables -->
<VARIABLE TYPE="nature">
    <NAME>node63</NAME>
    <OUTCOME>state0</OUTCOME>
    <OUTCOME>state1</OUTCOME>
    <OUTCOME>state2</OUTCOME>
    <OUTCOME>state3</OUTCOME>
    <OUTCOME>state4</OUTCOME>
    <OUTCOME>state5</OUTCOME>
    <OUTCOME>state6</OUTCOME>
    <OUTCOME>state7</OUTCOME>
    <PROPERTY>position = (1965, 29)</PROPERTY>
</VARIABLE>
<!-- Variables -->
<VARIABLE TYPE="nature">
    <NAME>node64</NAME>
    <OUTCOME>state0</OUTCOME>
    <OUTCOME>state1</OUTCOME>
    <OUTCOME>state2</OUTCOME>
    <PROPERTY>position = (1484, 269)</PROPERTY>
</VARIABLE>
<!-- Variables -->
<VARIABLE TYPE="nature">
    <NAME>node65</NAME>
    <OUTCOME>state0</OUTCOME>
    <OUTCOME>state1</OUTCOME>
    <OUTCOME>state2</OUTCOME>
    <OUTCOME>state3</OUTCOME>
    <OUTCOME>state4</OUTCOME>
    <PROPERTY>position = (15, 390)</PROPERTY>
</VARIABLE>
<!-- Variables -->
<VARIABLE TYPE="nature">
    <NAME>node66</NAME>
    <OUTCOME>state0</OUTCOME>
    <OUTCOME>state1</OUTCOME>
    <OUTCOME>state2</OUTCOME>
    <OUTCOME>state3</OUTCOME>
    <OUTCOME>state4</OUTCOME>
    <OUTCOME>state5</OUTCOME>
    <OUTCOME>state6</OUTCOME>
    <OUTCOME>state7</OUTCOME>
    <PROPERTY>position = (4215, 135)</PROPERTY>
</VARIABLE>
<!-- Variables -->
<VARIABLE TYPE="nature">
    <NAME>node67</NAME>
    <OUTCOME>state0</OUTCOME>
    <OUTCOME>state1</OUTCOME>
    <OUTCOME>state2</OUTCOME>
    <OUTCOME>state3</OUTCOME>
    <OUTCOME>state4</OUTCOME>
    <OUTCOME>state5</OUTCOME>
    <PROPERTY>position = (2085, 44)</PROPERTY>
</VARIABLE>
<!-- Variables -->
<VARIABLE TYPE="nature">
    <NAME>node68</NAME>
    <OUTCOME>state0</OUTCOME>
    <OUTCOME>state1</OUTCOME>
    <OUTCOME>state2</OUTCOME>
    <OUTCOME>state3</OUTCOME>
    <OUTCOME>state4</OUTCOME>
    <OUTCOME>state5</OUTCOME>
    <OUTCOME>state6</OUTCOME>
    <OUTCOME>state7</OUTCOME>
    <PROPERTY>position = (4335, 149)</PROPERTY>
</VARIABLE>
<!-- Variables -->
<VARIABLE TYPE="nature">
    <NAME>node69</NAME>
    <OUTCOME>state0</OUTCOME>
    <OUTCOME>state1</OUTCOME>
    <OUTCOME>state2</OUTCOME>
    <OUTCOME>state3</OUTCOME>
    <OUTCOME>state4</OUTCOME>
    <PROPERTY>position = (1604, 284)</PROPERTY>
</VARIABLE>
<!-- Variables -->
<VARIABLE TYPE="nature">
    <NAME>node70</NAME>
    <OUTCOME>state0</OUTCOME>
    <OUTCOME>state1</OUTCOME>
    <PROPERTY>position = (1724, 270)</PROPERTY>
</VARIABLE>
<!-- Variables -->
<VARIABLE TYPE="nature">
    <NAME>node71</NAME>
    <OUTCOME>state0</OUTCOME>
    <OUTCOME>state1</OUTCOME>
    <OUTCOME>state2</OUTCOME>
    <OUTCOME>state3</OUTCOME>
    <OUTCOME>state4</OUTCOME>
    <PROPERTY>position = (4455, 164)</PROPERTY>
</VARIABLE>
<!-- Variables -->
<VARIABLE TYPE="nature">
    <NAME>node72</NAME>
    <OUTCOME>state0</OUTCOME>
    <OUTCOME>state1</OUTCOME>
    <PROPERTY>position = (1844, 255)</PROPERTY>
</VARIABLE>
<!-- Variables -->
<VARIABLE TYPE="nature">
    <NAME>node73</NAME>
    <OUTCOME>state0</OUTCOME>
    <OUTCOME>state1</OUTCOME>
    <OUTCOME>state2</OUTCOME>
    <OUTCOME>state3</OUTCOME>
    <OUTCOME>state4</OUTCOME>
    <OUTCOME>state5</OUTCOME>
    <OUTCOME>state6</OUTCOME>
    <OUTCOME>state7</OUTCOME>
    <PROPERTY>position = (2205, 30)</PROPERTY>
</VARIABLE>
<!-- Variables -->
<VARIABLE TYPE="nature">
    <NAME>node74</NAME>
    <OUTCOME>state0</OUTCOME>
    <OUTCOME>state1</OUTCOME>
    <OUTCOME>state2</OUTCOME>
    <OUTCOME>state3</OUTCOME>
    <OUTCOME>state4</OUTCOME>
    <OUTCOME>state5</OUTCOME>
    <OUTCOME>state6</OUTCOME>
    <OUTCOME>state7</OUTCOME>
    <PROPERTY>position = (4575, 150)</PROPERTY>
</VARIABLE>
<!-- Variables -->
<VARIABLE TYPE="nature">
    <NAME>node75</NAME>
    <OUTCOME>state0</OUTCOME>
    <OUTCOME>state1</OUTCOME>
    <OUTCOME>state2</OUTCOME>
    <OUTCOME>state3</OUTCOME>
    <OUTCOME>state4</OUTCOME>
    <OUTCOME>state5</OUTCOME>
    <OUTCOME>state6</OUTCOME>
    <OUTCOME>state7</OUTCOME>
    <PROPERTY>position = (1964, 269)</PROPERTY>
</VARIABLE>
<!-- Variables -->
<VARIABLE TYPE="nature">
    <NAME>node76</NAME>
    <OUTCOME>state0</OUTCOME>
    <OUTCOME>state1</OUTCOME>
    <OUTCOME>state2</OUTCOME>
    <OUTCOME>state3</OUTCOME>
    <OUTCOME>state4</OUTCOME>
    <OUTCOME>state5</OUTCOME>
    <PROPERTY>position = (2325, 15)</PROPERTY>
</VARIABLE>
<!-- Variables -->
<VARIABLE TYPE="nature">
    <NAME>node77</NAME>
    <OUTCOME>state0</OUTCOME>
    <OUTCOME>state1</OUTCOME>
    <OUTCOME>state2</OUTCOME>
    <OUTCOME>state3</OUTCOME>
    <OUTCOME>state4</OUTCOME>
    <OUTCOME>state5</OUTCOME>
    <PROPERTY>position = (4695, 135)</PROPERTY>
</VARIABLE>
<!-- Variables -->
<VARIABLE TYPE="nature">
    <NAME>node78</NAME>
    <OUTCOME>state0</OUTCOME>
    <OUTCOME>state1</OUTCOME>
    <OUTCOME>state2</OUTCOME>
    <OUTCOME>state3</OUTCOME>
    <OUTCOME>state4</OUTCOME>
    <OUTCOME>state5</OUTCOME>
    <OUTCOME>state6</OUTCOME>
    <OUTCOME>state7</OUTCOME>
    <PROPERTY>position = (4815, 149)</PROPERTY>
</VARIABLE>
<!-- Variables -->
<VARIABLE TYPE="nature">
    <NAME>node79</NAME>
    <OUTCOME>state0</OUTCOME>
    <OUTCOME>state1</OUTCOME>
    <OUTCOME>state2</OUTCOME>
    <OUTCOME>state3</OUTCOME>
    <OUTCOME>state4</OUTCOME>
    <OUTCOME>state5</OUTCOME>
    <OUTCOME>state6</OUTCOME>
    <PROPERTY>position = (4935, 164)</PROPERTY>
</VARIABLE>
<!-- Probability Distributions -->
 <DEFINITION>
      <FOR>node0</FOR>
     <TABLE>0.3762 0.1634 0.1712 0.2015 0.0877 </TABLE>
 </DEFINITION>
 <DEFINITION>
      <FOR>node1</FOR>
      <GIVEN>node13</GIVEN>
      <GIVEN>node18</GIVEN>
     <TABLE>0.1146 0.3062 0.5792 0.1981 0.5861 0.2158 0.0957 0.661 0.2433 0.6623 0.0893 0.2484 0.1535 0.3454 0.5011 0.2184 0.3341 0.4475 0.1752 0.2023 0.6225 0.25 0.1125 0.6375 0.0098 0.9257 0.0645 0.1631 0.675 0.1619 0.5947 0.3473 0.058 0.2162 0.0763 0.7075 0.0375 0.9469 0.0156 0.183 0.5453 0.2717 0.7782 0.0264 0.1954 0.662 0.1769 0.1611 0.757 0.2283 0.0147 0.4322 0.5313 0.0365 0.7964 0.0146 0.189 0.3493 0.37 0.2807 0.0302 0.4883 0.4815 </TABLE>
 </DEFINITION>
 <DEFINITION>
      <FOR>node2</FOR>
     <TABLE>0.144 0.0598 0.2551 0.2642 0.1993 0.0776 </TABLE>
 </DEFINITION>
 <DEFINITION>
      <FOR>node3</FOR>
      <GIVEN>node32</GIVEN>
      <GIVEN>node27</GIVEN>
     <TABLE>0.0273 0.3684 0.0164 0.0738 0.3318 0.0127 0.1696 0.0807 0.3184 0.0697 0.13 0.0983 0.1787 0.1242 0.0897 0.1446 0.3303 0.0468 0.0307 0.1712 0.1867 0.0762 0.045 0.0075 0.1276 0.3134 0.3023 0.128 0.0929 0.035 0.2579 0.1437 0.3737 0.0722 0.0246 0.0415 0.1181 0.1724 0.1641 0.4514 0.0185 0.034 0.0412 0.1163 0.0112 0.0541 0.0891 0.1527 0.5354 0.2372 0.0804 0.376 0.088 0.0197 0.0666 0.1321 0.0644 0.1711 0.3237 0.2503 0.0335 0.1454 0.0116 0.0879 0.2385 0.1078 0.1295 0.0629 0.2833 0.0901 0.0054 0.2255 0.038 0.3959 0.2451 0.0031 0.087 0.2998 0.0968 0.0313 0.0088 0.1326 0.1963 0.2344 0.3943 0.1985 0.013 0.0269 0.1192 0.0013 0.2468 0.0952 0.016 0.3727 0.306 0.1032 0.0151 0.0918 0.1062 0.0926 0.2556 0.1477 0.1395 0.1558 0.1026 0.1502 0.2685 0.1834 0.0566 0.1771 0.0877 0.0765 0.0149 0.2512 0.1622 0.0364 0.2056 0.2166 0.1131 0.1586 0.2643 0.0806 0.0218 3.0E-4 0.398 0.0764 0.0196 0.4102 0.1753 0.0124 0.0225 0.2342 0.1258 0.3023 0.1386 0.1159 0.1488 0.0222 0.0938 0.1784 0.587 0.1443 0.0521 0.0158 0.002 0.189 0.0098 0.0697 0.2899 0.0882 0.135 0.1625 0.2289 0.0258 0.2598 0.0644 0.0534 0.0309 0.3209 0.1385 0.1321 0.1918 0.144 0.0429 0.0739 0.2267 0.2207 0.1 </TABLE>
 </DEFINITION>
 <DEFINITION>
      <FOR>node4</FOR>
     <TABLE>0.3232 0.6768 </TABLE>
 </DEFINITION>
 <DEFINITION>
      <FOR>node5</FOR>
      <GIVEN>node31</GIVEN>
     <TABLE>0.1642 0.0049 0.0308 0.2992 0.0852 0.0932 0.2335 0.089 0.004 0.3558 0.3448 0.0106 0.1235 0.0095 0.056 0.0958 0.0221 0.3892 0.0753 0.0379 0.0637 0.1383 0.0382 0.2353 </TABLE>
 </DEFINITION>
 <DEFINITION>
      <FOR>node6</FOR>
      <GIVEN>node74</GIVEN>
     <TABLE>0.6695 0.0785 0.1314 0.1206 0.0404 0.4184 0.2202 0.321 0.1514 0.2836 0.2401 0.3249 0.1402 0.7551 0.1042 5.0E-4 0.6055 0.0292 0.0281 0.3372 0.1259 0.4016 0.0347 0.4378 0.0718 0.394 0.3567 0.1775 0.2317 0.0215 0.3888 0.358 </TABLE>
 </DEFINITION>
 <DEFINITION>
      <FOR>node7</FOR>
      <GIVEN>node12</GIVEN>
     <TABLE>0.1174 0.0133 0.1808 0.2379 0.2137 0.0141 0.144 0.0788 0.0691 0.375 0.0054 0.02 0.0857 0.1016 0.2049 0.1383 0.1826 0.0296 0.0682 0.2922 0.1033 0.0052 0.1742 0.1447 0.1385 0.0657 0.1391 0.0198 0.0856 0.1938 0.268 0.0895 0.1699 0.1078 0.289 0.2076 0.0194 0.0186 0.0359 0.1518 0.0166 0.0139 0.0954 0.0588 0.0888 0.422 0.1307 0.1738 </TABLE>
 </DEFINITION>
 <DEFINITION>
      <FOR>node8</FOR>
     <TABLE>0.6268 0.3732 </TABLE>
 </DEFINITION>
 <DEFINITION>
      <FOR>node9</FOR>
     <TABLE>0.1277 0.0856 0.1049 0.1282 0.1791 0.1563 0.2182 </TABLE>
 </DEFINITION>
 <DEFINITION>
      <FOR>node10</FOR>
      <GIVEN>node55</GIVEN>
     <TABLE>0.0512 0.0087 0.0792 0.0174 0.5076 0.0069 0.1825 0.1465 0.0796 0.227 0.1139 0.4408 0.0111 0.0411 0.0244 0.0621 </TABLE>
 </DEFINITION>
 <DEFINITION>
      <FOR>node11</FOR>
      <GIVEN>node14</GIVEN>
     <TABLE>0.157 0.1352 0.3256 0.3822 0.2668 0.0433 0.5081 0.1818 0.376 0.071 0.0455 0.5075 0.0732 0.2272 0.3023 0.3973 0.1155 0.0084 0.0863 0.7898 0.6392 0.1114 0.002 0.2474 0.2007 0.0719 0.4763 0.2511 </TABLE>
 </DEFINITION>
 <DEFINITION>
      <FOR>node12</FOR>
      <GIVEN>node76</GIVEN>
     <TABLE>0.2639 0.1595 0.1761 0.1262 0.1342 0.1401 0.0063 0.2269 0.251 0.1441 0.2932 0.0785 0.4497 0.1385 0.0447 0.1402 0.0756 0.1513 0.3898 0.0737 0.1324 0.0365 0.0814 0.2862 0.2375 0.3047 0.0836 0.0726 0.16 0.1416 0.2581 0.0368 0.107 0.2785 0.2554 0.0642 </TABLE>
 </DEFINITION>
 <DEFINITION>
      <FOR>node13</FOR>
      <GIVEN>node67</GIVEN>
     <TABLE>0.1076 0.4971 0.3953 0.4282 0.4711 0.1007 0.1283 0.6799 0.1918 0.0261 0.7056 0.2683 0.6404 0.2001 0.1595 0.6368 4.0E-4 0.3628 </TABLE>
 </DEFINITION>
 <DEFINITION>
      <FOR>node14</FOR>
      <GIVEN>node2</GIVEN>
     <TABLE>0.0569 0.24 0.1373 0.0503 0.0163 0.2901 0.2091 0.038 0.0615 0.1563 0.3881 0.0794 0.2582 0.0185 0.1545 0.0738 0.0409 0.1044 0.0438 0.2873 0.2953 0.0171 0.2713 0.098 0.0581 0.1515 0.1007 0.3033 0.4065 0.0347 0.1175 0.1377 0.0235 0.0162 0.2639 0.0349 0.0414 0.0316 0.2729 0.2223 0.0043 0.3926 </TABLE>
 </DEFINITION>
 <DEFINITION>
      <FOR>node15</FOR>
      <GIVEN>node40</GIVEN>
     <TABLE>0.0269 0.2158 0.1716 0.0788 0.3073 0.1167 0.0829 0.0119 0.2946 0.131 0.2422 0.0866 0.042 0.1917 0.1499 0.1714 0.0617 0.0803 0.0294 0.397 0.1103 0.2946 0.1206 0.0161 0.1341 0.2882 0.067 0.0794 0.2534 0.3081 0.01 0.2638 0.1363 0.0052 0.0232 0.2984 0.0301 0.0153 0.1571 0.1335 0.019 0.3466 0.0177 0.0527 0.4695 0.1295 0.0134 0.0155 0.3017 0.0252 0.2022 0.1786 0.1036 0.0401 0.1091 0.3412 </TABLE>
 </DEFINITION>
 <DEFINITION>
      <FOR>node16</FOR>
      <GIVEN>node0</GIVEN>
     <TABLE>0.1146 0.1739 0.1855 0.526 0.3812 0.1842 0.1391 0.2955 0.2314 0.286 0.4112 0.0714 0.0274 0.8323 0.1395 8.0E-4 0.0364 0.0355 0.6111 0.317 </TABLE>
 </DEFINITION>
 <DEFINITION>
      <FOR>node17</FOR>
      <GIVEN>node22</GIVEN>
      <GIVEN>node19</GIVEN>
     <TABLE>0.459 0.541 0.0165 0.9835 0.2812 0.7188 0.0767 0.9233 0.2078 0.7922 0.5361 0.4639 0.1337 0.8663 0.0841 0.9159 0.5495 0.4505 </TABLE>
 </DEFINITION>
 <DEFINITION>
      <FOR>node18</FOR>
      <GIVEN>node51</GIVEN>
     <TABLE>0.0051 0.2587 0.1546 0.0964 0.2026 0.2168 0.0658 0.056 0.0011 0.1013 0.2727 0.2523 0.3017 0.0149 0.0692 0.0961 0.0703 0.0948 0.6063 0.0164 0.0469 0.0054 0.1334 0.2218 0.0656 0.1554 0.129 0.2894 0.2718 0.0355 0.1898 0.1559 0.1386 0.1703 0.0381 </TABLE>
 </DEFINITION>
 <DEFINITION>
      <FOR>node19</FOR>
      <GIVEN>node62</GIVEN>
     <TABLE>0.3549 0.5581 0.087 0.2026 0.6037 0.1937 0.4623 0.0556 0.4821 0.8046 0.0471 0.1483 0.8156 0.0295 0.1549 </TABLE>
 </DEFINITION>
 <DEFINITION>
      <FOR>node20</FOR>
      <GIVEN>node17</GIVEN>
      <GIVEN>node56</GIVEN>
     <TABLE>0.1428 0.0495 0.2271 0.4118 0.1688 0.0569 0.3155 0.4858 0.0391 0.1027 0.5778 0.0248 0.2437 0.1146 0.0391 0.0082 0.2132 0.303 0.4001 0.0755 0.246 0.358 0.0436 0.0818 0.2706 0.0876 0.0826 0.2959 0.4728 0.0611 0.1314 0.4719 0.1908 0.1916 0.0143 0.2658 0.4805 0.0284 0.0141 0.2112 0.0016 0.4372 0.2918 0.0156 0.2538 0.05 0.0578 0.0802 0.218 0.594 </TABLE>
 </DEFINITION>
 <DEFINITION>
      <FOR>node21</FOR>
      <GIVEN>node52</GIVEN>
     <TABLE>0.3274 0.6394 0.0332 0.0352 0.7366 0.2282 0.4668 0.2364 0.2968 0.2065 0.6377 0.1558 </TABLE>
 </DEFINITION>
 <DEFINITION>
      <FOR>node22</FOR>
      <GIVEN>node52</GIVEN>
     <TABLE>0.3725 0.5581 0.0694 0.1448 0.1035 0.7517 0.3864 0.1856 0.428 0.0067 0.1149 0.8784 </TABLE>
 </DEFINITION>
 <DEFINITION>
      <FOR>node23</FOR>
      <GIVEN>node47</GIVEN>
     <TABLE>0.7842 0.0715 0.1396 0.0047 0.2594 0.5761 0.1474 0.0171 0.4369 0.0023 0.0969 0.4639 0.2387 0.3665 0.3466 0.0482 0.0974 0.0685 0.4568 0.3773 0.1817 0.135 0.4108 0.2725 0.1031 0.6444 0.1517 0.1008 0.1121 0.1965 0.5485 0.1429 </TABLE>
 </DEFINITION>
 <DEFINITION>
      <FOR>node24</FOR>
      <GIVEN>node32</GIVEN>
     <TABLE>0.3624 0.2804 0.3572 0.0359 0.478 0.4861 0.5939 0.1986 0.2075 0.4564 0.1735 0.3701 </TABLE>
 </DEFINITION>
 <DEFINITION>
      <FOR>node25</FOR>
      <GIVEN>node62</GIVEN>
     <TABLE>0.4271 0.3994 0.1735 0.1619 0.0498 0.7883 0.3231 0.6449 0.032 0.5166 0.391 0.0924 0.1428 0.3906 0.4666 </TABLE>
 </DEFINITION>
 <DEFINITION>
      <FOR>node26</FOR>
      <GIVEN>node49</GIVEN>
      <GIVEN>node4</GIVEN>
     <TABLE>0.1445 0.6391 0.028 0.014 0.0829 0.0067 0.0848 0.1953 0.0339 0.2447 0.36 0.0043 0.0227 0.1391 0.0327 0.1004 0.1342 0.1144 0.3232 0.1171 0.178 0.1868 0.0872 0.1063 0.0932 0.3573 0.1648 0.0044 0.0596 0.0319 0.0576 0.5169 0.162 0.1548 0.0172 0.1754 0.2674 0.0931 0.1871 0.2072 0.0394 0.0304 0.038 0.1572 0.3014 0.0893 0.1185 0.0412 0.2544 0.1141 0.2427 0.3715 0.0142 0.0089 0.0197 0.2289 0.13 0.0114 0.3277 0.017 0.1096 0.3999 0.0044 0.0204 0.0317 0.0784 0.011 0.2941 0.1043 0.4601 0.1052 0.0347 0.1882 0.0155 0.0679 0.1278 0.4607 0.1268 0.0586 0.172 0.3255 0.0163 0.2273 0.0735 0.0087 0.0827 0.3689 0.0751 0.257 0.0275 0.1801 0.0431 0.3327 0.1531 0.0413 0.0027 0.0627 0.3644 </TABLE>
 </DEFINITION>
 <DEFINITION>
      <FOR>node27</FOR>
     <TABLE>0.2784 0.1966 0.0333 0.1202 0.0445 0.327 </TABLE>
 </DEFINITION>
 <DEFINITION>
      <FOR>node28</FOR>
      <GIVEN>node44</GIVEN>
      <GIVEN>node45</GIVEN>
     <TABLE>0.6396 0.3604 0.3016 0.6984 0.0317 0.9683 0.5498 0.4502 </TABLE>
 </DEFINITION>
 <DEFINITION>
      <FOR>node29</FOR>
      <GIVEN>node8</GIVEN>
      <GIVEN>node9</GIVEN>
     <TABLE>0.1529 0.1938 0.1083 0.0734 0.424 0.0163 0.009 0.0223 0.1058 0.1122 0.2361 0.0109 0.2266 0.0104 0.2395 0.0585 0.1732 0.006 0.4561 0.0081 0.0382 0.1076 0.2066 0.0042 0.2064 0.2918 0.0272 0.0943 0.0311 0.071 0.167 0.1112 0.1331 0.3539 0.072 0.0437 0.0196 0.1108 0.2094 0.0575 0.0876 0.0365 0.0152 0.0951 0.446 0.2187 0.0986 0.0023 0.0487 0.3874 0.161 0.0509 0.0041 0.1603 0.0448 0.1428 0.2568 0.2867 0.1684 0.0543 0.0928 0.0543 0.0375 0.0492 0.0116 0.0352 0.3321 0.174 0.0111 0.1402 0.046 0.2498 0.0363 0.0402 0.072 0.0503 0.2297 0.4063 0.1326 0.0326 0.3477 0.0435 0.0855 0.0572 0.0321 0.0776 0.34 0.0164 0.0122 0.023 0.0256 0.1298 0.0987 0.2167 0.3051 0.1889 0.0928 0.3091 0.0207 0.0684 0.0901 0.1296 0.0651 0.2242 0.0308 0.1661 0.3035 0.0232 0.0957 0.0338 0.2001 0.1468 </TABLE>
 </DEFINITION>
 <DEFINITION>
      <FOR>node30</FOR>
      <GIVEN>node34</GIVEN>
     <TABLE>0.259 0.1477 0.5933 0.4464 0.1167 0.4369 0.219 0.4392 0.3418 0.0455 0.386 0.5685 0.9272 0.0279 0.0449 0.1205 0.2018 0.6777 0.3729 0.0977 0.5294 </TABLE>
 </DEFINITION>
 <DEFINITION>
      <FOR>node31</FOR>
     <TABLE>0.3518 0.5461 0.1021 </TABLE>
 </DEFINITION>
 <DEFINITION>
      <FOR>node32</FOR>
     <TABLE>0.3561 0.2104 0.3768 0.0567 </TABLE>
 </DEFINITION>
 <DEFINITION>
      <FOR>node33</FOR>
     <TABLE>0.3295 0.0299 0.4472 0.074 0.1194 </TABLE>
 </DEFINITION>
 <DEFINITION>
      <FOR>node34</FOR>
      <GIVEN>node20</GIVEN>
     <TABLE>0.0278 0.3483 0.0111 0.4109 0.052 0.0587 0.0912 0.4352 0.114 0.0275 0.1008 0.1382 0.1461 0.0382 0.5316 0.0686 0.1457 0.0287 0.1129 0.0771 0.0354 0.3621 0.1608 0.0078 0.0371 0.2196 0.1002 0.1124 0.1841 0.2531 0.0919 0.0116 0.2686 0.0453 0.1454 </TABLE>
 </DEFINITION>
 <DEFINITION>
      <FOR>node35</FOR>
     <TABLE>0.613 0.0122 0.3748 </TABLE>
 </DEFINITION>
 <DEFINITION>
      <FOR>node36</FOR>
      <GIVEN>node16</GIVEN>
      <GIVEN>node19</GIVEN>
     <TABLE>0.0286 0.1921 0.0197 0.2154 0.2656 0.0736 0.0506 0.1544 0.0357 9.0E-4 0.0263 0.1149 0.0381 0.0673 0.1524 0.5644 0.1281 0.278 0.0216 0.008 0.0649 0.086 0.2311 0.1823 0.0869 0.0527 0.1124 0.0027 0.0827 0.0775 0.3316 0.2535 0.1167 0.0954 0.1119 0.0526 0.2293 0.1653 0.1034 0.1254 0.0736 0.255 0.0873 0.2887 0.0465 0.0202 0.0452 0.1835 0.1135 0.029 0.1275 0.2451 0.0734 0.1442 0.2226 0.0447 0.0962 0.1805 0.1405 0.1617 0.052 0.2069 0.0406 0.1216 0.2284 0.1086 0.0014 0.0662 0.1447 0.0038 0.0351 0.4118 0.0301 0.0029 0.1124 0.0656 0.304 0.3508 0.0278 0.1064 0.4856 0.0194 0.0035 0.1671 0.1156 0.1342 0.0286 0.046 0.0221 0.0314 0.0774 0.4671 0.3276 0.0026 0.0399 0.0319 </TABLE>
 </DEFINITION>
 <DEFINITION>
      <FOR>node37</FOR>
      <GIVEN>node69</GIVEN>
     <TABLE>0.291 0.709 0.0537 0.9463 0.4978 0.5022 0.8384 0.1616 0.2498 0.7502 </TABLE>
 </DEFINITION>
 <DEFINITION>
      <FOR>node38</FOR>
      <GIVEN>node58</GIVEN>
     <TABLE>0.2533 0.7467 0.9038 0.0962 </TABLE>
 </DEFINITION>
 <DEFINITION>
      <FOR>node39</FOR>
      <GIVEN>node30</GIVEN>
      <GIVEN>node71</GIVEN>
     <TABLE>0.7997 0.2003 0.8805 0.1195 0.7601 0.2399 0.9806 0.0194 0.3905 0.6095 0.2049 0.7951 0.9085 0.0915 0.4337 0.5663 0.1571 0.8429 0.9161 0.0839 0.0953 0.9047 0.7583 0.2417 0.1246 0.8754 0.7014 0.2986 0.3582 0.6418 </TABLE>
 </DEFINITION>
 <DEFINITION>
      <FOR>node40</FOR>
      <GIVEN>node2</GIVEN>
     <TABLE>0.0043 0.1831 0.1798 0.3219 0.0065 0.1812 0.085 0.0382 0.0614 0.0776 0.0468 0.3189 0.0337 0.1054 0.0225 0.3337 0.0532 0.2155 0.0396 0.039 0.4115 0.0798 0.0178 0.1436 0.0779 0.208 0.1184 0.0875 0.1432 0.0337 0.0247 0.3066 0.3089 0.1324 0.0204 0.0757 0.099 0.257 0.0949 0.0117 0.0131 0.0235 0.2547 0.0015 0.5833 0.0492 0.0542 0.0205 </TABLE>
 </DEFINITION>
 <DEFINITION>
      <FOR>node41</FOR>
      <GIVEN>node61</GIVEN>
     <TABLE>0.2566 0.0076 0.3467 0.1395 0.2496 0.2768 0.047 0.4934 0.0817 0.1011 0.4961 0.1085 0.3403 0.0339 0.0212 0.4556 0.0886 0.0093 0.0635 0.383 </TABLE>
 </DEFINITION>
 <DEFINITION>
      <FOR>node42</FOR>
      <GIVEN>node73</GIVEN>
     <TABLE>0.598 0.2447 0.1573 0.0889 0.3092 0.6019 0.3758 0.5851 0.0391 0.868 0.0734 0.0586 0.8414 0.0541 0.1045 0.5704 0.4293 3.0E-4 0.262 0.1631 0.5749 0.1196 0.8614 0.019 </TABLE>
 </DEFINITION>
 <DEFINITION>
      <FOR>node43</FOR>
      <GIVEN>node48</GIVEN>
      <GIVEN>node17</GIVEN>
     <TABLE>0.1468 0.0812 0.1789 0.0848 0.3686 0.0335 0.021 0.0852 0.1636 0.0553 0.2022 0.1518 0.0014 0.225 0.0941 0.1066 0.2634 0.4525 0.0758 0.0103 0.0962 0.0479 0.0107 0.0432 0.2886 0.0088 0.0183 0.0313 0.3873 0.0643 0.0241 0.1773 0.1624 0.015 0.0636 0.0166 0.3111 0.1669 0.0648 0.1996 0.292 0.2479 0.0042 0.2151 0.0103 0.1073 0.0114 0.1118 0.2115 0.0317 0.2805 0.1988 0.0734 0.0421 0.0986 0.0634 0.126 0.0263 0.2099 0.047 0.0376 0.0222 0.4544 0.0766 0.1211 0.1248 0.0044 0.0225 0.0246 0.2176 0.2693 0.2157 0.0403 0.3168 0.2732 0.1493 0.0981 0.0132 0.015 0.0941 0.1323 0.0782 0.0037 0.1342 0.0324 0.3816 0.0085 0.2291 0.2715 0.2025 0.0304 0.0772 0.0402 0.0142 0.3339 0.0301 </TABLE>
 </DEFINITION>
 <DEFINITION>
      <FOR>node44</FOR>
     <TABLE>0.2662 0.7338 </TABLE>
 </DEFINITION>
 <DEFINITION>
      <FOR>node45</FOR>
      <GIVEN>node52</GIVEN>
     <TABLE>0.8622 0.1378 0.4511 0.5489 0.5442 0.4558 0.7504 0.2496 </TABLE>
 </DEFINITION>
 <DEFINITION>
      <FOR>node46</FOR>
      <GIVEN>node50</GIVEN>
     <TABLE>0.4586 0.0584 0.2811 0.2019 0.2191 0.0718 0.6315 0.0776 0.6027 0.0795 0.1094 0.2084 0.5145 0.0419 0.3379 0.1057 </TABLE>
 </DEFINITION>
 <DEFINITION>
      <FOR>node47</FOR>
      <GIVEN>node76</GIVEN>
     <TABLE>0.1973 0.0362 0.2322 0.0707 0.0314 0.3152 0.1073 0.0097 0.5122 0.1197 0.068 0.1175 0.0397 0.006 0.0458 0.0911 0.0533 0.1296 0.3477 0.121 0.2236 0.1028 0.0097 0.0123 0.0025 0.1375 0.386 0.0985 0.0486 0.2818 0.0417 0.0034 0.021 0.0357 0.0964 0.2853 0.3618 0.0792 0.0173 0.1033 0.1522 0.034 0.0633 0.2043 0.1495 0.0539 0.2407 0.1021 </TABLE>
 </DEFINITION>
 <DEFINITION>
      <FOR>node48</FOR>
      <GIVEN>node24</GIVEN>
     <TABLE>0.0969 0.0299 0.6492 0.0325 0.0722 0.1193 0.0767 0.4589 0.0576 0.4026 0.0015 0.0027 0.0959 0.0384 0.2833 0.4136 0.0884 0.0804 </TABLE>
 </DEFINITION>
 <DEFINITION>
      <FOR>node49</FOR>
      <GIVEN>node2</GIVEN>
     <TABLE>0.1288 8.0E-4 0.1555 0.2466 0.1928 0.0264 0.2491 0.0971 0.0986 0.0166 0.3645 0.1372 0.1803 0.1057 0.1991 0.2138 0.2598 0.125 0.0433 0.0912 0.0678 0.1894 0.0909 0.0644 0.0536 0.1729 0.2511 0.1777 0.1309 0.1292 0.3089 0.1292 0.2544 0.0039 0.0435 0.2221 0.4652 0.1944 0.0468 0.001 0.0328 0.0377 </TABLE>
 </DEFINITION>
 <DEFINITION>
      <FOR>node50</FOR>
      <GIVEN>node43</GIVEN>
     <TABLE>0.1565 0.3233 0.4338 0.0864 0.28 0.4687 0.2135 0.0378 0.0653 0.1787 0.7274 0.0286 0.6363 0.0655 0.1281 0.1701 0.4357 0.3557 0.0465 0.1621 0.6509 0.1079 0.0342 0.207 0.4348 0.3502 0.1765 0.0385 0.0381 0.2972 0.605 0.0597 </TABLE>
 </DEFINITION>
 <DEFINITION>
      <FOR>node51</FOR>
     <TABLE>0.0771 0.3862 0.295 0.0404 0.2013 </TABLE>
 </DEFINITION>
 <DEFINITION>
      <FOR>node52</FOR>
     <TABLE>0.3691 0.1538 0.0165 0.4606 </TABLE>
 </DEFINITION>
 <DEFINITION>
      <FOR>node53</FOR>
      <GIVEN>node38</GIVEN>
     <TABLE>0.0241 0.3693 0.0109 0.0349 0.0245 0.2348 0.3015 0.071 0.1739 0.2343 0.0667 0.2475 0.1173 0.0893 </TABLE>
 </DEFINITION>
 <DEFINITION>
      <FOR>node54</FOR>
     <TABLE>0.2928 0.0224 0.3317 0.163 0.1318 0.0583 </TABLE>
 </DEFINITION>
 <DEFINITION>
      <FOR>node55</FOR>
      <GIVEN>node49</GIVEN>
     <TABLE>0.8374 0.1626 0.6723 0.3277 0.4518 0.5482 0.8621 0.1379 0.6155 0.3845 0.2147 0.7853 0.2671 0.7329 </TABLE>
 </DEFINITION>
 <DEFINITION>
      <FOR>node56</FOR>
     <TABLE>0.2135 0.5034 0.1469 0.0972 0.039 </TABLE>
 </DEFINITION>
 <DEFINITION>
      <FOR>node57</FOR>
      <GIVEN>node74</GIVEN>
      <GIVEN>node5</GIVEN>
     <TABLE>0.0416 0.9584 0.9118 0.0882 0.801 0.199 0.1087 0.8913 0.7056 0.2944 0.6405 0.3595 0.7072 0.2928 0.5694 0.4306 0.0798 0.9202 0.9426 0.0574 0.9441 0.0559 0.5758 0.4242 0.3234 0.6766 0.118 0.882 0.2899 0.7101 0.002 0.998 0.5828 0.4172 0.4611 0.5389 0.3524 0.6476 0.73 0.27 0.951 0.049 0.6961 0.3039 0.6897 0.3103 0.6393 0.3607 0.5551 0.4449 0.5872 0.4128 0.406 0.594 0.665 0.335 0.1912 0.8088 0.6696 0.3304 0.4405 0.5595 0.6276 0.3724 0.3652 0.6348 0.4279 0.5721 0.4774 0.5226 0.0922 0.9078 0.3084 0.6916 0.7416 0.2584 0.9705 0.0295 0.7119 0.2881 0.5007 0.4993 0.6662 0.3338 0.7347 0.2653 0.2621 0.7379 0.5662 0.4338 0.8191 0.1809 0.1948 0.8052 0.3025 0.6975 0.1599 0.8401 0.4747 0.5253 0.546 0.454 0.5924 0.4076 0.4216 0.5784 0.8779 0.1221 0.3894 0.6106 0.0655 0.9345 0.8516 0.1484 0.0475 0.9525 0.2047 0.7953 0.3525 0.6475 0.245 0.755 0.134 0.866 0.0452 0.9548 0.058 0.942 </TABLE>
 </DEFINITION>
 <DEFINITION>
      <FOR>node58</FOR>
      <GIVEN>node43</GIVEN>
     <TABLE>0.9639 0.0361 0.3911 0.6089 0.9932 0.0068 0.2271 0.7729 0.6789 0.3211 0.7181 0.2819 0.0833 0.9167 0.0995 0.9005 </TABLE>
 </DEFINITION>
 <DEFINITION>
      <FOR>node59</FOR>
      <GIVEN>node6</GIVEN>
     <TABLE>0.0122 0.8106 0.0616 0.1156 0.1941 0.0946 0.5664 0.1449 0.0959 0.7569 0.078 0.0692 0.0341 0.006 0.4461 0.5138 </TABLE>
 </DEFINITION>
 <DEFINITION>
      <FOR>node60</FOR>
      <GIVEN>node33</GIVEN>
      <GIVEN>node20</GIVEN>
     <TABLE>0.142 0.2378 0.1891 0.4311 0.125 0.2453 0.3962 0.2335 0.2658 0.1974 0.03 0.5068 0.1509 0.2174 0.5558 0.0759 0.2309 0.389 0.2175 0.1626 0.4149 0.1099 0.4012 0.074 0.0981 0.3231 0.3014 0.2774 0.1507 0.0553 0.0391 0.7549 0.0727 0.3968 0.2073 0.3232 0.3736 0.0394 0.1836 0.4034 0.6271 0.3625 0.0091 0.0013 0.0173 0.5559 0.0113 0.4155 0.0431 0.0575 0.8774 0.022 0.1524 0.3752 0.4476 0.0248 0.3649 0.0858 0.3896 0.1597 0.363 0.2149 0.3622 0.0599 0.2803 0.0606 0.3387 0.3204 0.7749 0.1802 0.0109 0.034 0.4586 0.1231 0.0479 0.3704 0.0403 0.0113 0.7298 0.2186 0.3405 0.1528 0.3902 0.1165 0.3909 0.1588 0.1451 0.3052 0.1806 0.232 0.5625 0.0249 0.1255 0.1778 0.3022 0.3945 0.6101 0.0315 0.0571 0.3013 </TABLE>
 </DEFINITION>
 <DEFINITION>
      <FOR>node61</FOR>
     <TABLE>0.0339 0.1429 0.0497 0.7735 </TABLE>
 </DEFINITION>
 <DEFINITION>
      <FOR>node62</FOR>
      <GIVEN>node41</GIVEN>
     <TABLE>0.2602 0.1483 0.2091 0.2162 0.1662 0.2987 0.055 0.2791 0.1519 0.2153 0.0297 0.1323 0.5798 0.1485 0.1097 0.023 0.3302 0.2114 0.0091 0.4263 0.1603 0.0504 0.1227 0.5428 0.1238 </TABLE>
 </DEFINITION>
 <DEFINITION>
      <FOR>node63</FOR>
     <TABLE>0.2661 0.2422 0.1355 0.0531 0.0081 0.0564 0.0471 0.1915 </TABLE>
 </DEFINITION>
 <DEFINITION>
      <FOR>node64</FOR>
      <GIVEN>node3</GIVEN>
      <GIVEN>node15</GIVEN>
     <TABLE>0.3612 0.4922 0.1466 0.3995 0.3094 0.2911 0.6271 0.1591 0.2138 0.3318 0.3725 0.2957 0.2331 0.7503 0.0166 0.4574 0.2687 0.2739 0.0438 0.0353 0.9209 0.1975 0.2816 0.5209 0.7434 0.0908 0.1658 0.1334 0.5013 0.3653 0.7215 0.0662 0.2123 0.4438 0.3979 0.1583 0.6167 0.0854 0.2979 0.0498 0.7652 0.185 0.5859 0.1734 0.2407 0.9067 0.0635 0.0298 0.0717 0.3259 0.6024 0.632 0.0058 0.3622 0.5761 0.0905 0.3334 0.1206 0.4802 0.3992 0.5635 0.0336 0.4029 0.0054 0.6861 0.3085 0.5059 0.1346 0.3595 0.0522 0.7773 0.1705 0.195 0.7677 0.0373 0.1114 0.7892 0.0994 0.2115 0.0145 0.774 0.2544 0.1587 0.5869 0.0295 0.4395 0.531 0.0976 0.4152 0.4872 0.232 0.4888 0.2792 0.0449 0.2961 0.659 0.1514 0.3956 0.453 0.0431 0.6739 0.283 0.0566 0.5864 0.357 0.7317 0.0014 0.2669 0.6571 0.2872 0.0557 0.294 0.6899 0.0161 0.4766 0.3396 0.1838 0.3323 0.6677 0.0 0.0761 0.5144 0.4095 0.6156 0.2858 0.0986 0.3601 0.5709 0.069 0.2258 0.6496 0.1246 0.7946 0.1095 0.0959 0.1943 0.3053 0.5004 0.5958 0.3448 0.0594 0.2343 0.0928 0.6729 0.5275 0.4494 0.0231 </TABLE>
 </DEFINITION>
 <DEFINITION>
      <FOR>node65</FOR>
      <GIVEN>node13</GIVEN>
      <GIVEN>node42</GIVEN>
      <GIVEN>node76</GIVEN>
     <TABLE>0.4064 0.3987 0.1261 0.0408 0.028 0.2766 0.0521 0.4938 0.0447 0.1328 0.1293 0.1174 0.1114 0.3598 0.2821 0.1577 0.4512 0.0217 0.3037 0.0657 0.0359 0.0451 0.3673 0.5042 0.0475 0.1488 0.1167 0.1855 0.238 0.311 0.001 0.4923 0.0756 0.2322 0.1989 0.1171 0.2277 0.0283 0.2937 0.3332 0.4121 0.033 0.485 0.0181 0.0518 0.1103 0.2799 0.0945 0.4968 0.0185 0.3382 0.1875 0.0975 0.1018 0.275 0.1312 0.2187 0.0035 0.644 0.0026 0.0456 0.1698 0.1954 0.1007 0.4885 0.0231 0.6698 0.0527 0.0458 0.2086 0.1081 0.4378 0.2929 0.1456 0.0156 0.0754 0.6464 0.2027 0.0597 0.0158 0.0432 0.1565 0.2883 0.4991 0.0129 0.4221 0.0541 0.4237 0.081 0.0191 0.7051 0.0268 0.1678 0.0167 0.0836 0.073 0.4272 0.3995 0.0439 0.0564 0.0186 0.0491 0.175 0.5157 0.2416 0.1589 0.215 0.1837 0.2876 0.1548 0.1942 0.072 0.4773 0.1654 0.0911 0.3087 0.0618 0.0784 0.3533 0.1978 0.2367 0.0827 0.3179 0.13 0.2327 0.0715 0.1431 0.2474 0.4848 0.0532 0.3435 0.4088 0.019 0.1226 0.1061 0.3811 0.1498 0.1583 0.18 0.1308 3.0E-4 0.6382 0.1178 0.074 0.1697 0.2104 0.4485 0.0 0.1569 0.1842 0.1356 0.0417 0.5122 0.2292 0.0813 0.0186 0.0427 0.8253 0.0438 0.0696 0.0609 0.1457 0.1839 0.3772 0.2323 0.0961 0.0156 0.4213 0.3269 0.1401 0.0709 0.0515 0.6033 0.082 0.1923 0.3739 0.2639 0.1247 0.0017 0.2358 0.0592 0.0552 0.4712 0.374 0.0404 0.5097 0.055 0.1579 0.0303 0.2471 0.169 0.0196 0.0651 0.1429 0.6034 0.0348 0.0143 0.1051 0.0041 0.8417 0.4056 0.0425 0.0586 0.2142 0.2791 0.2046 0.2767 0.0046 0.3146 0.1995 0.1752 0.0977 0.1158 0.4576 0.1537 0.1454 0.0853 0.1084 0.3097 0.3512 0.2785 0.1421 0.0182 0.1446 0.4166 0.0243 0.2554 0.0671 0.2603 0.3929 0.4494 0.0575 0.2224 0.0924 0.1783 0.3591 0.0133 0.1808 0.3001 0.1467 0.0299 0.2965 0.1384 0.1872 0.348 0.018 0.1667 0.3183 0.0973 0.3997 0.1543 0.0862 0.0612 0.1682 0.5301 0.017 0.2505 0.1553 0.5546 0.0226 0.0024 0.0134 0.7116 0.2347 0.0379 0.1326 0.0242 0.3206 0.5115 0.0111 </TABLE>
 </DEFINITION>
 <DEFINITION>
      <FOR>node66</FOR>
      <GIVEN>node32</GIVEN>
     <TABLE>0.0111 0.1853 0.0421 0.0085 0.5226 0.0693 0.0865 0.0746 0.0266 0.1893 0.2701 0.1062 0.3163 0.0525 0.011 0.028 0.0297 0.1907 0.2443 0.0634 0.082 0.0113 0.1635 0.2151 0.0237 0.0397 0.0224 0.1816 0.0148 0.4706 0.183 0.0642 </TABLE>
 </DEFINITION>
 <DEFINITION>
      <FOR>node67</FOR>
     <TABLE>0.1399 0.1011 0.5721 0.1542 0.0048 0.0279 </TABLE>
 </DEFINITION>
 <DEFINITION>
      <FOR>node68</FOR>
      <GIVEN>node77</GIVEN>
     <TABLE>0.0141 0.3488 0.2093 0.0404 0.0972 0.1805 0.0455 0.0642 0.0866 0.3245 0.2073 0.0177 0.1106 0.1832 0.0574 0.0127 0.0134 0.0699 0.0011 0.2227 0.3895 0.0288 0.1102 0.1644 0.2837 0.1159 0.0056 0.0326 0.0769 0.2309 0.0715 0.1829 0.1329 0.0463 0.0187 0.1789 0.1349 0.1123 0.2499 0.1261 0.2771 0.2453 0.0546 0.0356 0.0131 0.2406 0.0384 0.0953 </TABLE>
 </DEFINITION>
 <DEFINITION>
      <FOR>node69</FOR>
      <GIVEN>node66</GIVEN>
      <GIVEN>node29</GIVEN>
     <TABLE>0.0243 0.2238 0.3298 0.3231 0.099 0.3236 0.0648 0.4584 0.0913 0.0619 0.4446 0.197 0.0648 0.2133 0.0803 0.0297 0.243 0.2386 0.0432 0.4455 0.2028 0.0393 0.1179 0.4296 0.2104 0.5208 0.1046 0.2223 0.1454 0.0069 0.5878 0.0084 0.0091 0.2661 0.1286 0.1247 0.0444 0.6867 0.0499 0.0943 0.2808 0.523 0.1299 0.0118 0.0545 0.0064 0.1184 0.4509 0.2323 0.192 0.124 0.2552 0.3782 0.2368 0.0058 0.2406 0.3439 0.0133 0.0065 0.3957 0.0069 0.0945 0.6979 0.1468 0.0539 0.1205 0.6303 0.049 0.1053 0.0949 0.1852 0.5516 0.0082 0.0014 0.2536 0.2731 0.0111 0.0055 0.139 0.5713 0.4517 0.0813 0.2395 0.0827 0.1448 0.2153 0.2742 0.2259 0.0046 0.28 0.2669 0.0269 0.0588 0.2605 0.3869 0.1351 0.5363 0.0501 0.1647 0.1138 0.0776 0.2894 0.1533 0.0416 0.4381 0.0362 0.7703 0.0034 0.1056 0.0845 6.0E-4 0.346 0.323 0.3166 0.0138 0.0608 0.0229 0.0319 0.14 0.7444 0.1325 0.4938 0.2542 0.0774 0.0421 0.1403 0.0756 0.0013 0.6106 0.1722 0.1166 0.0774 0.5205 0.206 0.0795 0.131 0.0465 0.2985 0.2344 0.2896 0.0422 0.0343 0.729 0.1062 0.0883 0.0528 0.1826 0.2077 0.3775 0.1794 0.201 0.0293 0.1676 0.2241 0.378 0.1962 0.1545 0.2262 0.1363 0.2868 0.0744 0.29 0.2881 0.109 0.2385 0.2161 0.0338 0.417 0.2061 0.127 0.2335 0.1209 0.0223 0.1035 0.5198 0.0595 0.3129 0.1383 0.1403 0.349 0.6232 0.0706 0.0703 0.0536 0.1823 0.1052 0.1202 0.1911 0.3811 0.2024 0.0238 0.4885 0.1499 0.1339 0.2039 0.0253 0.629 0.2759 0.0688 0.001 0.003 0.4435 0.1148 0.0211 0.4176 0.4546 0.2495 0.015 0.1163 0.1646 0.1518 0.2047 0.0173 0.4742 0.152 0.1231 0.0723 0.6059 0.0935 0.1052 0.325 0.0242 0.0935 0.4686 0.0887 0.0713 0.1635 0.1477 0.0951 0.5224 0.2218 0.0888 0.1395 0.3994 0.1505 0.3991 0.3061 0.0882 0.0336 0.173 0.0093 0.1926 0.2703 0.2007 0.3271 0.2073 0.1469 0.4944 0.0875 0.0639 0.3766 0.1327 0.0736 0.1029 0.3142 0.356 0.3121 0.0065 0.0766 0.2488 0.2443 0.275 0.1998 0.1779 0.103 0.2421 0.4534 0.1843 0.0255 0.0947 0.2448 0.187 0.0283 0.2447 0.2952 0.0835 0.042 0.0149 0.6598 0.1998 0.3824 0.274 0.0978 0.202 0.0438 0.3387 0.2807 0.012 0.3656 0.003 0.1007 0.0426 0.2898 0.1456 0.4213 0.1289 0.11 0.0139 0.0823 0.6649 0.0648 0.2688 0.0507 0.1913 0.4244 0.0671 0.0763 0.3666 0.2996 0.1904 0.1246 0.0258 0.1077 0.104 0.6379 0.2693 0.2046 0.0471 0.174 0.305 </TABLE>
 </DEFINITION>
 <DEFINITION>
      <FOR>node70</FOR>
      <GIVEN>node63</GIVEN>
      <GIVEN>node48</GIVEN>
     <TABLE>0.3121 0.6879 0.2089 0.7911 0.5101 0.4899 0.7281 0.2719 0.472 0.528 0.9307 0.0693 0.6967 0.3033 0.3809 0.6191 0.5061 0.4939 0.7935 0.2065 0.3622 0.6378 0.3662 0.6338 0.1054 0.8946 0.7176 0.2824 0.5489 0.4511 0.3842 0.6158 0.8795 0.1205 0.64 0.36 0.5781 0.4219 0.0881 0.9119 0.8338 0.1662 0.7734 0.2266 0.3672 0.6328 0.4058 0.5942 0.8506 0.1494 0.6957 0.3043 0.1216 0.8784 0.1054 0.8946 0.0391 0.9609 0.4224 0.5776 0.8738 0.1262 0.7616 0.2384 0.4662 0.5338 0.046 0.954 0.7442 0.2558 0.5451 0.4549 0.147 0.853 0.9684 0.0316 0.9688 0.0312 0.3228 0.6772 0.0431 0.9569 0.5279 0.4721 0.1738 0.8262 0.4015 0.5985 0.1576 0.8424 0.7909 0.2091 0.123 0.877 0.9369 0.0631 </TABLE>
 </DEFINITION>
 <DEFINITION>
      <FOR>node71</FOR>
      <GIVEN>node54</GIVEN>
     <TABLE>0.3416 0.4407 0.0011 0.0702 0.1464 0.1578 0.1041 0.0871 0.4961 0.1549 0.0063 0.0177 0.0455 0.6219 0.3086 0.0265 0.0758 0.247 0.4444 0.2063 0.2235 0.2431 0.1191 0.342 0.0723 0.2201 0.0435 0.3126 0.341 0.0828 </TABLE>
 </DEFINITION>
 <DEFINITION>
      <FOR>node72</FOR>
      <GIVEN>node35</GIVEN>
      <GIVEN>node1</GIVEN>
     <TABLE>0.6856 0.3144 0.9425 0.0575 0.461 0.539 0.0868 0.9132 0.6991 0.3009 0.514 0.486 0.2965 0.7035 0.7181 0.2819 0.1839 0.8161 </TABLE>
 </DEFINITION>
 <DEFINITION>
      <FOR>node73</FOR>
     <TABLE>0.1099 0.0452 0.0127 0.4446 0.1434 0.221 0.0058 0.0174 </TABLE>
 </DEFINITION>
 <DEFINITION>
      <FOR>node74</FOR>
      <GIVEN>node36</GIVEN>
     <TABLE>0.2523 0.0529 0.0536 0.309 0.0256 0.1799 0.1106 0.0161 0.2373 0.0225 0.0147 0.2667 0.09 0.0035 0.1391 0.2262 0.0059 0.1013 0.2022 0.2528 0.1542 0.1678 0.0161 0.0997 0.0555 0.0409 0.1511 0.2227 0.01 0.006 0.2292 0.2846 0.2613 0.0823 0.099 0.0686 0.025 0.0223 0.1121 0.3294 0.2315 0.1943 0.0561 0.0239 0.122 0.0194 0.1036 0.2492 0.1931 0.0607 0.0262 0.4315 0.0863 0.1346 0.0201 0.0475 0.0254 0.0312 0.1103 0.0319 0.0659 0.0884 0.6128 0.0341 </TABLE>
 </DEFINITION>
 <DEFINITION>
      <FOR>node75</FOR>
      <GIVEN>node17</GIVEN>
      <GIVEN>node65</GIVEN>
     <TABLE>0.0495 6.0E-4 0.089 0.2496 0.1301 0.2935 0.0524 0.1353 0.0512 0.0296 0.6319 0.0527 0.0193 0.1109 0.0831 0.0213 0.0885 0.0162 0.1477 0.238 0.1077 0.0751 0.3252 0.0016 0.042 0.1347 0.3265 0.0434 0.2153 0.0656 0.0319 0.1406 0.0193 0.1372 0.0069 0.2801 0.091 0.0584 0.3862 0.0209 0.0164 0.2377 0.1727 0.1332 0.2779 0.0362 0.0848 0.0411 0.3122 0.2185 0.0209 0.0089 0.0943 0.1577 0.1395 0.048 0.1664 0.1262 0.0674 0.1055 0.3162 0.05 0.1133 0.055 0.0517 0.1145 0.2541 0.0406 0.0135 0.1266 0.0505 0.3485 0.0584 0.1429 0.0537 0.2296 0.1801 0.2386 0.0397 0.057 </TABLE>
 </DEFINITION>
 <DEFINITION>
      <FOR>node76</FOR>
     <TABLE>0.067 0.036 0.4065 0.1948 0.1464 0.1493 </TABLE>
 </DEFINITION>
 <DEFINITION>
      <FOR>node77</FOR>
      <GIVEN>node3</GIVEN>
     <TABLE>0.2849 0.0646 0.1065 0.1967 0.2552 0.0921 0.2857 0.1019 0.4118 0.1878 4.0E-4 0.0124 0.0228 0.0145 0.2103 0.1873 0.2391 0.326 0.0981 0.0272 0.0202 0.1523 0.5828 0.1194 0.1685 0.1217 0.0165 0.1695 0.1243 0.3995 0.0683 0.0816 0.3453 0.0665 0.0828 0.3555 0.0232 0.1621 0.0982 0.409 0.0308 0.2767 </TABLE>
 </DEFINITION>
 <DEFINITION>
      <FOR>node78</FOR>
      <GIVEN>node50</GIVEN>
     <TABLE>0.2561 0.4084 0.0336 0.076 0.0456 0.0961 0.0166 0.0676 0.0335 0.2892 0.166 0.0439 0.1843 0.0558 0.2199 0.0074 0.1609 0.0576 0.1539 0.0702 0.0655 0.0767 0.1057 0.3095 0.0328 0.0648 0.2535 0.0043 0.2785 0.109 0.1197 0.1374 </TABLE>
 </DEFINITION>
 <DEFINITION>
      <FOR>node79</FOR>
      <GIVEN>node61</GIVEN>
     <TABLE>0.0776 0.1017 0.0664 0.3995 0.1289 0.1923 0.0336 1.0E-4 0.4912 0.3953 0.0741 0.0079 0.0022 0.0292 0.143 0.1167 0.0954 0.2915 0.1416 0.1948 0.017 0.1632 0.0076 0.1289 0.1954 0.066 0.3301 0.1088 </TABLE>
 </DEFINITION>
</NETWORK>
</BIF>
